<?xml version="1.0"?>
<MethodSetup Method="BDT::BDTG">
  <GeneralInfo>
    <Info name="TMVA Release" value="4.1.2 [262402]"/>
    <Info name="ROOT Release" value="5.32/00 [335872]"/>
    <Info name="Creator" value="hebda"/>
    <Info name="Date" value="Mon Oct 28 12:52:11 2013"/>
    <Info name="Host" value="Linux lxbuild167.cern.ch 2.6.18-308.1.1.el5 #1 SMP Wed Mar 7 19:25:07 CET 2012 x86_64 x86_64 x86_64 GNU/Linux"/>
    <Info name="Dir" value="/afs/cern.ch/work/h/hebda/HggHbb/CMSSW_5_2_5/src/ggAnalysis/regression"/>
    <Info name="Training events" value="10746"/>
    <Info name="TrainingTime" value="4.07902408e+00"/>
    <Info name="AnalysisType" value="Regression"/>
  </GeneralInfo>
  <Options>
    <Option name="V" modified="Yes">False</Option>
    <Option name="VerbosityLevel" modified="No">Default</Option>
    <Option name="VarTransform" modified="No">None</Option>
    <Option name="H" modified="Yes">False</Option>
    <Option name="CreateMVAPdfs" modified="No">False</Option>
    <Option name="IgnoreNegWeightsInTraining" modified="No">False</Option>
    <Option name="NTrees" modified="Yes">300</Option>
    <Option name="RenormByClass" modified="No">False</Option>
    <Option name="BoostType" modified="Yes">Grad</Option>
    <Option name="AdaBoostR2Loss" modified="No">quadratic</Option>
    <Option name="UseBaggedGrad" modified="No">False</Option>
    <Option name="GradBaggingFraction" modified="No">6.000000e-01</Option>
    <Option name="Shrinkage" modified="Yes">1.000000e-01</Option>
    <Option name="AdaBoostBeta" modified="No">1.000000e+00</Option>
    <Option name="UseRandomisedTrees" modified="No">False</Option>
    <Option name="UseNvars" modified="No">3</Option>
    <Option name="UsePoissonNvars" modified="No">True</Option>
    <Option name="UseNTrainEvents" modified="No">10746</Option>
    <Option name="UseWeightedTrees" modified="No">True</Option>
    <Option name="UseYesNoLeaf" modified="No">False</Option>
    <Option name="NodePurityLimit" modified="No">5.000000e-01</Option>
    <Option name="SeparationType" modified="No">regressionvariance</Option>
    <Option name="nEventsMin" modified="No">10</Option>
    <Option name="nCuts" modified="Yes">200</Option>
    <Option name="UseFisherCuts" modified="No">False</Option>
    <Option name="MinLinCorrForFisher" modified="No">8.000000e-01</Option>
    <Option name="UseExclusiveVars" modified="No">False</Option>
    <Option name="PruneStrength" modified="No">0.000000e+00</Option>
    <Option name="PruneMethod" modified="No">nopruning</Option>
    <Option name="PruneBeforeBoost" modified="No">False</Option>
    <Option name="PruningValFraction" modified="No">5.000000e-01</Option>
    <Option name="NNodesMax" modified="Yes">5</Option>
    <Option name="MaxDepth" modified="Yes">4</Option>
    <Option name="DoBoostMonitor" modified="No">False</Option>
    <Option name="NegWeightTreatment" modified="Yes">ignorenegweights</Option>
  </Options>
  <Variables NVar="7">
    <Variable VarIndex="0" Expression="jet_eta" Label="jet_eta" Title="jet_eta" Unit="units" Internal="jet_eta" Type="F" Min="-2.48034453e+00" Max="2.48147321e+00"/>
    <Variable VarIndex="1" Expression="jet_emfrac" Label="jet_emfrac" Title="jet_emfrac" Unit="units" Internal="jet_emfrac" Type="F" Min="2.10858695e-03" Max="9.36978579e-01"/>
    <Variable VarIndex="2" Expression="jet_hadfrac" Label="jet_hadfrac" Title="jet_hadfrac" Unit="units" Internal="jet_hadfrac" Type="F" Min="5.03449106e+00" Max="8.57368240e+01"/>
    <Variable VarIndex="3" Expression="jet_nconstituents" Label="jet_nconstituents" Title="jet_nconst" Unit="units" Internal="jet_nconstituents" Type="F" Min="1.00000000e+01" Max="1.21000000e+02"/>
    <Variable VarIndex="4" Expression="jet_vtx3dL" Label="jet_vtx3dL" Title="jet_vtx3dL" Unit="units" Internal="jet_vtx3dL" Type="F" Min="-9.90000000e+01" Max="1.28835421e+01"/>
    <Variable VarIndex="5" Expression="MET" Label="MET" Title="MET" Unit="units" Internal="MET" Type="F" Min="2.49153420e-01" Max="3.69695740e+02"/>
    <Variable VarIndex="6" Expression="jet_dPhiMETJet" Label="jet_dPhiMETJet" Title="jet_dPhiMETJet" Unit="units" Internal="jet_dPhiMETJet" Type="F" Min="1.93119049e-05" Max="3.14139795e+00"/>
  </Variables>
  <Spectators NSpec="0"/>
  <Classes NClass="1">
    <Class Name="Regression" Index="0"/>
  </Classes>
  <Targets NTrgt="1">
    <Target TargetIndex="0" Expression="jet_genJetPt/jet_pt" Label="jet_genJetPt/jet_pt" Title="jet_genJetPt/jet_pt" Unit="" Internal="jet_genJetPt_D_jet_pt" Type="F" Min="2.41391044e-02" Max="4.22631216e+00"/>
  </Targets>
  <Transformations NTransformations="0"/>
  <MVAPdfs/>
  <Weights NTrees="300" AnalysisType="1">
    <BinaryTree type="DecisionTree" boostWeight="1.0099060535430908e+00" itree="0">
      <Node pos="s" depth="0" NCoef="0" IVar="6" Cut="8.7522929906845093e-01" cType="0" res="5.4684095084667206e-03" rms="7.3724694550037384e-02" purity="1.0000000000000000e+00" nType="0">
        <Node pos="l" depth="1" NCoef="0" IVar="-1" Cut="0.0000000000000000e+00" cType="1" res="-4.4340533204376698e-03" rms="6.0909532010555267e-02" purity="1.0000000000000000e+00" nType="-99"/>
        <Node pos="r" depth="1" NCoef="0" IVar="5" Cut="4.6412315368652344e+01" cType="0" res="3.4038659185171127e-02" rms="6.7948922514915466e-02" purity="1.0000000000000000e+00" nType="0">
          <Node pos="l" depth="2" NCoef="0" IVar="-1" Cut="0.0000000000000000e+00" cType="1" res="1.1835674755275249e-02" rms="6.0311239212751389e-02" purity="1.0000000000000000e+00" nType="-99"/>
          <Node pos="r" depth="2" NCoef="0" IVar="-1" Cut="0.0000000000000000e+00" cType="1" res="1.1885898420587182e-03" rms="6.4654186367988586e-02" purity="1.0000000000000000e+00" nType="-99"/>
        </Node>
      </Node>
    </BinaryTree>
    <BinaryTree type="DecisionTree" boostWeight="1.0000000000000000e+00" itree="1">
      <Node pos="s" depth="0" NCoef="0" IVar="6" Cut="8.4397178888320923e-01" cType="0" res="4.7923866659402847e-03" rms="7.1647971868515015e-02" purity="1.0000000000000000e+00" nType="0">
        <Node pos="l" depth="1" NCoef="0" IVar="-1" Cut="0.0000000000000000e+00" cType="1" res="-3.9062374271452427e-03" rms="6.0816630721092224e-02" purity="1.0000000000000000e+00" nType="-99"/>
        <Node pos="r" depth="1" NCoef="0" IVar="5" Cut="5.1922828674316406e+01" cType="0" res="3.0888451263308525e-02" rms="6.7352421581745148e-02" purity="1.0000000000000000e+00" nType="0">
          <Node pos="l" depth="2" NCoef="0" IVar="-1" Cut="0.0000000000000000e+00" cType="1" res="1.2564727105200291e-02" rms="6.1157021671533585e-02" purity="1.0000000000000000e+00" nType="-99"/>
          <Node pos="r" depth="2" NCoef="0" IVar="-1" Cut="0.0000000000000000e+00" cType="1" res="1.4449625741690397e-03" rms="6.4242921769618988e-02" purity="1.0000000000000000e+00" nType="-99"/>
        </Node>
      </Node>
    </BinaryTree>
    <BinaryTree type="DecisionTree" boostWeight="1.0000000000000000e+00" itree="2">
      <Node pos="s" depth="0" NCoef="0" IVar="6" Cut="7.5019925832748413e-01" cType="0" res="4.2144679464399815e-03" rms="7.0127308368682861e-02" purity="1.0000000000000000e+00" nType="0">
        <Node pos="l" depth="1" NCoef="0" IVar="-1" Cut="0.0000000000000000e+00" cType="1" res="-3.2764114439487457e-03" rms="6.1186160892248154e-02" purity="1.0000000000000000e+00" nType="-99"/>
        <Node pos="r" depth="1" NCoef="0" IVar="5" Cut="4.0901802062988281e+01" cType="0" res="2.9397269710898399e-02" rms="6.6994845867156982e-02" purity="1.0000000000000000e+00" nType="0">
          <Node pos="l" depth="2" NCoef="0" IVar="-1" Cut="0.0000000000000000e+00" cType="1" res="8.9186821132898331e-03" rms="6.3534110784530640e-02" purity="1.0000000000000000e+00" nType="-99"/>
          <Node pos="r" depth="2" NCoef="0" IVar="-1" Cut="0.0000000000000000e+00" cType="1" res="6.0721277259290218e-04" rms="6.3007079064846039e-02" purity="1.0000000000000000e+00" nType="-99"/>
        </Node>
      </Node>
    </BinaryTree>
    <BinaryTree type="DecisionTree" boostWeight="1.0000000000000000e+00" itree="3">
      <Node pos="s" depth="0" NCoef="0" IVar="6" Cut="1.2034330368041992e+00" cType="0" res="3.6914483644068241e-03" rms="6.8630024790763855e-02" purity="1.0000000000000000e+00" nType="0">
        <Node pos="l" depth="1" NCoef="0" IVar="-1" Cut="0.0000000000000000e+00" cType="1" res="-4.1075102053582668e-03" rms="5.6943055242300034e-02" purity="1.0000000000000000e+00" nType="-99"/>
        <Node pos="r" depth="1" NCoef="0" IVar="5" Cut="6.2943855285644531e+01" cType="0" res="2.0870551466941833e-02" rms="6.6795684397220612e-02" purity="1.0000000000000000e+00" nType="0">
          <Node pos="l" depth="2" NCoef="0" IVar="-1" Cut="0.0000000000000000e+00" cType="1" res="1.2991704978048801e-02" rms="6.3680872321128845e-02" purity="1.0000000000000000e+00" nType="-99"/>
          <Node pos="r" depth="2" NCoef="0" IVar="-1" Cut="0.0000000000000000e+00" cType="1" res="1.1271095136180520e-03" rms="6.3882380723953247e-02" purity="1.0000000000000000e+00" nType="-99"/>
        </Node>
      </Node>
    </BinaryTree>
    <BinaryTree type="DecisionTree" boostWeight="1.0000000000000000e+00" itree="4">
      <Node pos="s" depth="0" NCoef="0" IVar="6" Cut="5.6265431642532349e-01" cType="0" res="3.1889679376035929e-03" rms="6.7401252686977386e-02" purity="1.0000000000000000e+00" nType="0">
        <Node pos="l" depth="1" NCoef="0" IVar="-1" Cut="0.0000000000000000e+00" cType="1" res="-2.3550232872366905e-03" rms="6.1247397214174271e-02" purity="1.0000000000000000e+00" nType="-99"/>
        <Node pos="r" depth="1" NCoef="0" IVar="5" Cut="3.4073806762695312e+01" cType="0" res="2.7844680473208427e-02" rms="6.5691031515598297e-02" purity="1.0000000000000000e+00" nType="0">
          <Node pos="l" depth="2" NCoef="0" IVar="-1" Cut="0.0000000000000000e+00" cType="1" res="7.2705480270087719e-03" rms="6.3457556068897247e-02" purity="1.0000000000000000e+00" nType="-99"/>
          <Node pos="r" depth="2" NCoef="0" IVar="-1" Cut="0.0000000000000000e+00" cType="1" res="-2.0457874052226543e-04" rms="6.0591123998165131e-02" purity="1.0000000000000000e+00" nType="-99"/>
        </Node>
      </Node>
    </BinaryTree>
    <BinaryTree type="DecisionTree" boostWeight="1.0000000000000000e+00" itree="5">
      <Node pos="s" depth="0" NCoef="0" IVar="6" Cut="1.2346905469894409e+00" cType="0" res="2.8557975310832262e-03" rms="6.6438093781471252e-02" purity="1.0000000000000000e+00" nType="0">
        <Node pos="l" depth="1" NCoef="0" IVar="-1" Cut="0.0000000000000000e+00" cType="1" res="-3.5474745091050863e-03" rms="5.6563548743724823e-02" purity="1.0000000000000000e+00" nType="-99"/>
        <Node pos="r" depth="1" NCoef="0" IVar="5" Cut="7.3964881896972656e+01" cType="0" res="1.6886353492736816e-02" rms="6.5735414624214172e-02" purity="1.0000000000000000e+00" nType="0">
          <Node pos="l" depth="2" NCoef="0" IVar="-1" Cut="0.0000000000000000e+00" cType="1" res="1.5067627653479576e-02" rms="6.4463227987289429e-02" purity="1.0000000000000000e+00" nType="-99"/>
          <Node pos="r" depth="2" NCoef="0" IVar="-1" Cut="0.0000000000000000e+00" cType="1" res="1.0788580402731895e-03" rms="6.3236847519874573e-02" purity="1.0000000000000000e+00" nType="-99"/>
        </Node>
      </Node>
    </BinaryTree>
    <BinaryTree type="DecisionTree" boostWeight="1.0000000000000000e+00" itree="6">
      <Node pos="s" depth="0" NCoef="0" IVar="6" Cut="3.9073804020881653e-01" cType="0" res="2.5100316852331161e-03" rms="6.5747983753681183e-02" purity="1.0000000000000000e+00" nType="0">
        <Node pos="l" depth="1" NCoef="0" IVar="-1" Cut="0.0000000000000000e+00" cType="1" res="-1.6307546757161617e-03" rms="6.1513248831033707e-02" purity="1.0000000000000000e+00" nType="-99"/>
        <Node pos="r" depth="1" NCoef="0" IVar="5" Cut="7.4695159912109375e+01" cType="0" res="2.7462905272841454e-02" rms="6.5141454339027405e-02" purity="1.0000000000000000e+00" nType="0">
          <Node pos="l" depth="2" NCoef="0" IVar="-1" Cut="0.0000000000000000e+00" cType="1" res="1.8533894792199135e-02" rms="5.8528631925582886e-02" purity="1.0000000000000000e+00" nType="-99"/>
          <Node pos="r" depth="2" NCoef="0" IVar="-1" Cut="0.0000000000000000e+00" cType="1" res="1.9747666083276272e-03" rms="6.3150718808174133e-02" purity="1.0000000000000000e+00" nType="-99"/>
        </Node>
      </Node>
    </BinaryTree>
    <BinaryTree type="DecisionTree" boostWeight="1.0000000000000000e+00" itree="7">
      <Node pos="s" depth="0" NCoef="0" IVar="6" Cut="1.6879242658615112e+00" cType="0" res="2.2840297315269709e-03" rms="6.5200850367546082e-02" purity="1.0000000000000000e+00" nType="0">
        <Node pos="l" depth="1" NCoef="0" IVar="-1" Cut="0.0000000000000000e+00" cType="1" res="-3.8598945830017328e-03" rms="5.4493293166160583e-02" purity="1.0000000000000000e+00" nType="-99"/>
        <Node pos="r" depth="1" NCoef="0" IVar="5" Cut="2.7819793701171875e+01" cType="0" res="1.2109667062759399e-02" rms="6.4840808510780334e-02" purity="1.0000000000000000e+00" nType="0">
          <Node pos="l" depth="2" NCoef="0" IVar="-1" Cut="0.0000000000000000e+00" cType="1" res="3.3340009395033121e-03" rms="6.5628081560134888e-02" purity="1.0000000000000000e+00" nType="-99"/>
          <Node pos="r" depth="2" NCoef="0" IVar="-1" Cut="0.0000000000000000e+00" cType="1" res="-1.0115471668541431e-03" rms="5.8383684605360031e-02" purity="1.0000000000000000e+00" nType="-99"/>
        </Node>
      </Node>
    </BinaryTree>
    <BinaryTree type="DecisionTree" boostWeight="1.0000000000000000e+00" itree="8">
      <Node pos="s" depth="0" NCoef="0" IVar="6" Cut="3.4385180473327637e-01" cType="0" res="2.0576082170009613e-03" rms="6.4531043171882629e-02" purity="1.0000000000000000e+00" nType="0">
        <Node pos="l" depth="1" NCoef="0" IVar="-1" Cut="0.0000000000000000e+00" cType="1" res="-1.3175727799534798e-03" rms="6.0919374227523804e-02" purity="1.0000000000000000e+00" nType="-99"/>
        <Node pos="r" depth="1" NCoef="0" IVar="5" Cut="8.5688972473144531e+01" cType="0" res="2.5167001411318779e-02" rms="6.5190888941287994e-02" purity="1.0000000000000000e+00" nType="0">
          <Node pos="l" depth="2" NCoef="0" IVar="-1" Cut="0.0000000000000000e+00" cType="1" res="2.1114276722073555e-02" rms="5.6833587586879730e-02" purity="1.0000000000000000e+00" nType="-99"/>
          <Node pos="r" depth="2" NCoef="0" IVar="-1" Cut="0.0000000000000000e+00" cType="1" res="2.0012333989143372e-03" rms="6.3616164028644562e-02" purity="1.0000000000000000e+00" nType="-99"/>
        </Node>
      </Node>
    </BinaryTree>
    <BinaryTree type="DecisionTree" boostWeight="1.0000000000000000e+00" itree="9">
      <Node pos="s" depth="0" NCoef="0" IVar="6" Cut="1.6722954511642456e+00" cType="0" res="1.8955117557197809e-03" rms="6.4018130302429199e-02" purity="1.0000000000000000e+00" nType="0">
        <Node pos="l" depth="1" NCoef="0" IVar="-1" Cut="0.0000000000000000e+00" cType="1" res="-3.3104296308010817e-03" rms="5.4513584822416306e-02" purity="1.0000000000000000e+00" nType="-99"/>
        <Node pos="r" depth="1" NCoef="0" IVar="5" Cut="5.3552391052246094e+01" cType="0" res="1.0417918674647808e-02" rms="6.4187906682491302e-02" purity="1.0000000000000000e+00" nType="0">
          <Node pos="l" depth="2" NCoef="0" IVar="-1" Cut="0.0000000000000000e+00" cType="1" res="6.0344305820763111e-03" rms="6.9029696285724640e-02" purity="1.0000000000000000e+00" nType="-99"/>
          <Node pos="r" depth="2" NCoef="0" IVar="-1" Cut="0.0000000000000000e+00" cType="1" res="1.9525740935932845e-04" rms="6.0106161981821060e-02" purity="1.0000000000000000e+00" nType="-99"/>
        </Node>
      </Node>
    </BinaryTree>
    <BinaryTree type="DecisionTree" boostWeight="1.0000000000000000e+00" itree="10">
      <Node pos="s" depth="0" NCoef="0" IVar="6" Cut="1.6879242658615112e+00" cType="0" res="1.7199405701830983e-03" rms="6.3702732324600220e-02" purity="1.0000000000000000e+00" nType="0">
        <Node pos="l" depth="1" NCoef="0" IVar="-1" Cut="0.0000000000000000e+00" cType="1" res="-3.0125335324555635e-03" rms="5.4681487381458282e-02" purity="1.0000000000000000e+00" nType="-99"/>
        <Node pos="r" depth="1" NCoef="0" IVar="5" Cut="9.5827377319335938e+01" cType="0" res="9.3459254130721092e-03" rms="6.4163871109485626e-02" purity="1.0000000000000000e+00" nType="0">
          <Node pos="l" depth="2" NCoef="0" IVar="-1" Cut="0.0000000000000000e+00" cType="1" res="1.6484946012496948e-02" rms="6.7958205938339233e-02" purity="1.0000000000000000e+00" nType="-99"/>
          <Node pos="r" depth="2" NCoef="0" IVar="-1" Cut="0.0000000000000000e+00" cType="1" res="6.6594511736184359e-04" rms="6.2525607645511627e-02" purity="1.0000000000000000e+00" nType="-99"/>
        </Node>
      </Node>
    </BinaryTree>
    <BinaryTree type="DecisionTree" boostWeight="1.0000000000000000e+00" itree="11">
      <Node pos="s" depth="0" NCoef="0" IVar="6" Cut="3.4385180473327637e-01" cType="0" res="1.5892409719526768e-03" rms="6.3308544456958771e-02" purity="1.0000000000000000e+00" nType="0">
        <Node pos="l" depth="1" NCoef="0" IVar="-1" Cut="0.0000000000000000e+00" cType="1" res="-1.0899598710238934e-03" rms="5.9887498617172241e-02" purity="1.0000000000000000e+00" nType="-99"/>
        <Node pos="r" depth="1" NCoef="0" IVar="5" Cut="3.2552223205566406e+01" cType="0" res="2.0311443135142326e-02" rms="6.5636828541755676e-02" purity="1.0000000000000000e+00" nType="0">
          <Node pos="l" depth="2" NCoef="0" IVar="-1" Cut="0.0000000000000000e+00" cType="1" res="5.5755847133696079e-03" rms="6.5530724823474884e-02" purity="1.0000000000000000e+00" nType="-99"/>
          <Node pos="r" depth="2" NCoef="0" IVar="-1" Cut="0.0000000000000000e+00" cType="1" res="-9.1003900161013007e-04" rms="5.7837754487991333e-02" purity="1.0000000000000000e+00" nType="-99"/>
        </Node>
      </Node>
    </BinaryTree>
    <BinaryTree type="DecisionTree" boostWeight="1.0000000000000000e+00" itree="12">
      <Node pos="s" depth="0" NCoef="0" IVar="6" Cut="1.7660679817199707e+00" cType="0" res="1.4751562848687172e-03" rms="6.3036501407623291e-02" purity="1.0000000000000000e+00" nType="0">
        <Node pos="l" depth="1" NCoef="0" IVar="-1" Cut="0.0000000000000000e+00" cType="1" res="-2.7163198683410883e-03" rms="5.4659221321344376e-02" purity="1.0000000000000000e+00" nType="-99"/>
        <Node pos="r" depth="1" NCoef="0" IVar="5" Cut="9.5827377319335938e+01" cType="0" res="7.8626237809658051e-03" rms="6.3691109418869019e-02" purity="1.0000000000000000e+00" nType="0">
          <Node pos="l" depth="2" NCoef="0" IVar="-1" Cut="0.0000000000000000e+00" cType="1" res="1.4293293468654156e-02" rms="7.0011585950851440e-02" purity="1.0000000000000000e+00" nType="-99"/>
          <Node pos="r" depth="2" NCoef="0" IVar="-1" Cut="0.0000000000000000e+00" cType="1" res="5.2762974519282579e-04" rms="6.2070980668067932e-02" purity="1.0000000000000000e+00" nType="-99"/>
        </Node>
      </Node>
    </BinaryTree>
    <BinaryTree type="DecisionTree" boostWeight="1.0000000000000000e+00" itree="13">
      <Node pos="s" depth="0" NCoef="0" IVar="6" Cut="2.3445054888725281e-01" cType="0" res="1.3493465958163142e-03" rms="6.2631629407405853e-02" purity="1.0000000000000000e+00" nType="0">
        <Node pos="l" depth="1" NCoef="0" IVar="-1" Cut="0.0000000000000000e+00" cType="1" res="-7.8501080861315131e-04" rms="6.0315262526273727e-02" purity="1.0000000000000000e+00" nType="-99"/>
        <Node pos="r" depth="1" NCoef="0" IVar="5" Cut="9.3018180847167969e+01" cType="0" res="2.1266588941216469e-02" rms="6.5149806439876556e-02" purity="1.0000000000000000e+00" nType="0">
          <Node pos="l" depth="2" NCoef="0" IVar="-1" Cut="0.0000000000000000e+00" cType="1" res="1.9359797239303589e-02" rms="5.9534262865781784e-02" purity="1.0000000000000000e+00" nType="-99"/>
          <Node pos="r" depth="2" NCoef="0" IVar="-1" Cut="0.0000000000000000e+00" cType="1" res="1.6756752738729119e-03" rms="6.3529372215270996e-02" purity="1.0000000000000000e+00" nType="-99"/>
        </Node>
      </Node>
    </BinaryTree>
    <BinaryTree type="DecisionTree" boostWeight="1.0000000000000000e+00" itree="14">
      <Node pos="s" depth="0" NCoef="0" IVar="6" Cut="2.1567866802215576e+00" cType="0" res="1.2996043078601360e-03" rms="6.2448631972074509e-02" purity="1.0000000000000000e+00" nType="0">
        <Node pos="l" depth="1" NCoef="0" IVar="-1" Cut="0.0000000000000000e+00" cType="1" res="-2.9403665103018284e-03" rms="5.4252237081527710e-02" purity="1.0000000000000000e+00" nType="-99"/>
        <Node pos="r" depth="1" NCoef="0" IVar="2" Cut="2.8321731567382812e+01" cType="0" res="5.9456587769091129e-03" rms="6.2812440097332001e-02" purity="1.0000000000000000e+00" nType="0">
          <Node pos="l" depth="2" NCoef="0" IVar="-1" Cut="0.0000000000000000e+00" cType="1" res="-1.0028789984062314e-03" rms="6.0053698718547821e-02" purity="1.0000000000000000e+00" nType="-99"/>
          <Node pos="r" depth="2" NCoef="0" IVar="-1" Cut="0.0000000000000000e+00" cType="1" res="1.7483948031440377e-03" rms="6.3168600201606750e-02" purity="1.0000000000000000e+00" nType="-99"/>
        </Node>
      </Node>
    </BinaryTree>
    <BinaryTree type="DecisionTree" boostWeight="1.0000000000000000e+00" itree="15">
      <Node pos="s" depth="0" NCoef="0" IVar="6" Cut="3.4385180473327637e-01" cType="0" res="1.2153884163126349e-03" rms="6.2113851308822632e-02" purity="1.0000000000000000e+00" nType="0">
        <Node pos="l" depth="1" NCoef="0" IVar="-1" Cut="0.0000000000000000e+00" cType="1" res="-8.4497587522491813e-04" rms="5.8950126171112061e-02" purity="1.0000000000000000e+00" nType="-99"/>
        <Node pos="r" depth="1" NCoef="0" IVar="5" Cut="4.3546031951904297e+01" cType="0" res="1.5544246882200241e-02" rms="6.5587833523750305e-02" purity="1.0000000000000000e+00" nType="0">
          <Node pos="l" depth="2" NCoef="0" IVar="-1" Cut="0.0000000000000000e+00" cType="1" res="5.6939437054097652e-03" rms="6.7273780703544617e-02" purity="1.0000000000000000e+00" nType="-99"/>
          <Node pos="r" depth="2" NCoef="0" IVar="-1" Cut="0.0000000000000000e+00" cType="1" res="-3.1735596712678671e-04" rms="5.8970447629690170e-02" purity="1.0000000000000000e+00" nType="-99"/>
        </Node>
      </Node>
    </BinaryTree>
    <BinaryTree type="DecisionTree" boostWeight="1.0000000000000000e+00" itree="16">
      <Node pos="s" depth="0" NCoef="0" IVar="6" Cut="1.3440917730331421e+00" cType="0" res="1.1327631073072553e-03" rms="6.2038805335760117e-02" purity="1.0000000000000000e+00" nType="0">
        <Node pos="l" depth="1" NCoef="0" IVar="-1" Cut="0.0000000000000000e+00" cType="1" res="-1.7322194762527943e-03" rms="5.4995931684970856e-02" purity="1.0000000000000000e+00" nType="-99"/>
        <Node pos="r" depth="1" NCoef="0" IVar="5" Cut="1.2539633178710938e+02" cType="0" res="7.1143237873911858e-03" rms="6.3669539988040924e-02" purity="1.0000000000000000e+00" nType="0">
          <Node pos="l" depth="2" NCoef="0" IVar="-1" Cut="0.0000000000000000e+00" cType="1" res="2.3451017215847969e-02" rms="6.5103918313980103e-02" purity="1.0000000000000000e+00" nType="-99"/>
          <Node pos="r" depth="2" NCoef="0" IVar="-1" Cut="0.0000000000000000e+00" cType="1" res="6.1393977375701070e-04" rms="6.2853142619132996e-02" purity="1.0000000000000000e+00" nType="-99"/>
        </Node>
      </Node>
    </BinaryTree>
    <BinaryTree type="DecisionTree" boostWeight="1.0000000000000000e+00" itree="17">
      <Node pos="s" depth="0" NCoef="0" IVar="6" Cut="2.3445054888725281e-01" cType="0" res="1.0862674098461866e-03" rms="6.1757802963256836e-02" purity="1.0000000000000000e+00" nType="0">
        <Node pos="l" depth="1" NCoef="0" IVar="-1" Cut="0.0000000000000000e+00" cType="1" res="-6.2053109286352992e-04" rms="5.9589307755231857e-02" purity="1.0000000000000000e+00" nType="-99"/>
        <Node pos="r" depth="1" NCoef="0" IVar="5" Cut="1.0950889587402344e+02" cType="0" res="1.6530452296137810e-02" rms="6.5438449382781982e-02" purity="1.0000000000000000e+00" nType="0">
          <Node pos="l" depth="2" NCoef="0" IVar="-1" Cut="0.0000000000000000e+00" cType="1" res="2.2294312715530396e-02" rms="5.9552736580371857e-02" purity="1.0000000000000000e+00" nType="-99"/>
          <Node pos="r" depth="2" NCoef="0" IVar="-1" Cut="0.0000000000000000e+00" cType="1" res="1.3842112384736538e-03" rms="6.4103513956069946e-02" purity="1.0000000000000000e+00" nType="-99"/>
        </Node>
      </Node>
    </BinaryTree>
    <BinaryTree type="DecisionTree" boostWeight="1.0000000000000000e+00" itree="18">
      <Node pos="s" depth="0" NCoef="0" IVar="6" Cut="2.1567866802215576e+00" cType="0" res="1.0826162761077285e-03" rms="6.1772618442773819e-02" purity="1.0000000000000000e+00" nType="0">
        <Node pos="l" depth="1" NCoef="0" IVar="-1" Cut="0.0000000000000000e+00" cType="1" res="-2.3274428676813841e-03" rms="5.4434306919574738e-02" purity="1.0000000000000000e+00" nType="-99"/>
        <Node pos="r" depth="1" NCoef="0" IVar="2" Cut="2.7518722534179688e+01" cType="0" res="4.7620004042983055e-03" rms="6.2388483434915543e-02" purity="1.0000000000000000e+00" nType="0">
          <Node pos="l" depth="2" NCoef="0" IVar="-1" Cut="0.0000000000000000e+00" cType="1" res="-9.1260753106325865e-04" rms="5.9610668569803238e-02" purity="1.0000000000000000e+00" nType="-99"/>
          <Node pos="r" depth="2" NCoef="0" IVar="-1" Cut="0.0000000000000000e+00" cType="1" res="1.5707644633948803e-03" rms="6.3051745295524597e-02" purity="1.0000000000000000e+00" nType="-99"/>
        </Node>
      </Node>
    </BinaryTree>
    <BinaryTree type="DecisionTree" boostWeight="1.0000000000000000e+00" itree="19">
      <Node pos="s" depth="0" NCoef="0" IVar="5" Cut="6.4580650329589844e+01" cType="0" res="1.0229544714093208e-03" rms="6.1520002782344818e-02" purity="1.0000000000000000e+00" nType="0">
        <Node pos="l" depth="1" NCoef="0" IVar="-1" Cut="0.0000000000000000e+00" cType="1" res="3.9829146116971970e-03" rms="7.1593344211578369e-02" purity="1.0000000000000000e+00" nType="-99"/>
        <Node pos="r" depth="1" NCoef="0" IVar="6" Cut="2.1567866802215576e+00" cType="0" res="-2.6364233344793320e-03" rms="5.8548577129840851e-02" purity="1.0000000000000000e+00" nType="0">
          <Node pos="l" depth="2" NCoef="0" IVar="-1" Cut="0.0000000000000000e+00" cType="1" res="-2.0831935107707977e-03" rms="5.4186947643756866e-02" purity="1.0000000000000000e+00" nType="-99"/>
          <Node pos="r" depth="2" NCoef="0" IVar="-1" Cut="0.0000000000000000e+00" cType="1" res="-1.2111032447137404e-05" rms="5.9053502976894379e-02" purity="1.0000000000000000e+00" nType="-99"/>
        </Node>
      </Node>
    </BinaryTree>
    <BinaryTree type="DecisionTree" boostWeight="1.0000000000000000e+00" itree="20">
      <Node pos="s" depth="0" NCoef="0" IVar="5" Cut="1.3258822631835938e+02" cType="0" res="9.9245063029229641e-04" rms="6.1539478600025177e-02" purity="1.0000000000000000e+00" nType="0">
        <Node pos="l" depth="1" NCoef="0" IVar="-1" Cut="0.0000000000000000e+00" cType="1" res="2.1284418180584908e-02" rms="6.5671689808368683e-02" purity="1.0000000000000000e+00" nType="-99"/>
        <Node pos="r" depth="1" NCoef="0" IVar="2" Cut="2.4306690216064453e+01" cType="0" res="-2.5244717835448682e-04" rms="6.0917750000953674e-02" purity="1.0000000000000000e+00" nType="0">
          <Node pos="l" depth="2" NCoef="0" IVar="-1" Cut="0.0000000000000000e+00" cType="1" res="-1.0317526757717133e-03" rms="5.9177257120609283e-02" purity="1.0000000000000000e+00" nType="-99"/>
          <Node pos="r" depth="2" NCoef="0" IVar="-1" Cut="0.0000000000000000e+00" cType="1" res="9.1892201453447342e-04" rms="6.1852496117353439e-02" purity="1.0000000000000000e+00" nType="-99"/>
        </Node>
      </Node>
    </BinaryTree>
    <BinaryTree type="DecisionTree" boostWeight="1.0000000000000000e+00" itree="21">
      <Node pos="s" depth="0" NCoef="0" IVar="6" Cut="2.3445054888725281e-01" cType="0" res="9.7359868232160807e-04" rms="6.1405971646308899e-02" purity="1.0000000000000000e+00" nType="0">
        <Node pos="l" depth="1" NCoef="0" IVar="-1" Cut="0.0000000000000000e+00" cType="1" res="-5.2090256940573454e-04" rms="5.9322431683540344e-02" purity="1.0000000000000000e+00" nType="-99"/>
        <Node pos="r" depth="1" NCoef="0" IVar="5" Cut="6.9198257446289062e+01" cType="0" res="1.3991974294185638e-02" rms="6.5546460449695587e-02" purity="1.0000000000000000e+00" nType="0">
          <Node pos="l" depth="2" NCoef="0" IVar="-1" Cut="0.0000000000000000e+00" cType="1" res="9.3426210805773735e-03" rms="6.9011360406875610e-02" purity="1.0000000000000000e+00" nType="-99"/>
          <Node pos="r" depth="2" NCoef="0" IVar="-1" Cut="0.0000000000000000e+00" cType="1" res="4.1589961620047688e-04" rms="6.1414510011672974e-02" purity="1.0000000000000000e+00" nType="-99"/>
        </Node>
      </Node>
    </BinaryTree>
    <BinaryTree type="DecisionTree" boostWeight="1.0000000000000000e+00" itree="22">
      <Node pos="s" depth="0" NCoef="0" IVar="5" Cut="1.3810235595703125e+02" cType="0" res="9.0530188754200935e-04" rms="6.1240404844284058e-02" purity="1.0000000000000000e+00" nType="0">
        <Node pos="l" depth="1" NCoef="0" IVar="-1" Cut="0.0000000000000000e+00" cType="1" res="2.3390237241983414e-02" rms="6.6608518362045288e-02" purity="1.0000000000000000e+00" nType="-99"/>
        <Node pos="r" depth="1" NCoef="0" IVar="3" Cut="4.6447761535644531e+01" cType="0" res="-1.2369360774755478e-04" rms="6.0701373964548111e-02" purity="1.0000000000000000e+00" nType="0">
          <Node pos="l" depth="2" NCoef="0" IVar="-1" Cut="0.0000000000000000e+00" cType="1" res="-1.2113384436815977e-03" rms="5.7943709194660187e-02" purity="1.0000000000000000e+00" nType="-99"/>
          <Node pos="r" depth="2" NCoef="0" IVar="-1" Cut="0.0000000000000000e+00" cType="1" res="6.7150546237826347e-04" rms="6.1773050576448441e-02" purity="1.0000000000000000e+00" nType="-99"/>
        </Node>
      </Node>
    </BinaryTree>
    <BinaryTree type="DecisionTree" boostWeight="1.0000000000000000e+00" itree="23">
      <Node pos="s" depth="0" NCoef="0" IVar="6" Cut="5.6265431642532349e-01" cType="0" res="8.6767337052151561e-04" rms="6.1075575649738312e-02" purity="1.0000000000000000e+00" nType="0">
        <Node pos="l" depth="1" NCoef="0" IVar="-1" Cut="0.0000000000000000e+00" cType="1" res="-7.4576266342774034e-04" rms="5.6860487908124924e-02" purity="1.0000000000000000e+00" nType="-99"/>
        <Node pos="r" depth="1" NCoef="0" IVar="5" Cut="2.6737806320190430e+01" cType="0" res="8.2341842353343964e-03" rms="6.4805775880813599e-02" purity="1.0000000000000000e+00" nType="0">
          <Node pos="l" depth="2" NCoef="0" IVar="-1" Cut="0.0000000000000000e+00" cType="1" res="2.1862727589905262e-03" rms="6.5949216485023499e-02" purity="1.0000000000000000e+00" nType="-99"/>
          <Node pos="r" depth="2" NCoef="0" IVar="-1" Cut="0.0000000000000000e+00" cType="1" res="-1.5844401204958558e-03" rms="5.6117609143257141e-02" purity="1.0000000000000000e+00" nType="-99"/>
        </Node>
      </Node>
    </BinaryTree>
    <BinaryTree type="DecisionTree" boostWeight="1.0000000000000000e+00" itree="24">
      <Node pos="s" depth="0" NCoef="0" IVar="3" Cut="3.8164180755615234e+01" cType="0" res="8.4567081648856401e-04" rms="6.1028536409139633e-02" purity="1.0000000000000000e+00" nType="0">
        <Node pos="l" depth="1" NCoef="0" IVar="-1" Cut="0.0000000000000000e+00" cType="1" res="-6.4505188493058085e-04" rms="5.9663973748683929e-02" purity="1.0000000000000000e+00" nType="-99"/>
        <Node pos="r" depth="1" NCoef="0" IVar="6" Cut="2.6570805907249451e-01" cType="0" res="9.0932007879018784e-03" rms="6.2287710607051849e-02" purity="1.0000000000000000e+00" nType="0">
          <Node pos="l" depth="2" NCoef="0" IVar="-1" Cut="0.0000000000000000e+00" cType="1" res="3.0483226873911917e-04" rms="6.0201846063137054e-02" purity="1.0000000000000000e+00" nType="-99"/>
          <Node pos="r" depth="2" NCoef="0" IVar="-1" Cut="0.0000000000000000e+00" cType="1" res="4.6101398766040802e-03" rms="6.4572304487228394e-02" purity="1.0000000000000000e+00" nType="-99"/>
        </Node>
      </Node>
    </BinaryTree>
    <BinaryTree type="DecisionTree" boostWeight="1.0000000000000000e+00" itree="25">
      <Node pos="s" depth="0" NCoef="0" IVar="5" Cut="1.3810235595703125e+02" cType="0" res="8.2166423089802265e-04" rms="6.0996811836957932e-02" purity="1.0000000000000000e+00" nType="0">
        <Node pos="l" depth="1" NCoef="0" IVar="-1" Cut="0.0000000000000000e+00" cType="1" res="2.0852301269769669e-02" rms="6.8868093192577362e-02" purity="1.0000000000000000e+00" nType="-99"/>
        <Node pos="r" depth="1" NCoef="0" IVar="2" Cut="3.5147300720214844e+01" cType="0" res="-1.0132883471669629e-04" rms="6.0479834675788879e-02" purity="1.0000000000000000e+00" nType="0">
          <Node pos="l" depth="2" NCoef="0" IVar="-1" Cut="0.0000000000000000e+00" cType="1" res="-1.7733181593939662e-03" rms="5.4558370262384415e-02" purity="1.0000000000000000e+00" nType="-99"/>
          <Node pos="r" depth="2" NCoef="0" IVar="-1" Cut="0.0000000000000000e+00" cType="1" res="2.4045158352237195e-04" rms="6.1137702316045761e-02" purity="1.0000000000000000e+00" nType="-99"/>
        </Node>
      </Node>
    </BinaryTree>
    <BinaryTree type="DecisionTree" boostWeight="1.0000000000000000e+00" itree="26">
      <Node pos="s" depth="0" NCoef="0" IVar="6" Cut="2.1567866802215576e+00" cType="0" res="7.7877927105873823e-04" rms="6.0818441212177277e-02" purity="1.0000000000000000e+00" nType="0">
        <Node pos="l" depth="1" NCoef="0" IVar="-1" Cut="0.0000000000000000e+00" cType="1" res="-1.7150943167507648e-03" rms="5.4351393133401871e-02" purity="1.0000000000000000e+00" nType="-99"/>
        <Node pos="r" depth="1" NCoef="0" IVar="2" Cut="2.0291648864746094e+01" cType="0" res="3.4799834247678518e-03" rms="6.1596304178237915e-02" purity="1.0000000000000000e+00" nType="0">
          <Node pos="l" depth="2" NCoef="0" IVar="-1" Cut="0.0000000000000000e+00" cType="1" res="-1.8116112914867699e-04" rms="6.0238230973482132e-02" purity="1.0000000000000000e+00" nType="-99"/>
          <Node pos="r" depth="2" NCoef="0" IVar="-1" Cut="0.0000000000000000e+00" cType="1" res="2.0753219723701477e-03" rms="6.3671648502349854e-02" purity="1.0000000000000000e+00" nType="-99"/>
        </Node>
      </Node>
    </BinaryTree>
    <BinaryTree type="DecisionTree" boostWeight="1.0000000000000000e+00" itree="27">
      <Node pos="s" depth="0" NCoef="0" IVar="6" Cut="1.0002592802047729e+00" cType="0" res="7.6377950608730316e-04" rms="6.0797948390245438e-02" purity="1.0000000000000000e+00" nType="0">
        <Node pos="l" depth="1" NCoef="0" IVar="-1" Cut="0.0000000000000000e+00" cType="1" res="-8.6846604244783521e-04" rms="5.5125802755355835e-02" purity="1.0000000000000000e+00" nType="-99"/>
        <Node pos="r" depth="1" NCoef="0" IVar="5" Cut="2.2533426284790039e+01" cType="0" res="5.1287966780364513e-03" rms="6.3477508723735809e-02" purity="1.0000000000000000e+00" nType="0">
          <Node pos="l" depth="2" NCoef="0" IVar="-1" Cut="0.0000000000000000e+00" cType="1" res="1.2973825214430690e-03" rms="6.4763210713863373e-02" purity="1.0000000000000000e+00" nType="-99"/>
          <Node pos="r" depth="2" NCoef="0" IVar="-1" Cut="0.0000000000000000e+00" cType="1" res="-1.3715273234993219e-03" rms="5.5397566407918930e-02" purity="1.0000000000000000e+00" nType="-99"/>
        </Node>
      </Node>
    </BinaryTree>
    <BinaryTree type="DecisionTree" boostWeight="1.0000000000000000e+00" itree="28">
      <Node pos="s" depth="0" NCoef="0" IVar="5" Cut="1.3810235595703125e+02" cType="0" res="7.5550616020336747e-04" rms="6.0796339064836502e-02" purity="1.0000000000000000e+00" nType="0">
        <Node pos="l" depth="1" NCoef="0" IVar="-1" Cut="0.0000000000000000e+00" cType="1" res="1.8642656505107880e-02" rms="7.1031428873538971e-02" purity="1.0000000000000000e+00" nType="-99"/>
        <Node pos="r" depth="1" NCoef="0" IVar="3" Cut="4.7552238464355469e+01" cType="0" res="-6.5696040110196918e-05" rms="6.0291703790426254e-02" purity="1.0000000000000000e+00" nType="0">
          <Node pos="l" depth="2" NCoef="0" IVar="-1" Cut="0.0000000000000000e+00" cType="1" res="-9.6593570197001100e-04" rms="5.7581469416618347e-02" purity="1.0000000000000000e+00" nType="-99"/>
          <Node pos="r" depth="2" NCoef="0" IVar="-1" Cut="0.0000000000000000e+00" cType="1" res="4.6556038432754576e-04" rms="6.1440333724021912e-02" purity="1.0000000000000000e+00" nType="-99"/>
        </Node>
      </Node>
    </BinaryTree>
    <BinaryTree type="DecisionTree" boostWeight="1.0000000000000000e+00" itree="29">
      <Node pos="s" depth="0" NCoef="0" IVar="5" Cut="1.6934909057617188e+02" cType="0" res="7.2963477578014135e-04" rms="6.0706175863742828e-02" purity="1.0000000000000000e+00" nType="0">
        <Node pos="l" depth="1" NCoef="0" IVar="-1" Cut="0.0000000000000000e+00" cType="1" res="3.6379750818014145e-02" rms="6.3688375055789948e-02" purity="1.0000000000000000e+00" nType="-99"/>
        <Node pos="r" depth="1" NCoef="0" IVar="1" Cut="5.6954210996627808e-01" cType="0" res="2.0348088582977653e-04" rms="6.0433976352214813e-02" purity="1.0000000000000000e+00" nType="0">
          <Node pos="l" depth="2" NCoef="0" IVar="-1" Cut="0.0000000000000000e+00" cType="1" res="2.6144178118556738e-03" rms="6.0323175042867661e-02" purity="1.0000000000000000e+00" nType="-99"/>
          <Node pos="r" depth="2" NCoef="0" IVar="-1" Cut="0.0000000000000000e+00" cType="1" res="-2.6424624957144260e-04" rms="6.0200493782758713e-02" purity="1.0000000000000000e+00" nType="-99"/>
        </Node>
      </Node>
    </BinaryTree>
    <BinaryTree type="DecisionTree" boostWeight="1.0000000000000000e+00" itree="30">
      <Node pos="s" depth="0" NCoef="0" IVar="6" Cut="2.2974455356597900e+00" cType="0" res="7.2836340405046940e-04" rms="6.0625579208135605e-02" purity="1.0000000000000000e+00" nType="0">
        <Node pos="l" depth="1" NCoef="0" IVar="-1" Cut="0.0000000000000000e+00" cType="1" res="-1.6052934806793928e-03" rms="5.4594404995441437e-02" purity="1.0000000000000000e+00" nType="-99"/>
        <Node pos="r" depth="1" NCoef="0" IVar="2" Cut="3.5147300720214844e+01" cType="0" res="2.8724214062094688e-03" rms="6.1292693018913269e-02" purity="1.0000000000000000e+00" nType="0">
          <Node pos="l" depth="2" NCoef="0" IVar="-1" Cut="0.0000000000000000e+00" cType="1" res="-1.4076619409024715e-03" rms="5.5621929466724396e-02" purity="1.0000000000000000e+00" nType="-99"/>
          <Node pos="r" depth="2" NCoef="0" IVar="-1" Cut="0.0000000000000000e+00" cType="1" res="6.5643538255244493e-04" rms="6.1918195337057114e-02" purity="1.0000000000000000e+00" nType="-99"/>
        </Node>
      </Node>
    </BinaryTree>
    <BinaryTree type="DecisionTree" boostWeight="1.0000000000000000e+00" itree="31">
      <Node pos="s" depth="0" NCoef="0" IVar="6" Cut="2.3445054888725281e-01" cType="0" res="7.2586035821586847e-04" rms="6.0622036457061768e-02" purity="1.0000000000000000e+00" nType="0">
        <Node pos="l" depth="1" NCoef="0" IVar="-1" Cut="0.0000000000000000e+00" cType="1" res="-3.6029409966431558e-04" rms="5.8665402233600616e-02" purity="1.0000000000000000e+00" nType="-99"/>
        <Node pos="r" depth="1" NCoef="0" IVar="5" Cut="2.8887619018554688e+01" cType="0" res="9.5892874523997307e-03" rms="6.5328344702720642e-02" purity="1.0000000000000000e+00" nType="0">
          <Node pos="l" depth="2" NCoef="0" IVar="-1" Cut="0.0000000000000000e+00" cType="1" res="2.6264556217938662e-03" rms="6.6783644258975983e-02" purity="1.0000000000000000e+00" nType="-99"/>
          <Node pos="r" depth="2" NCoef="0" IVar="-1" Cut="0.0000000000000000e+00" cType="1" res="-1.5965977218002081e-03" rms="5.4312765598297119e-02" purity="1.0000000000000000e+00" nType="-99"/>
        </Node>
      </Node>
    </BinaryTree>
    <BinaryTree type="DecisionTree" boostWeight="1.0000000000000000e+00" itree="32">
      <Node pos="s" depth="0" NCoef="0" IVar="3" Cut="2.9328357696533203e+01" cType="0" res="7.2363193612545729e-04" rms="6.0655213892459869e-02" purity="1.0000000000000000e+00" nType="0">
        <Node pos="l" depth="1" NCoef="0" IVar="-1" Cut="0.0000000000000000e+00" cType="1" res="-2.6953368796966970e-04" rms="5.9964854270219803e-02" purity="1.0000000000000000e+00" nType="-99"/>
        <Node pos="r" depth="1" NCoef="0" IVar="6" Cut="3.4385180473327637e-01" cType="0" res="1.3424336910247803e-02" rms="6.3405483961105347e-02" purity="1.0000000000000000e+00" nType="0">
          <Node pos="l" depth="2" NCoef="0" IVar="-1" Cut="0.0000000000000000e+00" cType="1" res="6.6721974872052670e-04" rms="6.0108814388513565e-02" purity="1.0000000000000000e+00" nType="-99"/>
          <Node pos="r" depth="2" NCoef="0" IVar="-1" Cut="0.0000000000000000e+00" cType="1" res="5.8682253584265709e-03" rms="6.6564351320266724e-02" purity="1.0000000000000000e+00" nType="-99"/>
        </Node>
      </Node>
    </BinaryTree>
    <BinaryTree type="DecisionTree" boostWeight="1.0000000000000000e+00" itree="33">
      <Node pos="s" depth="0" NCoef="0" IVar="5" Cut="1.6934909057617188e+02" cType="0" res="7.1271084016188979e-04" rms="6.0622207820415497e-02" purity="1.0000000000000000e+00" nType="0">
        <Node pos="l" depth="1" NCoef="0" IVar="-1" Cut="0.0000000000000000e+00" cType="1" res="3.2173480838537216e-02" rms="6.5545111894607544e-02" purity="1.0000000000000000e+00" nType="-99"/>
        <Node pos="r" depth="1" NCoef="0" IVar="1" Cut="4.4861364364624023e-01" cType="0" res="2.2820278536528349e-04" rms="6.0367066413164139e-02" purity="1.0000000000000000e+00" nType="0">
          <Node pos="l" depth="2" NCoef="0" IVar="-1" Cut="0.0000000000000000e+00" cType="1" res="1.1697539594024420e-03" rms="6.0827378183603287e-02" purity="1.0000000000000000e+00" nType="-99"/>
          <Node pos="r" depth="2" NCoef="0" IVar="-1" Cut="0.0000000000000000e+00" cType="1" res="-4.0596190956421196e-04" rms="5.9978418052196503e-02" purity="1.0000000000000000e+00" nType="-99"/>
        </Node>
      </Node>
    </BinaryTree>
    <BinaryTree type="DecisionTree" boostWeight="1.0000000000000000e+00" itree="34">
      <Node pos="s" depth="0" NCoef="0" IVar="2" Cut="1.9488639831542969e+01" cType="0" res="7.1600370574742556e-04" rms="6.0632288455963135e-02" purity="1.0000000000000000e+00" nType="0">
        <Node pos="l" depth="1" NCoef="0" IVar="-1" Cut="0.0000000000000000e+00" cType="1" res="-3.4464299096725881e-04" rms="5.9401210397481918e-02" purity="1.0000000000000000e+00" nType="-99"/>
        <Node pos="r" depth="1" NCoef="0" IVar="5" Cut="2.9880777359008789e+01" cType="0" res="8.8045336306095123e-03" rms="6.3487224280834198e-02" purity="1.0000000000000000e+00" nType="0">
          <Node pos="l" depth="2" NCoef="0" IVar="-1" Cut="0.0000000000000000e+00" cType="1" res="3.3388864248991013e-03" rms="6.6274829208850861e-02" purity="1.0000000000000000e+00" nType="-99"/>
          <Node pos="r" depth="2" NCoef="0" IVar="-1" Cut="0.0000000000000000e+00" cType="1" res="-4.9930199747905135e-04" rms="5.7871714234352112e-02" purity="1.0000000000000000e+00" nType="-99"/>
        </Node>
      </Node>
    </BinaryTree>
    <BinaryTree type="DecisionTree" boostWeight="1.0000000000000000e+00" itree="35">
      <Node pos="s" depth="0" NCoef="0" IVar="5" Cut="1.6934909057617188e+02" cType="0" res="7.1196461794897914e-04" rms="6.0635887086391449e-02" purity="1.0000000000000000e+00" nType="0">
        <Node pos="l" depth="1" NCoef="0" IVar="-1" Cut="0.0000000000000000e+00" cType="1" res="2.8669420629739761e-02" rms="6.8175777792930603e-02" purity="1.0000000000000000e+00" nType="-99"/>
        <Node pos="r" depth="1" NCoef="0" IVar="6" Cut="2.3287029266357422e+00" cType="0" res="2.6765963411889970e-04" rms="6.0386192053556442e-02" purity="1.0000000000000000e+00" nType="0">
          <Node pos="l" depth="2" NCoef="0" IVar="-1" Cut="0.0000000000000000e+00" cType="1" res="-1.4212665846571326e-03" rms="5.4829262197017670e-02" purity="1.0000000000000000e+00" nType="-99"/>
          <Node pos="r" depth="2" NCoef="0" IVar="-1" Cut="0.0000000000000000e+00" cType="1" res="1.9577539933379740e-04" rms="6.1037726700305939e-02" purity="1.0000000000000000e+00" nType="-99"/>
        </Node>
      </Node>
    </BinaryTree>
    <BinaryTree type="DecisionTree" boostWeight="1.0000000000000000e+00" itree="36">
      <Node pos="s" depth="0" NCoef="0" IVar="2" Cut="2.8321731567382812e+01" cType="0" res="7.0499518187716603e-04" rms="6.0582071542739868e-02" purity="1.0000000000000000e+00" nType="0">
        <Node pos="l" depth="1" NCoef="0" IVar="-1" Cut="0.0000000000000000e+00" cType="1" res="-7.2263117181137204e-04" rms="5.7921197265386581e-02" purity="1.0000000000000000e+00" nType="-99"/>
        <Node pos="r" depth="1" NCoef="0" IVar="5" Cut="5.3759666442871094e+01" cType="0" res="3.9507243782281876e-03" rms="6.1715994030237198e-02" purity="1.0000000000000000e+00" nType="0">
          <Node pos="l" depth="2" NCoef="0" IVar="-1" Cut="0.0000000000000000e+00" cType="1" res="3.6013149656355381e-03" rms="7.0299506187438965e-02" purity="1.0000000000000000e+00" nType="-99"/>
          <Node pos="r" depth="2" NCoef="0" IVar="-1" Cut="0.0000000000000000e+00" cType="1" res="-1.2792091001756489e-04" rms="5.8149114251136780e-02" purity="1.0000000000000000e+00" nType="-99"/>
        </Node>
      </Node>
    </BinaryTree>
    <BinaryTree type="DecisionTree" boostWeight="1.0000000000000000e+00" itree="37">
      <Node pos="s" depth="0" NCoef="0" IVar="1" Cut="5.6954210996627808e-01" cType="0" res="6.7523348843678832e-04" rms="6.0490712523460388e-02" purity="1.0000000000000000e+00" nType="0">
        <Node pos="l" depth="1" NCoef="0" IVar="-1" Cut="0.0000000000000000e+00" cType="1" res="2.2487619426101446e-03" rms="6.1207652091979980e-02" purity="1.0000000000000000e+00" nType="-99"/>
        <Node pos="r" depth="1" NCoef="0" IVar="5" Cut="1.8131806945800781e+02" cType="0" res="-5.7775224559009075e-04" rms="6.0262758284807205e-02" purity="1.0000000000000000e+00" nType="0">
          <Node pos="l" depth="2" NCoef="0" IVar="-1" Cut="0.0000000000000000e+00" cType="1" res="2.8378803282976151e-02" rms="6.8087555468082428e-02" purity="1.0000000000000000e+00" nType="-99"/>
          <Node pos="r" depth="2" NCoef="0" IVar="-1" Cut="0.0000000000000000e+00" cType="1" res="-2.0979813416488469e-04" rms="6.0077220201492310e-02" purity="1.0000000000000000e+00" nType="-99"/>
        </Node>
      </Node>
    </BinaryTree>
    <BinaryTree type="DecisionTree" boostWeight="1.0000000000000000e+00" itree="38">
      <Node pos="s" depth="0" NCoef="0" IVar="6" Cut="1.4067806303501129e-01" cType="0" res="6.6688010701909661e-04" rms="6.0411162674427032e-02" purity="1.0000000000000000e+00" nType="0">
        <Node pos="l" depth="1" NCoef="0" IVar="-1" Cut="0.0000000000000000e+00" cType="1" res="-2.2793166863266379e-04" rms="5.9267416596412659e-02" purity="1.0000000000000000e+00" nType="-99"/>
        <Node pos="r" depth="1" NCoef="0" IVar="5" Cut="6.9198257446289062e+01" cType="0" res="1.0098545812070370e-02" rms="6.5130673348903656e-02" purity="1.0000000000000000e+00" nType="0">
          <Node pos="l" depth="2" NCoef="0" IVar="-1" Cut="0.0000000000000000e+00" cType="1" res="6.8816766142845154e-03" rms="6.9612301886081696e-02" purity="1.0000000000000000e+00" nType="-99"/>
          <Node pos="r" depth="2" NCoef="0" IVar="-1" Cut="0.0000000000000000e+00" cType="1" res="-7.7898421295685694e-06" rms="6.0605794191360474e-02" purity="1.0000000000000000e+00" nType="-99"/>
        </Node>
      </Node>
    </BinaryTree>
    <BinaryTree type="DecisionTree" boostWeight="1.0000000000000000e+00" itree="39">
      <Node pos="s" depth="0" NCoef="0" IVar="3" Cut="2.9328357696533203e+01" cType="0" res="6.5352674573659897e-04" rms="6.0474298894405365e-02" purity="1.0000000000000000e+00" nType="0">
        <Node pos="l" depth="1" NCoef="0" IVar="-1" Cut="0.0000000000000000e+00" cType="1" res="-2.2137923224363476e-04" rms="5.9767726808786392e-02" purity="1.0000000000000000e+00" nType="-99"/>
        <Node pos="r" depth="1" NCoef="0" IVar="6" Cut="3.4385180473327637e-01" cType="0" res="1.1159129440784454e-02" rms="6.3781075179576874e-02" purity="1.0000000000000000e+00" nType="0">
          <Node pos="l" depth="2" NCoef="0" IVar="-1" Cut="0.0000000000000000e+00" cType="1" res="5.3647573804482818e-04" rms="6.0187634080648422e-02" purity="1.0000000000000000e+00" nType="-99"/>
          <Node pos="r" depth="2" NCoef="0" IVar="-1" Cut="0.0000000000000000e+00" cType="1" res="4.8881405964493752e-03" rms="6.8069197237491608e-02" purity="1.0000000000000000e+00" nType="-99"/>
        </Node>
      </Node>
    </BinaryTree>
    <BinaryTree type="DecisionTree" boostWeight="1.0000000000000000e+00" itree="40">
      <Node pos="s" depth="0" NCoef="0" IVar="1" Cut="4.4861364364624023e-01" cType="0" res="6.3279294408857822e-04" rms="6.0356158763170242e-02" purity="1.0000000000000000e+00" nType="0">
        <Node pos="l" depth="1" NCoef="0" IVar="-1" Cut="0.0000000000000000e+00" cType="1" res="1.0059949709102511e-03" rms="6.1080690473318100e-02" purity="1.0000000000000000e+00" nType="-99"/>
        <Node pos="r" depth="1" NCoef="0" IVar="6" Cut="2.2815978527069092e+00" cType="0" res="-1.5369071625173092e-03" rms="5.9966191649436951e-02" purity="1.0000000000000000e+00" nType="0">
          <Node pos="l" depth="2" NCoef="0" IVar="-1" Cut="0.0000000000000000e+00" cType="1" res="-1.4315014705061913e-03" rms="5.4565519094467163e-02" purity="1.0000000000000000e+00" nType="-99"/>
          <Node pos="r" depth="2" NCoef="0" IVar="-1" Cut="0.0000000000000000e+00" cType="1" res="-4.5132739614928141e-05" rms="6.0734167695045471e-02" purity="1.0000000000000000e+00" nType="-99"/>
        </Node>
      </Node>
    </BinaryTree>
    <BinaryTree type="DecisionTree" boostWeight="1.0000000000000000e+00" itree="41">
      <Node pos="s" depth="0" NCoef="0" IVar="3" Cut="3.8164180755615234e+01" cType="0" res="6.3663593027740717e-04" rms="6.0418348759412766e-02" purity="1.0000000000000000e+00" nType="0">
        <Node pos="l" depth="1" NCoef="0" IVar="-1" Cut="0.0000000000000000e+00" cType="1" res="-3.9465795271098614e-04" rms="5.9090647846460342e-02" purity="1.0000000000000000e+00" nType="-99"/>
        <Node pos="r" depth="1" NCoef="0" IVar="5" Cut="4.4575477600097656e+01" cType="0" res="5.6011457927525043e-03" rms="6.2179017812013626e-02" purity="1.0000000000000000e+00" nType="0">
          <Node pos="l" depth="2" NCoef="0" IVar="-1" Cut="0.0000000000000000e+00" cType="1" res="3.0972454696893692e-03" rms="6.9646961987018585e-02" purity="1.0000000000000000e+00" nType="-99"/>
          <Node pos="r" depth="2" NCoef="0" IVar="-1" Cut="0.0000000000000000e+00" cType="1" res="5.0045167881762609e-05" rms="5.7637237012386322e-02" purity="1.0000000000000000e+00" nType="-99"/>
        </Node>
      </Node>
    </BinaryTree>
    <BinaryTree type="DecisionTree" boostWeight="1.0000000000000000e+00" itree="42">
      <Node pos="s" depth="0" NCoef="0" IVar="5" Cut="1.8037733459472656e+02" cType="0" res="6.2521029030904174e-04" rms="6.0452040284872055e-02" purity="1.0000000000000000e+00" nType="0">
        <Node pos="l" depth="1" NCoef="0" IVar="-1" Cut="0.0000000000000000e+00" cType="1" res="2.5602165609598160e-02" rms="6.9691061973571777e-02" purity="1.0000000000000000e+00" nType="-99"/>
        <Node pos="r" depth="1" NCoef="0" IVar="1" Cut="3.2303410768508911e-01" cType="0" res="2.9893746250309050e-04" rms="6.0257073491811752e-02" purity="1.0000000000000000e+00" nType="0">
          <Node pos="l" depth="2" NCoef="0" IVar="-1" Cut="0.0000000000000000e+00" cType="1" res="4.1602493729442358e-04" rms="6.0112766921520233e-02" purity="1.0000000000000000e+00" nType="-99"/>
          <Node pos="r" depth="2" NCoef="0" IVar="-1" Cut="0.0000000000000000e+00" cType="1" res="-5.6634482461959124e-04" rms="6.0180153697729111e-02" purity="1.0000000000000000e+00" nType="-99"/>
        </Node>
      </Node>
    </BinaryTree>
    <BinaryTree type="DecisionTree" boostWeight="1.0000000000000000e+00" itree="43">
      <Node pos="s" depth="0" NCoef="0" IVar="2" Cut="3.5147300720214844e+01" cType="0" res="6.2079494819045067e-04" rms="6.0356136411428452e-02" purity="1.0000000000000000e+00" nType="0">
        <Node pos="l" depth="1" NCoef="0" IVar="-1" Cut="0.0000000000000000e+00" cType="1" res="-1.0155278723686934e-03" rms="5.5320095270872116e-02" purity="1.0000000000000000e+00" nType="-99"/>
        <Node pos="r" depth="1" NCoef="0" IVar="5" Cut="5.3552391052246094e+01" cType="0" res="2.1564255002886057e-03" rms="6.1083763837814331e-02" purity="1.0000000000000000e+00" nType="0">
          <Node pos="l" depth="2" NCoef="0" IVar="-1" Cut="0.0000000000000000e+00" cType="1" res="2.1800666581839323e-03" rms="7.0476263761520386e-02" purity="1.0000000000000000e+00" nType="-99"/>
          <Node pos="r" depth="2" NCoef="0" IVar="-1" Cut="0.0000000000000000e+00" cType="1" res="-1.6652252816129476e-04" rms="5.7481452822685242e-02" purity="1.0000000000000000e+00" nType="-99"/>
        </Node>
      </Node>
    </BinaryTree>
    <BinaryTree type="DecisionTree" boostWeight="1.0000000000000000e+00" itree="44">
      <Node pos="s" depth="0" NCoef="0" IVar="3" Cut="2.9328357696533203e+01" cType="0" res="6.1802711570635438e-04" rms="6.0448575764894485e-02" purity="1.0000000000000000e+00" nType="0">
        <Node pos="l" depth="1" NCoef="0" IVar="-1" Cut="0.0000000000000000e+00" cType="1" res="-1.7936356016434729e-04" rms="5.9721074998378754e-02" purity="1.0000000000000000e+00" nType="-99"/>
        <Node pos="r" depth="1" NCoef="0" IVar="5" Cut="6.1387416839599609e+01" cType="0" res="9.4734607264399529e-03" rms="6.4167924225330353e-02" purity="1.0000000000000000e+00" nType="0">
          <Node pos="l" depth="2" NCoef="0" IVar="-1" Cut="0.0000000000000000e+00" cType="1" res="7.3085045441985130e-03" rms="7.2034195065498352e-02" purity="1.0000000000000000e+00" nType="-99"/>
          <Node pos="r" depth="2" NCoef="0" IVar="-1" Cut="0.0000000000000000e+00" cType="1" res="6.0725369257852435e-04" rms="6.1040565371513367e-02" purity="1.0000000000000000e+00" nType="-99"/>
        </Node>
      </Node>
    </BinaryTree>
    <BinaryTree type="DecisionTree" boostWeight="1.0000000000000000e+00" itree="45">
      <Node pos="s" depth="0" NCoef="0" IVar="5" Cut="1.7853929138183594e+02" cType="0" res="6.0734536964446306e-04" rms="6.0472749173641205e-02" purity="1.0000000000000000e+00" nType="0">
        <Node pos="l" depth="1" NCoef="0" IVar="-1" Cut="0.0000000000000000e+00" cType="1" res="2.2550554946064949e-02" rms="7.1703955531120300e-02" purity="1.0000000000000000e+00" nType="-99"/>
        <Node pos="r" depth="1" NCoef="0" IVar="1" Cut="2.5326767563819885e-01" cType="0" res="3.0149772646836936e-04" rms="6.0276601463556290e-02" purity="1.0000000000000000e+00" nType="0">
          <Node pos="l" depth="2" NCoef="0" IVar="-1" Cut="0.0000000000000000e+00" cType="1" res="2.4210108676925302e-04" rms="6.0111518949270248e-02" purity="1.0000000000000000e+00" nType="-99"/>
          <Node pos="r" depth="2" NCoef="0" IVar="-1" Cut="0.0000000000000000e+00" cType="1" res="-7.7518215402960777e-04" rms="6.0357369482517242e-02" purity="1.0000000000000000e+00" nType="-99"/>
        </Node>
      </Node>
    </BinaryTree>
    <BinaryTree type="DecisionTree" boostWeight="1.0000000000000000e+00" itree="46">
      <Node pos="s" depth="0" NCoef="0" IVar="1" Cut="6.0675084590911865e-01" cType="0" res="6.0595676768571138e-04" rms="6.0381963849067688e-02" purity="1.0000000000000000e+00" nType="0">
        <Node pos="l" depth="1" NCoef="0" IVar="-1" Cut="0.0000000000000000e+00" cType="1" res="2.3059910163283348e-03" rms="6.2149479985237122e-02" purity="1.0000000000000000e+00" nType="-99"/>
        <Node pos="r" depth="1" NCoef="0" IVar="6" Cut="1.8752912282943726e+00" cType="0" res="-1.9460465409792960e-04" rms="6.0181200504302979e-02" purity="1.0000000000000000e+00" nType="0">
          <Node pos="l" depth="2" NCoef="0" IVar="-1" Cut="0.0000000000000000e+00" cType="1" res="-8.4929511649534106e-04" rms="5.4349780082702637e-02" purity="1.0000000000000000e+00" nType="-99"/>
          <Node pos="r" depth="2" NCoef="0" IVar="-1" Cut="0.0000000000000000e+00" cType="1" res="9.5605093520134687e-05" rms="6.1467256397008896e-02" purity="1.0000000000000000e+00" nType="-99"/>
        </Node>
      </Node>
    </BinaryTree>
    <BinaryTree type="DecisionTree" boostWeight="1.0000000000000000e+00" itree="47">
      <Node pos="s" depth="0" NCoef="0" IVar="3" Cut="4.7552238464355469e+01" cType="0" res="6.0836528427898884e-04" rms="6.0336884111166000e-02" purity="1.0000000000000000e+00" nType="0">
        <Node pos="l" depth="1" NCoef="0" IVar="-1" Cut="0.0000000000000000e+00" cType="1" res="-5.3362979087978601e-04" rms="5.7708337903022766e-02" purity="1.0000000000000000e+00" nType="-99"/>
        <Node pos="r" depth="1" NCoef="0" IVar="6" Cut="3.4385180473327637e-01" cType="0" res="3.1419014558196068e-03" rms="6.1665695160627365e-02" purity="1.0000000000000000e+00" nType="0">
          <Node pos="l" depth="2" NCoef="0" IVar="-1" Cut="0.0000000000000000e+00" cType="1" res="-1.6870825493242592e-04" rms="5.8487724512815475e-02" purity="1.0000000000000000e+00" nType="-99"/>
          <Node pos="r" depth="2" NCoef="0" IVar="-1" Cut="0.0000000000000000e+00" cType="1" res="1.6927809920161963e-03" rms="6.6871143877506256e-02" purity="1.0000000000000000e+00" nType="-99"/>
        </Node>
      </Node>
    </BinaryTree>
    <BinaryTree type="DecisionTree" boostWeight="1.0000000000000000e+00" itree="48">
      <Node pos="s" depth="0" NCoef="0" IVar="5" Cut="1.4361648559570312e+02" cType="0" res="6.1241904040798545e-04" rms="6.0376141220331192e-02" purity="1.0000000000000000e+00" nType="0">
        <Node pos="l" depth="1" NCoef="0" IVar="-1" Cut="0.0000000000000000e+00" cType="1" res="1.0035227984189987e-02" rms="7.5543239712715149e-02" purity="1.0000000000000000e+00" nType="-99"/>
        <Node pos="r" depth="1" NCoef="0" IVar="3" Cut="2.0492536544799805e+01" cType="0" res="1.8272740999236703e-04" rms="5.9978675097227097e-02" purity="1.0000000000000000e+00" nType="0">
          <Node pos="l" depth="2" NCoef="0" IVar="-1" Cut="0.0000000000000000e+00" cType="1" res="-1.0463340731803328e-04" rms="5.9814497828483582e-02" purity="1.0000000000000000e+00" nType="-99"/>
          <Node pos="r" depth="2" NCoef="0" IVar="-1" Cut="0.0000000000000000e+00" cType="1" res="4.7649419866502285e-03" rms="6.4498022198677063e-02" purity="1.0000000000000000e+00" nType="-99"/>
        </Node>
      </Node>
    </BinaryTree>
    <BinaryTree type="DecisionTree" boostWeight="1.0000000000000000e+00" itree="49">
      <Node pos="s" depth="0" NCoef="0" IVar="0" Cut="1.1237618923187256e+00" cType="0" res="6.0771504649892449e-04" rms="6.0410697013139725e-02" purity="1.0000000000000000e+00" nType="0">
        <Node pos="l" depth="1" NCoef="0" IVar="-1" Cut="0.0000000000000000e+00" cType="1" res="1.2899130815640092e-03" rms="6.1068613082170486e-02" purity="1.0000000000000000e+00" nType="-99"/>
        <Node pos="r" depth="1" NCoef="0" IVar="3" Cut="4.7552238464355469e+01" cType="0" res="-5.5805826559662819e-04" rms="6.0226589441299438e-02" purity="1.0000000000000000e+00" nType="0">
          <Node pos="l" depth="2" NCoef="0" IVar="-1" Cut="0.0000000000000000e+00" cType="1" res="-7.2669144719839096e-04" rms="5.7299483567476273e-02" purity="1.0000000000000000e+00" nType="-99"/>
          <Node pos="r" depth="2" NCoef="0" IVar="-1" Cut="0.0000000000000000e+00" cType="1" res="1.8415600061416626e-04" rms="6.1649981886148453e-02" purity="1.0000000000000000e+00" nType="-99"/>
        </Node>
      </Node>
    </BinaryTree>
    <BinaryTree type="DecisionTree" boostWeight="1.0000000000000000e+00" itree="50">
      <Node pos="s" depth="0" NCoef="0" IVar="1" Cut="3.0442973971366882e-01" cType="0" res="6.0278945602476597e-04" rms="6.0358669608831406e-02" purity="1.0000000000000000e+00" nType="0">
        <Node pos="l" depth="1" NCoef="0" IVar="-1" Cut="0.0000000000000000e+00" cType="1" res="3.2841938082128763e-04" rms="6.0264430940151215e-02" purity="1.0000000000000000e+00" nType="-99"/>
        <Node pos="r" depth="1" NCoef="0" IVar="6" Cut="6.8762606382369995e-01" cType="0" res="-2.9989185277372599e-03" rms="6.0307499021291733e-02" purity="1.0000000000000000e+00" nType="0">
          <Node pos="l" depth="2" NCoef="0" IVar="-1" Cut="0.0000000000000000e+00" cType="1" res="-8.8875408982858062e-04" rms="5.6416086852550507e-02" purity="1.0000000000000000e+00" nType="-99"/>
          <Node pos="r" depth="2" NCoef="0" IVar="-1" Cut="0.0000000000000000e+00" cType="1" res="1.0438940080348402e-04" rms="6.4035847783088684e-02" purity="1.0000000000000000e+00" nType="-99"/>
        </Node>
      </Node>
    </BinaryTree>
    <BinaryTree type="DecisionTree" boostWeight="1.0000000000000000e+00" itree="51">
      <Node pos="s" depth="0" NCoef="0" IVar="5" Cut="1.8037733459472656e+02" cType="0" res="6.0728978132829070e-04" rms="6.0403559356927872e-02" purity="1.0000000000000000e+00" nType="0">
        <Node pos="l" depth="1" NCoef="0" IVar="-1" Cut="0.0000000000000000e+00" cType="1" res="1.9859349355101585e-02" rms="7.3057167232036591e-02" purity="1.0000000000000000e+00" nType="-99"/>
        <Node pos="r" depth="1" NCoef="0" IVar="2" Cut="1.4269086837768555e+01" cType="0" res="3.5089408629573882e-04" rms="6.0226466506719589e-02" purity="1.0000000000000000e+00" nType="0">
          <Node pos="l" depth="2" NCoef="0" IVar="-1" Cut="0.0000000000000000e+00" cType="1" res="-1.3800906890537590e-04" rms="5.9826001524925232e-02" purity="1.0000000000000000e+00" nType="-99"/>
          <Node pos="r" depth="2" NCoef="0" IVar="-1" Cut="0.0000000000000000e+00" cType="1" res="1.7165970057249069e-03" rms="6.4616464078426361e-02" purity="1.0000000000000000e+00" nType="-99"/>
        </Node>
      </Node>
    </BinaryTree>
    <BinaryTree type="DecisionTree" boostWeight="1.0000000000000000e+00" itree="52">
      <Node pos="s" depth="0" NCoef="0" IVar="6" Cut="2.6725354194641113e+00" cType="0" res="6.0104060685262084e-04" rms="6.0349620878696442e-02" purity="1.0000000000000000e+00" nType="0">
        <Node pos="l" depth="1" NCoef="0" IVar="-1" Cut="0.0000000000000000e+00" cType="1" res="-1.2291024904698133e-03" rms="5.5416263639926910e-02" purity="1.0000000000000000e+00" nType="-99"/>
        <Node pos="r" depth="1" NCoef="0" IVar="5" Cut="2.2305665969848633e+01" cType="0" res="1.4711535768583417e-03" rms="6.0680124908685684e-02" purity="1.0000000000000000e+00" nType="0">
          <Node pos="l" depth="2" NCoef="0" IVar="-1" Cut="0.0000000000000000e+00" cType="1" res="4.4269367936067283e-04" rms="6.2851250171661377e-02" purity="1.0000000000000000e+00" nType="-99"/>
          <Node pos="r" depth="2" NCoef="0" IVar="-1" Cut="0.0000000000000000e+00" cType="1" res="-5.1292765419930220e-04" rms="5.4672218859195709e-02" purity="1.0000000000000000e+00" nType="-99"/>
        </Node>
      </Node>
    </BinaryTree>
    <BinaryTree type="DecisionTree" boostWeight="1.0000000000000000e+00" itree="53">
      <Node pos="s" depth="0" NCoef="0" IVar="1" Cut="6.1605304479598999e-01" cType="0" res="5.9813464758917689e-04" rms="6.0337096452713013e-02" purity="1.0000000000000000e+00" nType="0">
        <Node pos="l" depth="1" NCoef="0" IVar="-1" Cut="0.0000000000000000e+00" cType="1" res="2.0443040411919355e-03" rms="6.2711469829082489e-02" purity="1.0000000000000000e+00" nType="-99"/>
        <Node pos="r" depth="1" NCoef="0" IVar="3" Cut="2.9328357696533203e+01" cType="0" res="-5.3819756431039423e-05" rms="6.0141831636428833e-02" purity="1.0000000000000000e+00" nType="0">
          <Node pos="l" depth="2" NCoef="0" IVar="-1" Cut="0.0000000000000000e+00" cType="1" res="-2.2082183568272740e-04" rms="5.9444367885589600e-02" purity="1.0000000000000000e+00" nType="-99"/>
          <Node pos="r" depth="2" NCoef="0" IVar="-1" Cut="0.0000000000000000e+00" cType="1" res="9.5220835646614432e-04" rms="6.4205616712570190e-02" purity="1.0000000000000000e+00" nType="-99"/>
        </Node>
      </Node>
    </BinaryTree>
    <BinaryTree type="DecisionTree" boostWeight="1.0000000000000000e+00" itree="54">
      <Node pos="s" depth="0" NCoef="0" IVar="0" Cut="1.1237618923187256e+00" cType="0" res="5.9940252685919404e-04" rms="6.0360722243785858e-02" purity="1.0000000000000000e+00" nType="0">
        <Node pos="l" depth="1" NCoef="0" IVar="-1" Cut="0.0000000000000000e+00" cType="1" res="1.1665165657177567e-03" rms="6.1109993606805801e-02" purity="1.0000000000000000e+00" nType="-99"/>
        <Node pos="r" depth="1" NCoef="0" IVar="0" Cut="-1.0639597177505493e+00" cType="0" res="-4.5550247887149453e-04" rms="6.0181446373462677e-02" purity="1.0000000000000000e+00" nType="0">
          <Node pos="l" depth="2" NCoef="0" IVar="-1" Cut="0.0000000000000000e+00" cType="1" res="-3.4713858622126281e-04" rms="6.0024075210094452e-02" purity="1.0000000000000000e+00" nType="-99"/>
          <Node pos="r" depth="2" NCoef="0" IVar="-1" Cut="0.0000000000000000e+00" cType="1" res="9.3062309315428138e-04" rms="6.0507893562316895e-02" purity="1.0000000000000000e+00" nType="-99"/>
        </Node>
      </Node>
    </BinaryTree>
    <BinaryTree type="DecisionTree" boostWeight="1.0000000000000000e+00" itree="55">
      <Node pos="s" depth="0" NCoef="0" IVar="6" Cut="1.4067806303501129e-01" cType="0" res="6.0713785933330655e-04" rms="6.0364991426467896e-02" purity="1.0000000000000000e+00" nType="0">
        <Node pos="l" depth="1" NCoef="0" IVar="-1" Cut="0.0000000000000000e+00" cType="1" res="-1.4085233851801604e-04" rms="5.9199549257755280e-02" purity="1.0000000000000000e+00" nType="-99"/>
        <Node pos="r" depth="1" NCoef="0" IVar="2" Cut="3.7356182098388672e+01" cType="0" res="6.9590685889124870e-03" rms="6.5628767013549805e-02" purity="1.0000000000000000e+00" nType="0">
          <Node pos="l" depth="2" NCoef="0" IVar="-1" Cut="0.0000000000000000e+00" cType="1" res="-2.8279437683522701e-03" rms="5.3424522280693054e-02" purity="1.0000000000000000e+00" nType="-99"/>
          <Node pos="r" depth="2" NCoef="0" IVar="-1" Cut="0.0000000000000000e+00" cType="1" res="1.4886391581967473e-03" rms="6.6081531345844269e-02" purity="1.0000000000000000e+00" nType="-99"/>
        </Node>
      </Node>
    </BinaryTree>
    <BinaryTree type="DecisionTree" boostWeight="1.0000000000000000e+00" itree="56">
      <Node pos="s" depth="0" NCoef="0" IVar="5" Cut="1.8405342102050781e+02" cType="0" res="6.0052413027733564e-04" rms="6.0317240655422211e-02" purity="1.0000000000000000e+00" nType="0">
        <Node pos="l" depth="1" NCoef="0" IVar="-1" Cut="0.0000000000000000e+00" cType="1" res="1.8543001264333725e-02" rms="7.3696576058864594e-02" purity="1.0000000000000000e+00" nType="-99"/>
        <Node pos="r" depth="1" NCoef="0" IVar="1" Cut="2.4396550655364990e-01" cType="0" res="3.7912599509581923e-04" rms="6.0157693922519684e-02" purity="1.0000000000000000e+00" nType="0">
          <Node pos="l" depth="2" NCoef="0" IVar="-1" Cut="0.0000000000000000e+00" cType="1" res="1.7966376617550850e-04" rms="6.0043964534997940e-02" purity="1.0000000000000000e+00" nType="-99"/>
          <Node pos="r" depth="2" NCoef="0" IVar="-1" Cut="0.0000000000000000e+00" cType="1" res="-6.4237043261528015e-04" rms="6.0236345976591110e-02" purity="1.0000000000000000e+00" nType="-99"/>
        </Node>
      </Node>
    </BinaryTree>
    <BinaryTree type="DecisionTree" boostWeight="1.0000000000000000e+00" itree="57">
      <Node pos="s" depth="0" NCoef="0" IVar="3" Cut="4.2029850006103516e+01" cType="0" res="6.0760613996535540e-04" rms="6.0305308550596237e-02" purity="1.0000000000000000e+00" nType="0">
        <Node pos="l" depth="1" NCoef="0" IVar="-1" Cut="0.0000000000000000e+00" cType="1" res="-3.3699482446536422e-04" rms="5.8387763798236847e-02" purity="1.0000000000000000e+00" nType="-99"/>
        <Node pos="r" depth="1" NCoef="0" IVar="6" Cut="3.5948055982589722e-01" cType="0" res="3.2353086862713099e-03" rms="6.2016993761062622e-02" purity="1.0000000000000000e+00" nType="0">
          <Node pos="l" depth="2" NCoef="0" IVar="-1" Cut="0.0000000000000000e+00" cType="1" res="-1.1775107850553468e-04" rms="5.8517169207334518e-02" purity="1.0000000000000000e+00" nType="-99"/>
          <Node pos="r" depth="2" NCoef="0" IVar="-1" Cut="0.0000000000000000e+00" cType="1" res="1.6689262120053172e-03" rms="6.7540466785430908e-02" purity="1.0000000000000000e+00" nType="-99"/>
        </Node>
      </Node>
    </BinaryTree>
    <BinaryTree type="DecisionTree" boostWeight="1.0000000000000000e+00" itree="58">
      <Node pos="s" depth="0" NCoef="0" IVar="0" Cut="1.1731332540512085e+00" cType="0" res="6.0495233628898859e-04" rms="6.0354359447956085e-02" purity="1.0000000000000000e+00" nType="0">
        <Node pos="l" depth="1" NCoef="0" IVar="-1" Cut="0.0000000000000000e+00" cType="1" res="1.1187420459464192e-03" rms="6.1355788260698318e-02" purity="1.0000000000000000e+00" nType="-99"/>
        <Node pos="r" depth="1" NCoef="0" IVar="0" Cut="-1.2990403175354004e+00" cType="0" res="-3.1206081621348858e-04" rms="6.0166712850332260e-02" purity="1.0000000000000000e+00" nType="0">
          <Node pos="l" depth="2" NCoef="0" IVar="-1" Cut="0.0000000000000000e+00" cType="1" res="-2.7193551068194211e-04" rms="6.0118369758129120e-02" purity="1.0000000000000000e+00" nType="-99"/>
          <Node pos="r" depth="2" NCoef="0" IVar="-1" Cut="0.0000000000000000e+00" cType="1" res="1.2038720306009054e-03" rms="5.9888642281293869e-02" purity="1.0000000000000000e+00" nType="-99"/>
        </Node>
      </Node>
    </BinaryTree>
    <BinaryTree type="DecisionTree" boostWeight="1.0000000000000000e+00" itree="59">
      <Node pos="s" depth="0" NCoef="0" IVar="5" Cut="1.1420780181884766e+02" cType="0" res="6.0600071446970105e-04" rms="6.0309253633022308e-02" purity="1.0000000000000000e+00" nType="0">
        <Node pos="l" depth="1" NCoef="0" IVar="-1" Cut="0.0000000000000000e+00" cType="1" res="3.8455820176750422e-03" rms="7.4929721653461456e-02" purity="1.0000000000000000e+00" nType="-99"/>
        <Node pos="r" depth="1" NCoef="0" IVar="3" Cut="2.0492536544799805e+01" cType="0" res="8.0845056800171733e-05" rms="5.9567298740148544e-02" purity="1.0000000000000000e+00" nType="0">
          <Node pos="l" depth="2" NCoef="0" IVar="-1" Cut="0.0000000000000000e+00" cType="1" res="-1.0833401756826788e-04" rms="5.9407874941825867e-02" purity="1.0000000000000000e+00" nType="-99"/>
          <Node pos="r" depth="2" NCoef="0" IVar="-1" Cut="0.0000000000000000e+00" cType="1" res="3.3716629259288311e-03" rms="6.5882317721843719e-02" purity="1.0000000000000000e+00" nType="-99"/>
        </Node>
      </Node>
    </BinaryTree>
    <BinaryTree type="DecisionTree" boostWeight="1.0000000000000000e+00" itree="60">
      <Node pos="s" depth="0" NCoef="0" IVar="1" Cut="3.2303410768508911e-01" cType="0" res="6.0614210087805986e-04" rms="6.0342762619256973e-02" purity="1.0000000000000000e+00" nType="0">
        <Node pos="l" depth="1" NCoef="0" IVar="-1" Cut="0.0000000000000000e+00" cType="1" res="2.9980955878272653e-04" rms="6.0362450778484344e-02" purity="1.0000000000000000e+00" nType="-99"/>
        <Node pos="r" depth="1" NCoef="0" IVar="6" Cut="2.6722772121429443e+00" cType="0" res="-2.1364581771194935e-03" rms="6.0203392058610916e-02" purity="1.0000000000000000e+00" nType="0">
          <Node pos="l" depth="2" NCoef="0" IVar="-1" Cut="0.0000000000000000e+00" cType="1" res="-1.6614334890618920e-03" rms="5.6513749063014984e-02" purity="1.0000000000000000e+00" nType="-99"/>
          <Node pos="r" depth="2" NCoef="0" IVar="-1" Cut="0.0000000000000000e+00" cType="1" res="-2.0292562840040773e-04" rms="6.0445718467235565e-02" purity="1.0000000000000000e+00" nType="-99"/>
        </Node>
      </Node>
    </BinaryTree>
    <BinaryTree type="DecisionTree" boostWeight="1.0000000000000000e+00" itree="61">
      <Node pos="s" depth="0" NCoef="0" IVar="2" Cut="3.5147300720214844e+01" cType="0" res="6.0723687056452036e-04" rms="6.0359675437211990e-02" purity="1.0000000000000000e+00" nType="0">
        <Node pos="l" depth="1" NCoef="0" IVar="-1" Cut="0.0000000000000000e+00" cType="1" res="-6.8663683487102389e-04" rms="5.5406749248504639e-02" purity="1.0000000000000000e+00" nType="-99"/>
        <Node pos="r" depth="1" NCoef="0" IVar="5" Cut="5.3552391052246094e+01" cType="0" res="1.6661457484588027e-03" rms="6.1140712350606918e-02" purity="1.0000000000000000e+00" nType="0">
          <Node pos="l" depth="2" NCoef="0" IVar="-1" Cut="0.0000000000000000e+00" cType="1" res="1.5050139045342803e-03" rms="7.1012057363986969e-02" purity="1.0000000000000000e+00" nType="-99"/>
          <Node pos="r" depth="2" NCoef="0" IVar="-1" Cut="0.0000000000000000e+00" cType="1" res="-1.2364666326902807e-04" rms="5.7487834244966507e-02" purity="1.0000000000000000e+00" nType="-99"/>
        </Node>
      </Node>
    </BinaryTree>
    <BinaryTree type="DecisionTree" boostWeight="1.0000000000000000e+00" itree="62">
      <Node pos="s" depth="0" NCoef="0" IVar="1" Cut="6.1605304479598999e-01" cType="0" res="6.0429063159972429e-04" rms="6.0387954115867615e-02" purity="1.0000000000000000e+00" nType="0">
        <Node pos="l" depth="1" NCoef="0" IVar="-1" Cut="0.0000000000000000e+00" cType="1" res="1.6958394553512335e-03" rms="6.3265912234783173e-02" purity="1.0000000000000000e+00" nType="-99"/>
        <Node pos="r" depth="1" NCoef="0" IVar="5" Cut="2.0331710815429688e+02" cType="0" res="5.3182749979896471e-05" rms="6.0187630355358124e-02" purity="1.0000000000000000e+00" nType="0">
          <Node pos="l" depth="2" NCoef="0" IVar="-1" Cut="0.0000000000000000e+00" cType="1" res="2.2413292899727821e-02" rms="7.2750359773635864e-02" purity="1.0000000000000000e+00" nType="-99"/>
          <Node pos="r" depth="2" NCoef="0" IVar="-1" Cut="0.0000000000000000e+00" cType="1" res="-9.0857662144117057e-05" rms="6.0092881321907043e-02" purity="1.0000000000000000e+00" nType="-99"/>
        </Node>
      </Node>
    </BinaryTree>
    <BinaryTree type="DecisionTree" boostWeight="1.0000000000000000e+00" itree="63">
      <Node pos="s" depth="0" NCoef="0" IVar="0" Cut="1.1237618923187256e+00" cType="0" res="6.0738745378330350e-04" rms="6.0371086001396179e-02" purity="1.0000000000000000e+00" nType="0">
        <Node pos="l" depth="1" NCoef="0" IVar="-1" Cut="0.0000000000000000e+00" cType="1" res="9.7313045989722013e-04" rms="6.1253625899553299e-02" purity="1.0000000000000000e+00" nType="-99"/>
        <Node pos="r" depth="1" NCoef="0" IVar="0" Cut="-1.0639597177505493e+00" cType="0" res="-2.6461158995516598e-04" rms="6.0198470950126648e-02" purity="1.0000000000000000e+00" nType="0">
          <Node pos="l" depth="2" NCoef="0" IVar="-1" Cut="0.0000000000000000e+00" cType="1" res="-2.9775570146739483e-04" rms="6.0056511312723160e-02" purity="1.0000000000000000e+00" nType="-99"/>
          <Node pos="r" depth="2" NCoef="0" IVar="-1" Cut="0.0000000000000000e+00" cType="1" res="8.1058929208666086e-04" rms="6.0580480843782425e-02" purity="1.0000000000000000e+00" nType="-99"/>
        </Node>
      </Node>
    </BinaryTree>
    <BinaryTree type="DecisionTree" boostWeight="1.0000000000000000e+00" itree="64">
      <Node pos="s" depth="0" NCoef="0" IVar="6" Cut="2.6725354194641113e+00" cType="0" res="6.0658808797597885e-04" rms="6.0293000191450119e-02" purity="1.0000000000000000e+00" nType="0">
        <Node pos="l" depth="1" NCoef="0" IVar="-1" Cut="0.0000000000000000e+00" cType="1" res="-9.6406298689544201e-04" rms="5.5493783205747604e-02" purity="1.0000000000000000e+00" nType="-99"/>
        <Node pos="r" depth="1" NCoef="0" IVar="5" Cut="2.2305665969848633e+01" cType="0" res="1.2978955637663603e-03" rms="6.0641653835773468e-02" purity="1.0000000000000000e+00" nType="0">
          <Node pos="l" depth="2" NCoef="0" IVar="-1" Cut="0.0000000000000000e+00" cType="1" res="3.6000311956740916e-04" rms="6.2852405011653900e-02" purity="1.0000000000000000e+00" nType="-99"/>
          <Node pos="r" depth="2" NCoef="0" IVar="-1" Cut="0.0000000000000000e+00" cType="1" res="-4.1990357567556202e-04" rms="5.4625347256660461e-02" purity="1.0000000000000000e+00" nType="-99"/>
        </Node>
      </Node>
    </BinaryTree>
    <BinaryTree type="DecisionTree" boostWeight="1.0000000000000000e+00" itree="65">
      <Node pos="s" depth="0" NCoef="0" IVar="3" Cut="3.8164180755615234e+01" cType="0" res="6.0074322391301394e-04" rms="6.0265008360147476e-02" purity="1.0000000000000000e+00" nType="0">
        <Node pos="l" depth="1" NCoef="0" IVar="-1" Cut="0.0000000000000000e+00" cType="1" res="-2.3533530475106090e-04" rms="5.8876160532236099e-02" purity="1.0000000000000000e+00" nType="-99"/>
        <Node pos="r" depth="1" NCoef="0" IVar="5" Cut="2.9880777359008789e+01" cType="0" res="3.5911707673221827e-03" rms="6.2322758138179779e-02" purity="1.0000000000000000e+00" nType="0">
          <Node pos="l" depth="2" NCoef="0" IVar="-1" Cut="0.0000000000000000e+00" cType="1" res="1.2539591407403350e-03" rms="6.6535554826259613e-02" purity="1.0000000000000000e+00" nType="-99"/>
          <Node pos="r" depth="2" NCoef="0" IVar="-1" Cut="0.0000000000000000e+00" cType="1" res="-2.7494409005157650e-04" rms="5.6570421904325485e-02" purity="1.0000000000000000e+00" nType="-99"/>
        </Node>
      </Node>
    </BinaryTree>
    <BinaryTree type="DecisionTree" boostWeight="1.0000000000000000e+00" itree="66">
      <Node pos="s" depth="0" NCoef="0" IVar="5" Cut="1.8772950744628906e+02" cType="0" res="5.9672089992091060e-04" rms="6.0251273214817047e-02" purity="1.0000000000000000e+00" nType="0">
        <Node pos="l" depth="1" NCoef="0" IVar="-1" Cut="0.0000000000000000e+00" cType="1" res="1.5726663172245026e-02" rms="7.5617596507072449e-02" purity="1.0000000000000000e+00" nType="-99"/>
        <Node pos="r" depth="1" NCoef="0" IVar="3" Cut="2.0492536544799805e+01" cType="0" res="4.1756741120480001e-04" rms="6.0103487223386765e-02" purity="1.0000000000000000e+00" nType="0">
          <Node pos="l" depth="2" NCoef="0" IVar="-1" Cut="0.0000000000000000e+00" cType="1" res="-6.7923698225058615e-05" rms="5.9926141053438187e-02" purity="1.0000000000000000e+00" nType="-99"/>
          <Node pos="r" depth="2" NCoef="0" IVar="-1" Cut="0.0000000000000000e+00" cType="1" res="3.3486273605376482e-03" rms="6.7472405731678009e-02" purity="1.0000000000000000e+00" nType="-99"/>
        </Node>
      </Node>
    </BinaryTree>
    <BinaryTree type="DecisionTree" boostWeight="1.0000000000000000e+00" itree="67">
      <Node pos="s" depth="0" NCoef="0" IVar="1" Cut="2.4396550655364990e-01" cType="0" res="5.9817364672198892e-04" rms="6.0245320200920105e-02" purity="1.0000000000000000e+00" nType="0">
        <Node pos="l" depth="1" NCoef="0" IVar="-1" Cut="0.0000000000000000e+00" cType="1" res="1.8494842515792698e-04" rms="6.0186423361301422e-02" purity="1.0000000000000000e+00" nType="-99"/>
        <Node pos="r" depth="1" NCoef="0" IVar="3" Cut="5.6064678192138672e+01" cType="0" res="-3.2761313486844301e-03" rms="6.0238074511289597e-02" purity="1.0000000000000000e+00" nType="0">
          <Node pos="l" depth="2" NCoef="0" IVar="-1" Cut="0.0000000000000000e+00" cType="1" res="-1.2687350390478969e-03" rms="5.6448657065629959e-02" purity="1.0000000000000000e+00" nType="-99"/>
          <Node pos="r" depth="2" NCoef="0" IVar="-1" Cut="0.0000000000000000e+00" cType="1" res="-3.2217369880527258e-04" rms="6.0898460447788239e-02" purity="1.0000000000000000e+00" nType="-99"/>
        </Node>
      </Node>
    </BinaryTree>
    <BinaryTree type="DecisionTree" boostWeight="1.0000000000000000e+00" itree="68">
      <Node pos="s" depth="0" NCoef="0" IVar="1" Cut="4.4861364364624023e-01" cType="0" res="6.0167990159243345e-04" rms="6.0306411236524582e-02" purity="1.0000000000000000e+00" nType="0">
        <Node pos="l" depth="1" NCoef="0" IVar="-1" Cut="0.0000000000000000e+00" cType="1" res="5.3854344878345728e-04" rms="6.1596974730491638e-02" purity="1.0000000000000000e+00" nType="-99"/>
        <Node pos="r" depth="1" NCoef="0" IVar="4" Cut="2.8641204833984375e+00" cType="0" res="-6.0479150852188468e-04" rms="5.9857036918401718e-02" purity="1.0000000000000000e+00" nType="0">
          <Node pos="l" depth="2" NCoef="0" IVar="-1" Cut="0.0000000000000000e+00" cType="1" res="1.2647690018638968e-03" rms="5.7305932044982910e-02" purity="1.0000000000000000e+00" nType="-99"/>
          <Node pos="r" depth="2" NCoef="0" IVar="-1" Cut="0.0000000000000000e+00" cType="1" res="-2.4497820413671434e-04" rms="5.9946108609437943e-02" purity="1.0000000000000000e+00" nType="-99"/>
        </Node>
      </Node>
    </BinaryTree>
    <BinaryTree type="DecisionTree" boostWeight="1.0000000000000000e+00" itree="69">
      <Node pos="s" depth="0" NCoef="0" IVar="0" Cut="1.1731332540512085e+00" cType="0" res="6.0397811466827989e-04" rms="6.0304060578346252e-02" purity="1.0000000000000000e+00" nType="0">
        <Node pos="l" depth="1" NCoef="0" IVar="-1" Cut="0.0000000000000000e+00" cType="1" res="9.0975646162405610e-04" rms="6.1435438692569733e-02" purity="1.0000000000000000e+00" nType="-99"/>
        <Node pos="r" depth="1" NCoef="0" IVar="3" Cut="4.7552238464355469e+01" cType="0" res="-1.4180282596498728e-04" rms="6.0121901333332062e-02" purity="1.0000000000000000e+00" nType="0">
          <Node pos="l" depth="2" NCoef="0" IVar="-1" Cut="0.0000000000000000e+00" cType="1" res="-4.7909258864820004e-04" rms="5.7223077863454819e-02" purity="1.0000000000000000e+00" nType="-99"/>
          <Node pos="r" depth="2" NCoef="0" IVar="-1" Cut="0.0000000000000000e+00" cType="1" res="1.2788274034392089e-04" rms="6.1623319983482361e-02" purity="1.0000000000000000e+00" nType="-99"/>
        </Node>
      </Node>
    </BinaryTree>
    <BinaryTree type="DecisionTree" boostWeight="1.0000000000000000e+00" itree="70">
      <Node pos="s" depth="0" NCoef="0" IVar="0" Cut="-1.2954328060150146e+00" cType="0" res="6.0890841996297240e-04" rms="6.0353457927703857e-02" purity="1.0000000000000000e+00" nType="0">
        <Node pos="l" depth="1" NCoef="0" IVar="-1" Cut="0.0000000000000000e+00" cType="1" res="-1.0240882693324238e-04" rms="6.0339130461215973e-02" purity="1.0000000000000000e+00" nType="-99"/>
        <Node pos="r" depth="1" NCoef="0" IVar="5" Cut="6.0597782135009766e+01" cType="0" res="7.6583130285143852e-03" rms="6.0058724135160446e-02" purity="1.0000000000000000e+00" nType="0">
          <Node pos="l" depth="2" NCoef="0" IVar="-1" Cut="0.0000000000000000e+00" cType="1" res="5.9260441921651363e-03" rms="7.1310959756374359e-02" purity="1.0000000000000000e+00" nType="-99"/>
          <Node pos="r" depth="2" NCoef="0" IVar="-1" Cut="0.0000000000000000e+00" cType="1" res="6.2376423738896847e-04" rms="5.7303059846162796e-02" purity="1.0000000000000000e+00" nType="-99"/>
        </Node>
      </Node>
    </BinaryTree>
    <BinaryTree type="DecisionTree" boostWeight="1.0000000000000000e+00" itree="71">
      <Node pos="s" depth="0" NCoef="0" IVar="5" Cut="1.8956755065917969e+02" cType="0" res="6.0794810997322202e-04" rms="6.0312308371067047e-02" purity="1.0000000000000000e+00" nType="0">
        <Node pos="l" depth="1" NCoef="0" IVar="-1" Cut="0.0000000000000000e+00" cType="1" res="1.6514742746949196e-02" rms="7.6509527862071991e-02" purity="1.0000000000000000e+00" nType="-99"/>
        <Node pos="r" depth="1" NCoef="0" IVar="3" Cut="2.6014925003051758e+01" cType="0" res="4.5372539898380637e-04" rms="6.0177013278007507e-02" purity="1.0000000000000000e+00" nType="0">
          <Node pos="l" depth="2" NCoef="0" IVar="-1" Cut="0.0000000000000000e+00" cType="1" res="-1.0329644283046946e-04" rms="5.9686351567506790e-02" purity="1.0000000000000000e+00" nType="-99"/>
          <Node pos="r" depth="2" NCoef="0" IVar="-1" Cut="0.0000000000000000e+00" cType="1" res="1.0415066499263048e-03" rms="6.5238192677497864e-02" purity="1.0000000000000000e+00" nType="-99"/>
        </Node>
      </Node>
    </BinaryTree>
    <BinaryTree type="DecisionTree" boostWeight="1.0000000000000000e+00" itree="72">
      <Node pos="s" depth="0" NCoef="0" IVar="1" Cut="1.7419908940792084e-01" cType="0" res="6.0585647588595748e-04" rms="6.0269206762313843e-02" purity="1.0000000000000000e+00" nType="0">
        <Node pos="l" depth="1" NCoef="0" IVar="-1" Cut="0.0000000000000000e+00" cType="1" res="1.1290543625364080e-04" rms="5.9939011931419373e-02" purity="1.0000000000000000e+00" nType="-99"/>
        <Node pos="r" depth="1" NCoef="0" IVar="2" Cut="1.9114152908325195e+01" cType="0" res="-4.7897668555378914e-03" rms="6.2147710472345352e-02" purity="1.0000000000000000e+00" nType="0">
          <Node pos="l" depth="2" NCoef="0" IVar="-1" Cut="0.0000000000000000e+00" cType="1" res="-9.3448406551033258e-04" rms="6.1684899032115936e-02" purity="1.0000000000000000e+00" nType="-99"/>
          <Node pos="r" depth="2" NCoef="0" IVar="-1" Cut="0.0000000000000000e+00" cType="1" res="1.2368013267405331e-04" rms="6.3595436513423920e-02" purity="1.0000000000000000e+00" nType="-99"/>
        </Node>
      </Node>
    </BinaryTree>
    <BinaryTree type="DecisionTree" boostWeight="1.0000000000000000e+00" itree="73">
      <Node pos="s" depth="0" NCoef="0" IVar="6" Cut="2.3287029266357422e+00" cType="0" res="6.0392770683392882e-04" rms="6.0299430042505264e-02" purity="1.0000000000000000e+00" nType="0">
        <Node pos="l" depth="1" NCoef="0" IVar="-1" Cut="0.0000000000000000e+00" cType="1" res="-6.1567698139697313e-04" rms="5.4894421249628067e-02" purity="1.0000000000000000e+00" nType="-99"/>
        <Node pos="r" depth="1" NCoef="0" IVar="5" Cut="2.2305665969848633e+01" cType="0" res="1.4277910813689232e-03" rms="6.1062879860401154e-02" purity="1.0000000000000000e+00" nType="0">
          <Node pos="l" depth="2" NCoef="0" IVar="-1" Cut="0.0000000000000000e+00" cType="1" res="4.1257674456574023e-04" rms="6.3258431851863861e-02" purity="1.0000000000000000e+00" nType="-99"/>
          <Node pos="r" depth="2" NCoef="0" IVar="-1" Cut="0.0000000000000000e+00" cType="1" res="-4.6495287097059190e-04" rms="5.4602440446615219e-02" purity="1.0000000000000000e+00" nType="-99"/>
        </Node>
      </Node>
    </BinaryTree>
    <BinaryTree type="DecisionTree" boostWeight="1.0000000000000000e+00" itree="74">
      <Node pos="s" depth="0" NCoef="0" IVar="1" Cut="6.1605304479598999e-01" cType="0" res="5.8798515237867832e-04" rms="6.0244381427764893e-02" purity="1.0000000000000000e+00" nType="0">
        <Node pos="l" depth="1" NCoef="0" IVar="-1" Cut="0.0000000000000000e+00" cType="1" res="1.3454890577122569e-03" rms="6.3433274626731873e-02" purity="1.0000000000000000e+00" nType="-99"/>
        <Node pos="r" depth="1" NCoef="0" IVar="4" Cut="8.0947697162628174e-02" cType="0" res="1.3620741083286703e-04" rms="6.0045003890991211e-02" purity="1.0000000000000000e+00" nType="0">
          <Node pos="l" depth="2" NCoef="0" IVar="-1" Cut="0.0000000000000000e+00" cType="1" res="-2.7275059255771339e-04" rms="6.0418114066123962e-02" purity="1.0000000000000000e+00" nType="-99"/>
          <Node pos="r" depth="2" NCoef="0" IVar="-1" Cut="0.0000000000000000e+00" cType="1" res="2.7771340683102608e-04" rms="5.9339947998523712e-02" purity="1.0000000000000000e+00" nType="-99"/>
        </Node>
      </Node>
    </BinaryTree>
    <BinaryTree type="DecisionTree" boostWeight="1.0000000000000000e+00" itree="75">
      <Node pos="s" depth="0" NCoef="0" IVar="2" Cut="3.5950309753417969e+01" cType="0" res="5.8954930864274502e-04" rms="6.0255631804466248e-02" purity="1.0000000000000000e+00" nType="0">
        <Node pos="l" depth="1" NCoef="0" IVar="-1" Cut="0.0000000000000000e+00" cType="1" res="-5.9378310106694698e-04" rms="5.5011969059705734e-02" purity="1.0000000000000000e+00" nType="-99"/>
        <Node pos="r" depth="1" NCoef="0" IVar="6" Cut="1.4067806303501129e-01" cType="0" res="1.3754605315625668e-03" rms="6.0979407280683517e-02" purity="1.0000000000000000e+00" nType="0">
          <Node pos="l" depth="2" NCoef="0" IVar="-1" Cut="0.0000000000000000e+00" cType="1" res="-6.3466963183600456e-05" rms="5.9740170836448669e-02" purity="1.0000000000000000e+00" nType="-99"/>
          <Node pos="r" depth="2" NCoef="0" IVar="-1" Cut="0.0000000000000000e+00" cType="1" res="1.1034819763153791e-03" rms="6.6511653363704681e-02" purity="1.0000000000000000e+00" nType="-99"/>
        </Node>
      </Node>
    </BinaryTree>
    <BinaryTree type="DecisionTree" boostWeight="1.0000000000000000e+00" itree="76">
      <Node pos="s" depth="0" NCoef="0" IVar="0" Cut="1.4199898242950439e+00" cType="0" res="5.9063627850264311e-04" rms="6.0220640152692795e-02" purity="1.0000000000000000e+00" nType="0">
        <Node pos="l" depth="1" NCoef="0" IVar="-1" Cut="0.0000000000000000e+00" cType="1" res="1.0353951947763562e-03" rms="6.0260452330112457e-02" purity="1.0000000000000000e+00" nType="-99"/>
        <Node pos="r" depth="1" NCoef="0" IVar="0" Cut="-1.0641403198242188e+00" cType="0" res="7.1213551564142108e-05" rms="6.0183238238096237e-02" purity="1.0000000000000000e+00" nType="0">
          <Node pos="l" depth="2" NCoef="0" IVar="-1" Cut="0.0000000000000000e+00" cType="1" res="-2.0949487225152552e-04" rms="6.0088384896516800e-02" purity="1.0000000000000000e+00" nType="-99"/>
          <Node pos="r" depth="2" NCoef="0" IVar="-1" Cut="0.0000000000000000e+00" cType="1" res="7.0283323293551803e-04" rms="6.0476072132587433e-02" purity="1.0000000000000000e+00" nType="-99"/>
        </Node>
      </Node>
    </BinaryTree>
    <BinaryTree type="DecisionTree" boostWeight="1.0000000000000000e+00" itree="77">
      <Node pos="s" depth="0" NCoef="0" IVar="5" Cut="2.0427189636230469e+02" cType="0" res="5.9747335035353899e-04" rms="6.0206901282072067e-02" purity="1.0000000000000000e+00" nType="0">
        <Node pos="l" depth="1" NCoef="0" IVar="-1" Cut="0.0000000000000000e+00" cType="1" res="1.6878755763173103e-02" rms="7.6159380376338959e-02" purity="1.0000000000000000e+00" nType="-99"/>
        <Node pos="r" depth="1" NCoef="0" IVar="2" Cut="1.4269086837768555e+01" cType="0" res="4.8169735237024724e-04" rms="6.0112077742815018e-02" purity="1.0000000000000000e+00" nType="0">
          <Node pos="l" depth="2" NCoef="0" IVar="-1" Cut="0.0000000000000000e+00" cType="1" res="-8.8267894170712680e-05" rms="5.9685733169317245e-02" purity="1.0000000000000000e+00" nType="-99"/>
          <Node pos="r" depth="2" NCoef="0" IVar="-1" Cut="0.0000000000000000e+00" cType="1" res="1.0561755625531077e-03" rms="6.5410435199737549e-02" purity="1.0000000000000000e+00" nType="-99"/>
        </Node>
      </Node>
    </BinaryTree>
    <BinaryTree type="DecisionTree" boostWeight="1.0000000000000000e+00" itree="78">
      <Node pos="s" depth="0" NCoef="0" IVar="1" Cut="2.4396550655364990e-01" cType="0" res="6.0734996804967523e-04" rms="6.0217652469873428e-02" purity="1.0000000000000000e+00" nType="0">
        <Node pos="l" depth="1" NCoef="0" IVar="-1" Cut="0.0000000000000000e+00" cType="1" res="1.5673195593990386e-04" rms="6.0173634439706802e-02" purity="1.0000000000000000e+00" nType="-99"/>
        <Node pos="r" depth="1" NCoef="0" IVar="6" Cut="2.8129551410675049e+00" cType="0" res="-2.5722365826368332e-03" rms="6.0224749147891998e-02" purity="1.0000000000000000e+00" nType="0">
          <Node pos="l" depth="2" NCoef="0" IVar="-1" Cut="0.0000000000000000e+00" cType="1" res="-1.7113226931542158e-03" rms="5.6599743664264679e-02" purity="1.0000000000000000e+00" nType="-99"/>
          <Node pos="r" depth="2" NCoef="0" IVar="-1" Cut="0.0000000000000000e+00" cType="1" res="-3.0379422241821885e-04" rms="6.0399767011404037e-02" purity="1.0000000000000000e+00" nType="-99"/>
        </Node>
      </Node>
    </BinaryTree>
    <BinaryTree type="DecisionTree" boostWeight="1.0000000000000000e+00" itree="79">
      <Node pos="s" depth="0" NCoef="0" IVar="5" Cut="1.2707410430908203e+02" cType="0" res="5.9836148284375668e-04" rms="6.0181226581335068e-02" purity="1.0000000000000000e+00" nType="0">
        <Node pos="l" depth="1" NCoef="0" IVar="-1" Cut="0.0000000000000000e+00" cType="1" res="3.6977750714868307e-03" rms="7.5737074017524719e-02" purity="1.0000000000000000e+00" nType="-99"/>
        <Node pos="r" depth="1" NCoef="0" IVar="0" Cut="1.9630743265151978e+00" cType="0" res="2.7350097661837935e-04" rms="5.9629771858453751e-02" purity="1.0000000000000000e+00" nType="0">
          <Node pos="l" depth="2" NCoef="0" IVar="-1" Cut="0.0000000000000000e+00" cType="1" res="1.9952857401221991e-03" rms="5.7103410363197327e-02" purity="1.0000000000000000e+00" nType="-99"/>
          <Node pos="r" depth="2" NCoef="0" IVar="-1" Cut="0.0000000000000000e+00" cType="1" res="-7.2362599894404411e-05" rms="5.9639416635036469e-02" purity="1.0000000000000000e+00" nType="-99"/>
        </Node>
      </Node>
    </BinaryTree>
    <BinaryTree type="DecisionTree" boostWeight="1.0000000000000000e+00" itree="80">
      <Node pos="s" depth="0" NCoef="0" IVar="3" Cut="2.2149253845214844e+01" cType="0" res="5.9413450071588159e-04" rms="6.0207668691873550e-02" purity="1.0000000000000000e+00" nType="0">
        <Node pos="l" depth="1" NCoef="0" IVar="-1" Cut="0.0000000000000000e+00" cType="1" res="-4.4390621042111889e-05" rms="5.9939231723546982e-02" purity="1.0000000000000000e+00" nType="-99"/>
        <Node pos="r" depth="1" NCoef="0" IVar="5" Cut="4.7989040374755859e+01" cType="0" res="1.0809764266014099e-02" rms="6.7273974418640137e-02" purity="1.0000000000000000e+00" nType="0">
          <Node pos="l" depth="2" NCoef="0" IVar="-1" Cut="0.0000000000000000e+00" cType="1" res="7.9798353835940361e-03" rms="7.1736015379428864e-02" purity="1.0000000000000000e+00" nType="-99"/>
          <Node pos="r" depth="2" NCoef="0" IVar="-1" Cut="0.0000000000000000e+00" cType="1" res="3.2377601019106805e-04" rms="6.3343532383441925e-02" purity="1.0000000000000000e+00" nType="-99"/>
        </Node>
      </Node>
    </BinaryTree>
    <BinaryTree type="DecisionTree" boostWeight="1.0000000000000000e+00" itree="81">
      <Node pos="s" depth="0" NCoef="0" IVar="0" Cut="-1.2954328060150146e+00" cType="0" res="5.9197144582867622e-04" rms="6.0207679867744446e-02" purity="1.0000000000000000e+00" nType="0">
        <Node pos="l" depth="1" NCoef="0" IVar="-1" Cut="0.0000000000000000e+00" cType="1" res="-8.6730702605564147e-05" rms="6.0200732201337814e-02" purity="1.0000000000000000e+00" nType="-99"/>
        <Node pos="r" depth="1" NCoef="0" IVar="1" Cut="3.0746933817863464e-01" cType="0" res="6.5733394585549831e-03" rms="5.9958156198263168e-02" purity="1.0000000000000000e+00" nType="0">
          <Node pos="l" depth="2" NCoef="0" IVar="-1" Cut="0.0000000000000000e+00" cType="1" res="1.7706496873870492e-03" rms="6.1245232820510864e-02" purity="1.0000000000000000e+00" nType="-99"/>
          <Node pos="r" depth="2" NCoef="0" IVar="-1" Cut="0.0000000000000000e+00" cType="1" res="3.0912553484085947e-05" rms="5.7914145290851593e-02" purity="1.0000000000000000e+00" nType="-99"/>
        </Node>
      </Node>
    </BinaryTree>
    <BinaryTree type="DecisionTree" boostWeight="1.0000000000000000e+00" itree="82">
      <Node pos="s" depth="0" NCoef="0" IVar="0" Cut="1.1237618923187256e+00" cType="0" res="6.0067343292757869e-04" rms="6.0229022055864334e-02" purity="1.0000000000000000e+00" nType="0">
        <Node pos="l" depth="1" NCoef="0" IVar="-1" Cut="0.0000000000000000e+00" cType="1" res="7.1730883792042732e-04" rms="6.1235543340444565e-02" purity="1.0000000000000000e+00" nType="-99"/>
        <Node pos="r" depth="1" NCoef="0" IVar="3" Cut="5.1417911529541016e+01" cType="0" res="-6.0501442931126803e-05" rms="6.0062158852815628e-02" purity="1.0000000000000000e+00" nType="0">
          <Node pos="l" depth="2" NCoef="0" IVar="-1" Cut="0.0000000000000000e+00" cType="1" res="-4.9335730727761984e-04" rms="5.6584537029266357e-02" purity="1.0000000000000000e+00" nType="-99"/>
          <Node pos="r" depth="2" NCoef="0" IVar="-1" Cut="0.0000000000000000e+00" cType="1" res="6.5306834585499018e-05" rms="6.1218377202749252e-02" purity="1.0000000000000000e+00" nType="-99"/>
        </Node>
      </Node>
    </BinaryTree>
    <BinaryTree type="DecisionTree" boostWeight="1.0000000000000000e+00" itree="83">
      <Node pos="s" depth="0" NCoef="0" IVar="6" Cut="2.6725354194641113e+00" cType="0" res="6.0064229182898998e-04" rms="6.0209769755601883e-02" purity="1.0000000000000000e+00" nType="0">
        <Node pos="l" depth="1" NCoef="0" IVar="-1" Cut="0.0000000000000000e+00" cType="1" res="-7.2142411954700947e-04" rms="5.5480547249317169e-02" purity="1.0000000000000000e+00" nType="-99"/>
        <Node pos="r" depth="1" NCoef="0" IVar="2" Cut="3.5147300720214844e+01" cType="0" res="1.1299817124381661e-03" rms="6.0573242604732513e-02" purity="1.0000000000000000e+00" nType="0">
          <Node pos="l" depth="2" NCoef="0" IVar="-1" Cut="0.0000000000000000e+00" cType="1" res="-4.9001292791217566e-04" rms="5.5325865745544434e-02" purity="1.0000000000000000e+00" nType="-99"/>
          <Node pos="r" depth="2" NCoef="0" IVar="-1" Cut="0.0000000000000000e+00" cType="1" res="1.9119340868201107e-04" rms="6.1411522328853607e-02" purity="1.0000000000000000e+00" nType="-99"/>
        </Node>
      </Node>
    </BinaryTree>
    <BinaryTree type="DecisionTree" boostWeight="1.0000000000000000e+00" itree="84">
      <Node pos="s" depth="0" NCoef="0" IVar="5" Cut="2.0427189636230469e+02" cType="0" res="5.9766182675957680e-04" rms="6.0219313949346542e-02" purity="1.0000000000000000e+00" nType="0">
        <Node pos="l" depth="1" NCoef="0" IVar="-1" Cut="0.0000000000000000e+00" cType="1" res="1.4773533679544926e-02" rms="7.7038042247295380e-02" purity="1.0000000000000000e+00" nType="-99"/>
        <Node pos="r" depth="1" NCoef="0" IVar="1" Cut="1.7419908940792084e-01" cType="0" res="4.9378542462363839e-04" rms="6.0126997530460358e-02" purity="1.0000000000000000e+00" nType="0">
          <Node pos="l" depth="2" NCoef="0" IVar="-1" Cut="0.0000000000000000e+00" cType="1" res="7.9937271948438138e-05" rms="5.9804424643516541e-02" purity="1.0000000000000000e+00" nType="-99"/>
          <Node pos="r" depth="2" NCoef="0" IVar="-1" Cut="0.0000000000000000e+00" cType="1" res="-6.2610872555524111e-04" rms="6.2039658427238464e-02" purity="1.0000000000000000e+00" nType="-99"/>
        </Node>
      </Node>
    </BinaryTree>
    <BinaryTree type="DecisionTree" boostWeight="1.0000000000000000e+00" itree="85">
      <Node pos="s" depth="0" NCoef="0" IVar="4" Cut="2.8641204833984375e+00" cType="0" res="5.9558928478509188e-04" rms="6.0229878872632980e-02" purity="1.0000000000000000e+00" nType="0">
        <Node pos="l" depth="1" NCoef="0" IVar="-1" Cut="0.0000000000000000e+00" cType="1" res="1.0238762479275465e-03" rms="5.8509487658739090e-02" purity="1.0000000000000000e+00" nType="-99"/>
        <Node pos="r" depth="1" NCoef="0" IVar="4" Cut="-9.8493217468261719e+01" cType="0" res="1.8322207324672490e-04" rms="6.0297992080450058e-02" purity="1.0000000000000000e+00" nType="0">
          <Node pos="l" depth="2" NCoef="0" IVar="-1" Cut="0.0000000000000000e+00" cType="1" res="-2.8065103106200695e-04" rms="6.0698408633470535e-02" purity="1.0000000000000000e+00" nType="-99"/>
          <Node pos="r" depth="2" NCoef="0" IVar="-1" Cut="0.0000000000000000e+00" cType="1" res="2.5871317484416068e-04" rms="5.9613738209009171e-02" purity="1.0000000000000000e+00" nType="-99"/>
        </Node>
      </Node>
    </BinaryTree>
    <BinaryTree type="DecisionTree" boostWeight="1.0000000000000000e+00" itree="86">
      <Node pos="s" depth="0" NCoef="0" IVar="1" Cut="6.2070417404174805e-01" cType="0" res="5.9556937776505947e-04" rms="6.0231588780879974e-02" purity="1.0000000000000000e+00" nType="0">
