<?xml version="1.0"?>
<MethodSetup Method="BDT::BDTG">
  <GeneralInfo>
    <Info name="TMVA Release" value="4.1.2 [262402]"/>
    <Info name="ROOT Release" value="5.32/00 [335872]"/>
    <Info name="Creator" value="hebda"/>
    <Info name="Date" value="Thu Oct 17 15:00:39 2013"/>
    <Info name="Host" value="Linux lxbuild167.cern.ch 2.6.18-308.1.1.el5 #1 SMP Wed Mar 7 19:25:07 CET 2012 x86_64 x86_64 x86_64 GNU/Linux"/>
    <Info name="Dir" value="/afs/cern.ch/work/h/hebda/HggHbb/CMSSW_5_2_5/src/ggAnalysis/regression"/>
    <Info name="Training events" value="5827"/>
    <Info name="TrainingTime" value="2.36822414e+00"/>
    <Info name="AnalysisType" value="Regression"/>
  </GeneralInfo>
  <Options>
    <Option name="V" modified="Yes">False</Option>
    <Option name="VerbosityLevel" modified="No">Default</Option>
    <Option name="VarTransform" modified="No">None</Option>
    <Option name="H" modified="Yes">False</Option>
    <Option name="CreateMVAPdfs" modified="No">False</Option>
    <Option name="IgnoreNegWeightsInTraining" modified="No">False</Option>
    <Option name="NTrees" modified="Yes">300</Option>
    <Option name="RenormByClass" modified="No">False</Option>
    <Option name="BoostType" modified="Yes">Grad</Option>
    <Option name="AdaBoostR2Loss" modified="No">quadratic</Option>
    <Option name="UseBaggedGrad" modified="No">False</Option>
    <Option name="GradBaggingFraction" modified="No">6.000000e-01</Option>
    <Option name="Shrinkage" modified="Yes">2.000000e-01</Option>
    <Option name="AdaBoostBeta" modified="No">1.000000e+00</Option>
    <Option name="UseRandomisedTrees" modified="No">False</Option>
    <Option name="UseNvars" modified="No">3</Option>
    <Option name="UsePoissonNvars" modified="No">True</Option>
    <Option name="UseNTrainEvents" modified="No">5827</Option>
    <Option name="UseWeightedTrees" modified="No">True</Option>
    <Option name="UseYesNoLeaf" modified="No">False</Option>
    <Option name="NodePurityLimit" modified="No">5.000000e-01</Option>
    <Option name="SeparationType" modified="No">regressionvariance</Option>
    <Option name="nEventsMin" modified="No">10</Option>
    <Option name="nCuts" modified="Yes">200</Option>
    <Option name="UseFisherCuts" modified="No">False</Option>
    <Option name="MinLinCorrForFisher" modified="No">8.000000e-01</Option>
    <Option name="UseExclusiveVars" modified="No">False</Option>
    <Option name="PruneStrength" modified="No">0.000000e+00</Option>
    <Option name="PruneMethod" modified="No">nopruning</Option>
    <Option name="PruneBeforeBoost" modified="No">False</Option>
    <Option name="PruningValFraction" modified="No">5.000000e-01</Option>
    <Option name="NNodesMax" modified="Yes">5</Option>
    <Option name="MaxDepth" modified="Yes">2</Option>
    <Option name="DoBoostMonitor" modified="No">False</Option>
    <Option name="NegWeightTreatment" modified="Yes">ignorenegweights</Option>
  </Options>
  <Variables NVar="7">
    <Variable VarIndex="0" Expression="jet_eta" Label="jet_eta" Title="jet_eta" Unit="units" Internal="jet_eta" Type="F" Min="-2.49874401e+00" Max="2.49616051e+00"/>
    <Variable VarIndex="1" Expression="jet_emfrac" Label="jet_emfrac" Title="jet_emfrac" Unit="units" Internal="jet_emfrac" Type="F" Min="8.69143009e-03" Max="9.36937571e-01"/>
    <Variable VarIndex="2" Expression="jet_hadfrac" Label="jet_hadfrac" Title="jet_hadfrac" Unit="units" Internal="jet_hadfrac" Type="F" Min="3.07381010e+00" Max="5.37794075e+01"/>
    <Variable VarIndex="3" Expression="jet_nconstituents" Label="jet_nconstituents" Title="jet_nconst" Unit="units" Internal="jet_nconstituents" Type="F" Min="8.00000000e+00" Max="7.80000000e+01"/>
    <Variable VarIndex="4" Expression="jet_vtx3dL" Label="jet_vtx3dL" Title="jet_vtx3dL" Unit="units" Internal="jet_vtx3dL" Type="F" Min="-9.90000000e+01" Max="9.12801647e+00"/>
    <Variable VarIndex="5" Expression="MET" Label="MET" Title="MET" Unit="units" Internal="MET" Type="F" Min="3.53863865e-01" Max="3.93254059e+02"/>
    <Variable VarIndex="6" Expression="jet_dPhiMETJet" Label="jet_dPhiMETJet" Title="jet_dPhiMETJet" Unit="units" Internal="jet_dPhiMETJet" Type="F" Min="1.17719173e-04" Max="3.14116478e+00"/>
  </Variables>
  <Spectators NSpec="0"/>
  <Classes NClass="1">
    <Class Name="Regression" Index="0"/>
  </Classes>
  <Targets NTrgt="1">
    <Target TargetIndex="0" Expression="jet_genJetPt/jet_pt" Label="jet_genJetPt/jet_pt" Title="jet_genJetPt/jet_pt" Unit="" Internal="jet_genJetPt_D_jet_pt" Type="F" Min="7.51212910e-02" Max="6.39034033e+00"/>
  </Targets>
  <Transformations NTransformations="0"/>
  <MVAPdfs/>
  <Weights NTrees="300" AnalysisType="1">
    <BinaryTree type="DecisionTree" boostWeight="1.0572338104248047e+00" itree="0">
      <Node pos="s" depth="0" NCoef="0" IVar="6" Cut="8.7523531913757324e-01" cType="0" res="9.3184681609272957e-03" rms="1.4287857711315155e-01" purity="1.0000000000000000e+00" nType="0">
        <Node pos="l" depth="1" NCoef="0" IVar="-1" Cut="0.0000000000000000e+00" cType="1" res="-8.4991417825222015e-03" rms="1.3229429721832275e-01" purity="1.0000000000000000e+00" nType="-99"/>
        <Node pos="r" depth="1" NCoef="0" IVar="1" Cut="3.7352448701858521e-01" cType="0" res="5.7459432631731033e-02" rms="1.3958367705345154e-01" purity="1.0000000000000000e+00" nType="0">
          <Node pos="l" depth="2" NCoef="0" IVar="-1" Cut="0.0000000000000000e+00" cType="1" res="3.1212074682116508e-02" rms="1.2930369377136230e-01" purity="1.0000000000000000e+00" nType="-99"/>
          <Node pos="r" depth="2" NCoef="0" IVar="-1" Cut="0.0000000000000000e+00" cType="1" res="9.6912337467074394e-03" rms="1.4154887199401855e-01" purity="1.0000000000000000e+00" nType="-99"/>
        </Node>
      </Node>
    </BinaryTree>
    <BinaryTree type="DecisionTree" boostWeight="1.0000000000000000e+00" itree="1">
      <Node pos="s" depth="0" NCoef="0" IVar="6" Cut="1.2034044265747070e+00" cType="0" res="7.5184744782745838e-03" rms="1.4081390202045441e-01" purity="1.0000000000000000e+00" nType="0">
        <Node pos="l" depth="1" NCoef="0" IVar="-1" Cut="0.0000000000000000e+00" cType="1" res="-9.1222729533910751e-03" rms="1.2883810698986053e-01" purity="1.0000000000000000e+00" nType="-99"/>
        <Node pos="r" depth="1" NCoef="0" IVar="3" Cut="2.6268655776977539e+01" cType="0" res="3.8102921098470688e-02" rms="1.4102438092231750e-01" purity="1.0000000000000000e+00" nType="0">
          <Node pos="l" depth="2" NCoef="0" IVar="-1" Cut="0.0000000000000000e+00" cType="1" res="5.3192265331745148e-03" rms="1.4111839234828949e-01" purity="1.0000000000000000e+00" nType="-99"/>
          <Node pos="r" depth="2" NCoef="0" IVar="-1" Cut="0.0000000000000000e+00" cType="1" res="2.3960620164871216e-02" rms="1.3383483886718750e-01" purity="1.0000000000000000e+00" nType="-99"/>
        </Node>
      </Node>
    </BinaryTree>
    <BinaryTree type="DecisionTree" boostWeight="1.0000000000000000e+00" itree="2">
      <Node pos="s" depth="0" NCoef="0" IVar="6" Cut="7.0333719253540039e-01" cType="0" res="6.1195441521704197e-03" rms="1.3896429538726807e-01" purity="1.0000000000000000e+00" nType="0">
        <Node pos="l" depth="1" NCoef="0" IVar="-1" Cut="0.0000000000000000e+00" cType="1" res="-5.2537415176630020e-03" rms="1.3098083436489105e-01" purity="1.0000000000000000e+00" nType="-99"/>
        <Node pos="r" depth="1" NCoef="0" IVar="5" Cut="3.4973396301269531e+01" cType="0" res="4.5478977262973785e-02" rms="1.4201812446117401e-01" purity="1.0000000000000000e+00" nType="0">
          <Node pos="l" depth="2" NCoef="0" IVar="-1" Cut="0.0000000000000000e+00" cType="1" res="2.9372258111834526e-02" rms="1.3852828741073608e-01" purity="1.0000000000000000e+00" nType="-99"/>
          <Node pos="r" depth="2" NCoef="0" IVar="-1" Cut="0.0000000000000000e+00" cType="1" res="4.4457982294261456e-03" rms="1.3909216225147247e-01" purity="1.0000000000000000e+00" nType="-99"/>
        </Node>
      </Node>
    </BinaryTree>
    <BinaryTree type="DecisionTree" boostWeight="1.0000000000000000e+00" itree="3">
      <Node pos="s" depth="0" NCoef="0" IVar="3" Cut="3.6208953857421875e+01" cType="0" res="5.0146416760981083e-03" rms="1.3789044320583344e-01" purity="1.0000000000000000e+00" nType="0">
        <Node pos="l" depth="1" NCoef="0" IVar="-1" Cut="0.0000000000000000e+00" cType="1" res="-1.0149414651095867e-02" rms="1.3093990087509155e-01" purity="1.0000000000000000e+00" nType="-99"/>
        <Node pos="r" depth="1" NCoef="0" IVar="6" Cut="6.2507855892181396e-01" cType="0" res="2.0644083619117737e-02" rms="1.3724030554294586e-01" purity="1.0000000000000000e+00" nType="0">
          <Node pos="l" depth="2" NCoef="0" IVar="-1" Cut="0.0000000000000000e+00" cType="1" res="-2.9515338246710598e-04" rms="1.3013067841529846e-01" purity="1.0000000000000000e+00" nType="-99"/>
          <Node pos="r" depth="2" NCoef="0" IVar="-1" Cut="0.0000000000000000e+00" cType="1" res="1.8928116187453270e-02" rms="1.4218601584434509e-01" purity="1.0000000000000000e+00" nType="-99"/>
        </Node>
      </Node>
    </BinaryTree>
    <BinaryTree type="DecisionTree" boostWeight="1.0000000000000000e+00" itree="4">
      <Node pos="s" depth="0" NCoef="0" IVar="1" Cut="3.9199703931808472e-01" cType="0" res="4.3128156103193760e-03" rms="1.3708958029747009e-01" purity="1.0000000000000000e+00" nType="0">
        <Node pos="l" depth="1" NCoef="0" IVar="-1" Cut="0.0000000000000000e+00" cType="1" res="1.0765789076685905e-02" rms="1.3554237782955170e-01" purity="1.0000000000000000e+00" nType="-99"/>
        <Node pos="r" depth="1" NCoef="0" IVar="6" Cut="1.6097090244293213e+00" cType="0" res="-1.2257119640707970e-02" rms="1.3472254574298859e-01" purity="1.0000000000000000e+00" nType="0">
          <Node pos="l" depth="2" NCoef="0" IVar="-1" Cut="0.0000000000000000e+00" cType="1" res="-1.0996077209711075e-02" rms="1.2306217104196548e-01" purity="1.0000000000000000e+00" nType="-99"/>
          <Node pos="r" depth="2" NCoef="0" IVar="-1" Cut="0.0000000000000000e+00" cType="1" res="2.9894680483266711e-04" rms="1.3757842779159546e-01" purity="1.0000000000000000e+00" nType="-99"/>
        </Node>
      </Node>
    </BinaryTree>
    <BinaryTree type="DecisionTree" boostWeight="1.0000000000000000e+00" itree="5">
      <Node pos="s" depth="0" NCoef="0" IVar="1" Cut="2.7654355764389038e-01" cType="0" res="3.7052948027849197e-03" rms="1.3638721406459808e-01" purity="1.0000000000000000e+00" nType="0">
        <Node pos="l" depth="1" NCoef="0" IVar="-1" Cut="0.0000000000000000e+00" cType="1" res="5.4107876494526863e-03" rms="1.3665710389614105e-01" purity="1.0000000000000000e+00" nType="-99"/>
        <Node pos="r" depth="1" NCoef="0" IVar="3" Cut="2.7283582687377930e+01" cType="0" res="-2.1340500563383102e-02" rms="1.3204351067543030e-01" purity="1.0000000000000000e+00" nType="0">
          <Node pos="l" depth="2" NCoef="0" IVar="-1" Cut="0.0000000000000000e+00" cType="1" res="-9.4703547656536102e-03" rms="1.2771490216255188e-01" purity="1.0000000000000000e+00" nType="-99"/>
          <Node pos="r" depth="2" NCoef="0" IVar="-1" Cut="0.0000000000000000e+00" cType="1" res="9.8635372705757618e-04" rms="1.3613753020763397e-01" purity="1.0000000000000000e+00" nType="-99"/>
        </Node>
      </Node>
    </BinaryTree>
    <BinaryTree type="DecisionTree" boostWeight="1.0000000000000000e+00" itree="6">
      <Node pos="s" depth="0" NCoef="0" IVar="6" Cut="1.6097090244293213e+00" cType="0" res="3.2063967082649469e-03" rms="1.3550977408885956e-01" purity="1.0000000000000000e+00" nType="0">
        <Node pos="l" depth="1" NCoef="0" IVar="-1" Cut="0.0000000000000000e+00" cType="1" res="-6.8369144573807716e-03" rms="1.2345663458108902e-01" purity="1.0000000000000000e+00" nType="-99"/>
        <Node pos="r" depth="1" NCoef="0" IVar="1" Cut="5.3977751731872559e-01" cType="0" res="1.6622925177216530e-02" rms="1.3852742314338684e-01" purity="1.0000000000000000e+00" nType="0">
          <Node pos="l" depth="2" NCoef="0" IVar="-1" Cut="0.0000000000000000e+00" cType="1" res="2.3240217939019203e-02" rms="1.3430002331733704e-01" purity="1.0000000000000000e+00" nType="-99"/>
          <Node pos="r" depth="2" NCoef="0" IVar="-1" Cut="0.0000000000000000e+00" cType="1" res="2.1735706832259893e-03" rms="1.3776350021362305e-01" purity="1.0000000000000000e+00" nType="-99"/>
        </Node>
      </Node>
    </BinaryTree>
    <BinaryTree type="DecisionTree" boostWeight="1.0000000000000000e+00" itree="7">
      <Node pos="s" depth="0" NCoef="0" IVar="3" Cut="3.7253730773925781e+01" cType="0" res="2.9815975576639175e-03" rms="1.3537995517253876e-01" purity="1.0000000000000000e+00" nType="0">
        <Node pos="l" depth="1" NCoef="0" IVar="-1" Cut="0.0000000000000000e+00" cType="1" res="-8.3765238523483276e-03" rms="1.2901747226715088e-01" purity="1.0000000000000000e+00" nType="-99"/>
        <Node pos="r" depth="1" NCoef="0" IVar="1" Cut="2.2574400901794434e-01" cType="0" res="1.3810920529067516e-02" rms="1.3569104671478271e-01" purity="1.0000000000000000e+00" nType="0">
          <Node pos="l" depth="2" NCoef="0" IVar="-1" Cut="0.0000000000000000e+00" cType="1" res="6.7708604037761688e-03" rms="1.3613322377204895e-01" purity="1.0000000000000000e+00" nType="-99"/>
          <Node pos="r" depth="2" NCoef="0" IVar="-1" Cut="0.0000000000000000e+00" cType="1" res="-4.3503395281732082e-03" rms="1.3020417094230652e-01" purity="1.0000000000000000e+00" nType="-99"/>
        </Node>
      </Node>
    </BinaryTree>
    <BinaryTree type="DecisionTree" boostWeight="1.0000000000000000e+00" itree="8">
      <Node pos="s" depth="0" NCoef="0" IVar="6" Cut="5.9394752979278564e-01" cType="0" res="2.6123002171516418e-03" rms="1.3404151797294617e-01" purity="1.0000000000000000e+00" nType="0">
        <Node pos="l" depth="1" NCoef="0" IVar="-1" Cut="0.0000000000000000e+00" cType="1" res="-2.9975473880767822e-03" rms="1.2704181671142578e-01" purity="1.0000000000000000e+00" nType="-99"/>
        <Node pos="r" depth="1" NCoef="0" IVar="5" Cut="2.4190946578979492e+01" cType="0" res="2.7561526745557785e-02" rms="1.4352272450923920e-01" purity="1.0000000000000000e+00" nType="0">
          <Node pos="l" depth="2" NCoef="0" IVar="-1" Cut="0.0000000000000000e+00" cType="1" res="1.7192104831337929e-02" rms="1.4482672512531281e-01" purity="1.0000000000000000e+00" nType="-99"/>
          <Node pos="r" depth="2" NCoef="0" IVar="-1" Cut="0.0000000000000000e+00" cType="1" res="-3.8553869817405939e-03" rms="1.3150861859321594e-01" purity="1.0000000000000000e+00" nType="-99"/>
        </Node>
      </Node>
    </BinaryTree>
    <BinaryTree type="DecisionTree" boostWeight="1.0000000000000000e+00" itree="9">
      <Node pos="s" depth="0" NCoef="0" IVar="3" Cut="2.7154228210449219e+01" cType="0" res="2.3183957673609257e-03" rms="1.3386009633541107e-01" purity="1.0000000000000000e+00" nType="0">
        <Node pos="l" depth="1" NCoef="0" IVar="-1" Cut="0.0000000000000000e+00" cType="1" res="-3.1579690985381603e-03" rms="1.3101100921630859e-01" purity="1.0000000000000000e+00" nType="-99"/>
        <Node pos="r" depth="1" NCoef="0" IVar="5" Cut="2.6095634460449219e+01" cType="0" res="2.4828415364027023e-02" rms="1.3608244061470032e-01" purity="1.0000000000000000e+00" nType="0">
          <Node pos="l" depth="2" NCoef="0" IVar="-1" Cut="0.0000000000000000e+00" cType="1" res="1.3797759078443050e-02" rms="1.4143329858779907e-01" purity="1.0000000000000000e+00" nType="-99"/>
          <Node pos="r" depth="2" NCoef="0" IVar="-1" Cut="0.0000000000000000e+00" cType="1" res="1.4848617138341069e-03" rms="1.2770321965217590e-01" purity="1.0000000000000000e+00" nType="-99"/>
        </Node>
      </Node>
    </BinaryTree>
    <BinaryTree type="DecisionTree" boostWeight="1.0000000000000000e+00" itree="10">
      <Node pos="s" depth="0" NCoef="0" IVar="3" Cut="2.2278606414794922e+01" cType="0" res="2.1688209380954504e-03" rms="1.3356903195381165e-01" purity="1.0000000000000000e+00" nType="0">
        <Node pos="l" depth="1" NCoef="0" IVar="-1" Cut="0.0000000000000000e+00" cType="1" res="-1.6870218096300960e-03" rms="1.3216279447078705e-01" purity="1.0000000000000000e+00" nType="-99"/>
        <Node pos="r" depth="1" NCoef="0" IVar="6" Cut="1.7242710292339325e-01" cType="0" res="3.4292239695787430e-02" rms="1.3577844202518463e-01" purity="1.0000000000000000e+00" nType="0">
          <Node pos="l" depth="2" NCoef="0" IVar="-1" Cut="0.0000000000000000e+00" cType="1" res="7.2844428941607475e-03" rms="1.3377377390861511e-01" purity="1.0000000000000000e+00" nType="-99"/>
          <Node pos="r" depth="2" NCoef="0" IVar="-1" Cut="0.0000000000000000e+00" cType="1" res="4.5286636799573898e-02" rms="1.3733845949172974e-01" purity="1.0000000000000000e+00" nType="-99"/>
        </Node>
      </Node>
    </BinaryTree>
    <BinaryTree type="DecisionTree" boostWeight="1.0000000000000000e+00" itree="11">
      <Node pos="s" depth="0" NCoef="0" IVar="6" Cut="4.8455780744552612e-01" cType="0" res="2.0938087254762650e-03" rms="1.3358001410961151e-01" purity="1.0000000000000000e+00" nType="0">
        <Node pos="l" depth="1" NCoef="0" IVar="-1" Cut="0.0000000000000000e+00" cType="1" res="-2.1772345062345266e-03" rms="1.2766826152801514e-01" purity="1.0000000000000000e+00" nType="-99"/>
        <Node pos="r" depth="1" NCoef="0" IVar="5" Cut="3.1293264389038086e+01" cType="0" res="2.3945432156324387e-02" rms="1.4507226645946503e-01" purity="1.0000000000000000e+00" nType="0">
          <Node pos="l" depth="2" NCoef="0" IVar="-1" Cut="0.0000000000000000e+00" cType="1" res="2.1034264937043190e-02" rms="1.4938449859619141e-01" purity="1.0000000000000000e+00" nType="-99"/>
          <Node pos="r" depth="2" NCoef="0" IVar="-1" Cut="0.0000000000000000e+00" cType="1" res="-2.3866484407335520e-03" rms="1.3286684453487396e-01" purity="1.0000000000000000e+00" nType="-99"/>
        </Node>
      </Node>
    </BinaryTree>
    <BinaryTree type="DecisionTree" boostWeight="1.0000000000000000e+00" itree="12">
      <Node pos="s" depth="0" NCoef="0" IVar="3" Cut="3.4119403839111328e+01" cType="0" res="1.9534705206751823e-03" rms="1.3362701237201691e-01" purity="1.0000000000000000e+00" nType="0">
        <Node pos="l" depth="1" NCoef="0" IVar="-1" Cut="0.0000000000000000e+00" cType="1" res="-4.7694910317659378e-03" rms="1.2779195606708527e-01" purity="1.0000000000000000e+00" nType="-99"/>
        <Node pos="r" depth="1" NCoef="0" IVar="1" Cut="1.5647190809249878e-01" cType="0" res="1.1565154418349266e-02" rms="1.3560199737548828e-01" purity="1.0000000000000000e+00" nType="0">
          <Node pos="l" depth="2" NCoef="0" IVar="-1" Cut="0.0000000000000000e+00" cType="1" res="4.8193722032010555e-03" rms="1.3609324395656586e-01" purity="1.0000000000000000e+00" nType="-99"/>
          <Node pos="r" depth="2" NCoef="0" IVar="-1" Cut="0.0000000000000000e+00" cType="1" res="-6.5578031353652477e-03" rms="1.2731596827507019e-01" purity="1.0000000000000000e+00" nType="-99"/>
        </Node>
      </Node>
    </BinaryTree>
    <BinaryTree type="DecisionTree" boostWeight="1.0000000000000000e+00" itree="13">
      <Node pos="s" depth="0" NCoef="0" IVar="6" Cut="2.0785219669342041e+00" cType="0" res="1.7880443483591080e-03" rms="1.3285163044929504e-01" purity="1.0000000000000000e+00" nType="0">
        <Node pos="l" depth="1" NCoef="0" IVar="-1" Cut="0.0000000000000000e+00" cType="1" res="-5.7563642039895058e-03" rms="1.1862897872924805e-01" purity="1.0000000000000000e+00" nType="-99"/>
        <Node pos="r" depth="1" NCoef="0" IVar="1" Cut="2.7654355764389038e-01" cType="0" res="8.0543914809823036e-03" rms="1.3553839921951294e-01" purity="1.0000000000000000e+00" nType="0">
          <Node pos="l" depth="2" NCoef="0" IVar="-1" Cut="0.0000000000000000e+00" cType="1" res="4.6145329251885414e-03" rms="1.3814742863178253e-01" purity="1.0000000000000000e+00" nType="-99"/>
          <Node pos="r" depth="2" NCoef="0" IVar="-1" Cut="0.0000000000000000e+00" cType="1" res="-2.3288095835596323e-03" rms="1.3003455102443695e-01" purity="1.0000000000000000e+00" nType="-99"/>
        </Node>
      </Node>
    </BinaryTree>
    <BinaryTree type="DecisionTree" boostWeight="1.0000000000000000e+00" itree="14">
      <Node pos="s" depth="0" NCoef="0" IVar="1" Cut="5.8134078979492188e-01" cType="0" res="1.8433983204886317e-03" rms="1.3300088047981262e-01" purity="1.0000000000000000e+00" nType="0">
        <Node pos="l" depth="1" NCoef="0" IVar="-1" Cut="0.0000000000000000e+00" cType="1" res="1.3923460617661476e-02" rms="1.3813853263854980e-01" purity="1.0000000000000000e+00" nType="-99"/>
        <Node pos="r" depth="1" NCoef="0" IVar="6" Cut="2.0327001810073853e-01" cType="0" res="-1.2177691096439958e-03" rms="1.3209980726242065e-01" purity="1.0000000000000000e+00" nType="0">
          <Node pos="l" depth="2" NCoef="0" IVar="-1" Cut="0.0000000000000000e+00" cType="1" res="-1.9184459233656526e-03" rms="1.2934568524360657e-01" purity="1.0000000000000000e+00" nType="-99"/>
          <Node pos="r" depth="2" NCoef="0" IVar="-1" Cut="0.0000000000000000e+00" cType="1" res="8.9501775801181793e-03" rms="1.4748464524745941e-01" purity="1.0000000000000000e+00" nType="-99"/>
        </Node>
      </Node>
    </BinaryTree>
    <BinaryTree type="DecisionTree" boostWeight="1.0000000000000000e+00" itree="15">
      <Node pos="s" depth="0" NCoef="0" IVar="3" Cut="3.8298507690429688e+01" cType="0" res="1.8213067669421434e-03" rms="1.3268730044364929e-01" purity="1.0000000000000000e+00" nType="0">
        <Node pos="l" depth="1" NCoef="0" IVar="-1" Cut="0.0000000000000000e+00" cType="1" res="-5.1687364466488361e-03" rms="1.2580990791320801e-01" purity="1.0000000000000000e+00" nType="-99"/>
        <Node pos="r" depth="1" NCoef="0" IVar="5" Cut="3.7721530914306641e+01" cType="0" res="7.4208211153745651e-03" rms="1.3401935994625092e-01" purity="1.0000000000000000e+00" nType="0">
          <Node pos="l" depth="2" NCoef="0" IVar="-1" Cut="0.0000000000000000e+00" cType="1" res="7.8519135713577271e-03" rms="1.4543560147285461e-01" purity="1.0000000000000000e+00" nType="-99"/>
          <Node pos="r" depth="2" NCoef="0" IVar="-1" Cut="0.0000000000000000e+00" cType="1" res="-3.8725082413293421e-04" rms="1.2777782976627350e-01" purity="1.0000000000000000e+00" nType="-99"/>
        </Node>
      </Node>
    </BinaryTree>
    <BinaryTree type="DecisionTree" boostWeight="1.0000000000000000e+00" itree="16">
      <Node pos="s" depth="0" NCoef="0" IVar="3" Cut="2.2278606414794922e+01" cType="0" res="1.7475516069680452e-03" rms="1.3279116153717041e-01" purity="1.0000000000000000e+00" nType="0">
        <Node pos="l" depth="1" NCoef="0" IVar="-1" Cut="0.0000000000000000e+00" cType="1" res="-1.3161894166842103e-03" rms="1.3124363124370575e-01" purity="1.0000000000000000e+00" nType="-99"/>
        <Node pos="r" depth="1" NCoef="0" IVar="6" Cut="6.0983407497406006e-01" cType="0" res="2.3754125460982323e-02" rms="1.3805530965328217e-01" purity="1.0000000000000000e+00" nType="0">
          <Node pos="l" depth="2" NCoef="0" IVar="-1" Cut="0.0000000000000000e+00" cType="1" res="2.7569292578846216e-03" rms="1.2866792082786560e-01" purity="1.0000000000000000e+00" nType="-99"/>
          <Node pos="r" depth="2" NCoef="0" IVar="-1" Cut="0.0000000000000000e+00" cType="1" res="1.6995405778288841e-02" rms="1.4947932958602905e-01" purity="1.0000000000000000e+00" nType="-99"/>
        </Node>
      </Node>
    </BinaryTree>
    <BinaryTree type="DecisionTree" boostWeight="1.0000000000000000e+00" itree="17">
      <Node pos="s" depth="0" NCoef="0" IVar="1" Cut="3.1810680031776428e-01" cType="0" res="1.7479560337960720e-03" rms="1.3249634206295013e-01" purity="1.0000000000000000e+00" nType="0">
        <Node pos="l" depth="1" NCoef="0" IVar="-1" Cut="0.0000000000000000e+00" cType="1" res="2.8066129889339209e-03" rms="1.3583895564079285e-01" purity="1.0000000000000000e+00" nType="-99"/>
        <Node pos="r" depth="1" NCoef="0" IVar="6" Cut="2.0785219669342041e+00" cType="0" res="-7.4240751564502716e-03" rms="1.2853981554508209e-01" purity="1.0000000000000000e+00" nType="0">
          <Node pos="l" depth="2" NCoef="0" IVar="-1" Cut="0.0000000000000000e+00" cType="1" res="-6.1474256217479706e-03" rms="1.1861141026020050e-01" purity="1.0000000000000000e+00" nType="-99"/>
          <Node pos="r" depth="2" NCoef="0" IVar="-1" Cut="0.0000000000000000e+00" cType="1" res="-1.2433009687811136e-03" rms="1.3097181916236877e-01" purity="1.0000000000000000e+00" nType="-99"/>
        </Node>
      </Node>
    </BinaryTree>
    <BinaryTree type="DecisionTree" boostWeight="1.0000000000000000e+00" itree="18">
      <Node pos="s" depth="0" NCoef="0" IVar="6" Cut="2.0327001810073853e-01" cType="0" res="1.7239635344594717e-03" rms="1.3218402862548828e-01" purity="1.0000000000000000e+00" nType="0">
        <Node pos="l" depth="1" NCoef="0" IVar="-1" Cut="0.0000000000000000e+00" cType="1" res="-9.4010989414528012e-04" rms="1.2938642501831055e-01" purity="1.0000000000000000e+00" nType="-99"/>
        <Node pos="r" depth="1" NCoef="0" IVar="5" Cut="4.5265243530273438e+01" cType="0" res="2.4400277063250542e-02" rms="1.4830414950847626e-01" purity="1.0000000000000000e+00" nType="0">
          <Node pos="l" depth="2" NCoef="0" IVar="-1" Cut="0.0000000000000000e+00" cType="1" res="4.4343102723360062e-02" rms="1.5003623068332672e-01" purity="1.0000000000000000e+00" nType="-99"/>
          <Node pos="r" depth="2" NCoef="0" IVar="-1" Cut="0.0000000000000000e+00" cType="1" res="-1.4723720960319042e-03" rms="1.4007452130317688e-01" purity="1.0000000000000000e+00" nType="-99"/>
        </Node>
      </Node>
    </BinaryTree>
    <BinaryTree type="DecisionTree" boostWeight="1.0000000000000000e+00" itree="19">
      <Node pos="s" depth="0" NCoef="0" IVar="2" Cut="2.2750608444213867e+01" cType="0" res="1.7515009967610240e-03" rms="1.3230916857719421e-01" purity="1.0000000000000000e+00" nType="0">
        <Node pos="l" depth="1" NCoef="0" IVar="-1" Cut="0.0000000000000000e+00" cType="1" res="-4.0846164338290691e-03" rms="1.2699639797210693e-01" purity="1.0000000000000000e+00" nType="-99"/>
        <Node pos="r" depth="1" NCoef="0" IVar="1" Cut="1.5647190809249878e-01" cType="0" res="6.3866362906992435e-03" rms="1.3351248204708099e-01" purity="1.0000000000000000e+00" nType="0">
          <Node pos="l" depth="2" NCoef="0" IVar="-1" Cut="0.0000000000000000e+00" cType="1" res="2.2400945890694857e-03" rms="1.3409790396690369e-01" purity="1.0000000000000000e+00" nType="-99"/>
          <Node pos="r" depth="2" NCoef="0" IVar="-1" Cut="0.0000000000000000e+00" cType="1" res="-4.5681614428758621e-03" rms="1.2688717246055603e-01" purity="1.0000000000000000e+00" nType="-99"/>
        </Node>
      </Node>
    </BinaryTree>
    <BinaryTree type="DecisionTree" boostWeight="1.0000000000000000e+00" itree="20">
      <Node pos="s" depth="0" NCoef="0" IVar="1" Cut="6.3675844669342041e-01" cType="0" res="1.7670267261564732e-03" rms="1.3249757885932922e-01" purity="1.0000000000000000e+00" nType="0">
        <Node pos="l" depth="1" NCoef="0" IVar="-1" Cut="0.0000000000000000e+00" cType="1" res="1.4697108417749405e-02" rms="1.4373323321342468e-01" purity="1.0000000000000000e+00" nType="-99"/>
        <Node pos="r" depth="1" NCoef="0" IVar="6" Cut="2.0785219669342041e+00" cType="0" res="1.8142121552955359e-04" rms="1.3176812231540680e-01" purity="1.0000000000000000e+00" nType="0">
          <Node pos="l" depth="2" NCoef="0" IVar="-1" Cut="0.0000000000000000e+00" cType="1" res="-3.7905264180153608e-03" rms="1.1745747923851013e-01" purity="1.0000000000000000e+00" nType="-99"/>
          <Node pos="r" depth="2" NCoef="0" IVar="-1" Cut="0.0000000000000000e+00" cType="1" res="5.1037204684689641e-04" rms="1.3497558236122131e-01" purity="1.0000000000000000e+00" nType="-99"/>
        </Node>
      </Node>
    </BinaryTree>
    <BinaryTree type="DecisionTree" boostWeight="1.0000000000000000e+00" itree="21">
      <Node pos="s" depth="0" NCoef="0" IVar="3" Cut="4.8049751281738281e+01" cType="0" res="1.7914293566718698e-03" rms="1.3257999718189240e-01" purity="1.0000000000000000e+00" nType="0">
        <Node pos="l" depth="1" NCoef="0" IVar="-1" Cut="0.0000000000000000e+00" cType="1" res="-8.4063317626714706e-03" rms="1.2751545011997223e-01" purity="1.0000000000000000e+00" nType="-99"/>
        <Node pos="r" depth="1" NCoef="0" IVar="6" Cut="3.9079520106315613e-01" cType="0" res="3.5131226759403944e-03" rms="1.3263416290283203e-01" purity="1.0000000000000000e+00" nType="0">
          <Node pos="l" depth="2" NCoef="0" IVar="-1" Cut="0.0000000000000000e+00" cType="1" res="-5.7707511587068439e-04" rms="1.2747877836227417e-01" purity="1.0000000000000000e+00" nType="-99"/>
          <Node pos="r" depth="2" NCoef="0" IVar="-1" Cut="0.0000000000000000e+00" cType="1" res="4.6781525015830994e-03" rms="1.4730913937091827e-01" purity="1.0000000000000000e+00" nType="-99"/>
        </Node>
      </Node>
    </BinaryTree>
    <BinaryTree type="DecisionTree" boostWeight="1.0000000000000000e+00" itree="22">
      <Node pos="s" depth="0" NCoef="0" IVar="3" Cut="2.2278606414794922e+01" cType="0" res="1.8410665215924382e-03" rms="1.3245932757854462e-01" purity="1.0000000000000000e+00" nType="0">
        <Node pos="l" depth="1" NCoef="0" IVar="-1" Cut="0.0000000000000000e+00" cType="1" res="-9.0301496675238013e-04" rms="1.3079072535037994e-01" purity="1.0000000000000000e+00" nType="-99"/>
        <Node pos="r" depth="1" NCoef="0" IVar="5" Cut="2.3614654541015625e+01" cType="0" res="1.7554644495248795e-02" rms="1.3931120932102203e-01" purity="1.0000000000000000e+00" nType="0">
          <Node pos="l" depth="2" NCoef="0" IVar="-1" Cut="0.0000000000000000e+00" cType="1" res="9.0938238427042961e-03" rms="1.4573839306831360e-01" purity="1.0000000000000000e+00" nType="-99"/>
          <Node pos="r" depth="2" NCoef="0" IVar="-1" Cut="0.0000000000000000e+00" cType="1" res="7.6256762258708477e-04" rms="1.2895041704177856e-01" purity="1.0000000000000000e+00" nType="-99"/>
        </Node>
      </Node>
    </BinaryTree>
    <BinaryTree type="DecisionTree" boostWeight="1.0000000000000000e+00" itree="23">
      <Node pos="s" depth="0" NCoef="0" IVar="1" Cut="2.2574400901794434e-01" cType="0" res="1.8462036969140172e-03" rms="1.3234685361385345e-01" purity="1.0000000000000000e+00" nType="0">
        <Node pos="l" depth="1" NCoef="0" IVar="-1" Cut="0.0000000000000000e+00" cType="1" res="1.1073765344917774e-03" rms="1.3420778512954712e-01" purity="1.0000000000000000e+00" nType="-99"/>
        <Node pos="r" depth="1" NCoef="0" IVar="6" Cut="3.1365759670734406e-02" cType="0" res="-8.1751924008131027e-03" rms="1.2699221074581146e-01" purity="1.0000000000000000e+00" nType="0">
          <Node pos="l" depth="2" NCoef="0" IVar="-1" Cut="0.0000000000000000e+00" cType="1" res="-2.9078046791255474e-03" rms="1.2643453478813171e-01" purity="1.0000000000000000e+00" nType="-99"/>
          <Node pos="r" depth="2" NCoef="0" IVar="-1" Cut="0.0000000000000000e+00" cType="1" res="3.2676365226507187e-02" rms="1.3222074508666992e-01" purity="1.0000000000000000e+00" nType="-99"/>
        </Node>
      </Node>
    </BinaryTree>
    <BinaryTree type="DecisionTree" boostWeight="1.0000000000000000e+00" itree="24">
      <Node pos="s" depth="0" NCoef="0" IVar="3" Cut="3.3074626922607422e+01" cType="0" res="1.8572368426248431e-03" rms="1.3258585333824158e-01" purity="1.0000000000000000e+00" nType="0">
        <Node pos="l" depth="1" NCoef="0" IVar="-1" Cut="0.0000000000000000e+00" cType="1" res="-2.0296499133110046e-03" rms="1.2738436460494995e-01" purity="1.0000000000000000e+00" nType="-99"/>
        <Node pos="r" depth="1" NCoef="0" IVar="5" Cut="2.0140253067016602e+01" cType="0" res="6.8897688761353493e-03" rms="1.3552096486091614e-01" purity="1.0000000000000000e+00" nType="0">
          <Node pos="l" depth="2" NCoef="0" IVar="-1" Cut="0.0000000000000000e+00" cType="1" res="3.3279180061072111e-03" rms="1.4013065397739410e-01" purity="1.0000000000000000e+00" nType="-99"/>
          <Node pos="r" depth="2" NCoef="0" IVar="-1" Cut="0.0000000000000000e+00" cType="1" res="-1.6242611454799771e-03" rms="1.2547913193702698e-01" purity="1.0000000000000000e+00" nType="-99"/>
        </Node>
      </Node>
    </BinaryTree>
    <BinaryTree type="DecisionTree" boostWeight="1.0000000000000000e+00" itree="25">
      <Node pos="s" depth="0" NCoef="0" IVar="5" Cut="4.9222045898437500e+01" cType="0" res="1.8703006207942963e-03" rms="1.3260093331336975e-01" purity="1.0000000000000000e+00" nType="0">
        <Node pos="l" depth="1" NCoef="0" IVar="-1" Cut="0.0000000000000000e+00" cType="1" res="3.7694568745791912e-03" rms="1.4586474001407623e-01" purity="1.0000000000000000e+00" nType="-99"/>
        <Node pos="r" depth="1" NCoef="0" IVar="0" Cut="-1.2562304735183716e+00" cType="0" res="-1.0431500850245357e-03" rms="1.2914186716079712e-01" purity="1.0000000000000000e+00" nType="0">
          <Node pos="l" depth="2" NCoef="0" IVar="-1" Cut="0.0000000000000000e+00" cType="1" res="-1.4361180365085602e-03" rms="1.2938222289085388e-01" purity="1.0000000000000000e+00" nType="-99"/>
          <Node pos="r" depth="2" NCoef="0" IVar="-1" Cut="0.0000000000000000e+00" cType="1" res="3.2685447949916124e-03" rms="1.2675979733467102e-01" purity="1.0000000000000000e+00" nType="-99"/>
        </Node>
      </Node>
    </BinaryTree>
    <BinaryTree type="DecisionTree" boostWeight="1.0000000000000000e+00" itree="26">
      <Node pos="s" depth="0" NCoef="0" IVar="1" Cut="9.6436090767383575e-02" cType="0" res="1.8472780939191580e-03" rms="1.3229626417160034e-01" purity="1.0000000000000000e+00" nType="0">
        <Node pos="l" depth="1" NCoef="0" IVar="-1" Cut="0.0000000000000000e+00" cType="1" res="3.5015746834687889e-04" rms="1.3241036236286163e-01" purity="1.0000000000000000e+00" nType="-99"/>
        <Node pos="r" depth="1" NCoef="0" IVar="2" Cut="2.7914363861083984e+01" cType="0" res="-2.5423575192689896e-02" rms="1.2683412432670593e-01" purity="1.0000000000000000e+00" nType="0">
          <Node pos="l" depth="2" NCoef="0" IVar="-1" Cut="0.0000000000000000e+00" cType="1" res="-2.9622739180922508e-02" rms="7.1972988545894623e-02" purity="1.0000000000000000e+00" nType="-99"/>
          <Node pos="r" depth="2" NCoef="0" IVar="-1" Cut="0.0000000000000000e+00" cType="1" res="-5.3208838216960430e-03" rms="1.2707908451557159e-01" purity="1.0000000000000000e+00" nType="-99"/>
        </Node>
      </Node>
    </BinaryTree>
    <BinaryTree type="DecisionTree" boostWeight="1.0000000000000000e+00" itree="27">
      <Node pos="s" depth="0" NCoef="0" IVar="3" Cut="1.6009950637817383e+01" cType="0" res="1.8321888055652380e-03" rms="1.3224795460700989e-01" purity="1.0000000000000000e+00" nType="0">
        <Node pos="l" depth="1" NCoef="0" IVar="-1" Cut="0.0000000000000000e+00" cType="1" res="-3.5077231586910784e-04" rms="1.3182382285594940e-01" purity="1.0000000000000000e+00" nType="-99"/>
        <Node pos="r" depth="1" NCoef="0" IVar="5" Cut="2.5871654510498047e+01" cType="0" res="3.3334150910377502e-02" rms="1.4016537368297577e-01" purity="1.0000000000000000e+00" nType="0">
          <Node pos="l" depth="2" NCoef="0" IVar="-1" Cut="0.0000000000000000e+00" cType="1" res="2.6991439983248711e-02" rms="1.4594754576683044e-01" purity="1.0000000000000000e+00" nType="-99"/>
          <Node pos="r" depth="2" NCoef="0" IVar="-1" Cut="0.0000000000000000e+00" cType="1" res="2.7120232698507607e-04" rms="1.2549312412738800e-01" purity="1.0000000000000000e+00" nType="-99"/>
        </Node>
      </Node>
    </BinaryTree>
    <BinaryTree type="DecisionTree" boostWeight="1.0000000000000000e+00" itree="28">
      <Node pos="s" depth="0" NCoef="0" IVar="3" Cut="4.7004974365234375e+01" cType="0" res="1.8573849229142070e-03" rms="1.3238160312175751e-01" purity="1.0000000000000000e+00" nType="0">
        <Node pos="l" depth="1" NCoef="0" IVar="-1" Cut="0.0000000000000000e+00" cType="1" res="-5.5221542716026306e-03" rms="1.2586197257041931e-01" purity="1.0000000000000000e+00" nType="-99"/>
        <Node pos="r" depth="1" NCoef="0" IVar="6" Cut="6.2626115977764130e-02" cType="0" res="3.2714740373194218e-03" rms="1.3267146050930023e-01" purity="1.0000000000000000e+00" nType="0">
          <Node pos="l" depth="2" NCoef="0" IVar="-1" Cut="0.0000000000000000e+00" cType="1" res="4.2191630200250074e-05" rms="1.3184580206871033e-01" purity="1.0000000000000000e+00" nType="-99"/>
          <Node pos="r" depth="2" NCoef="0" IVar="-1" Cut="0.0000000000000000e+00" cType="1" res="1.0863031260669231e-02" rms="1.4739410579204559e-01" purity="1.0000000000000000e+00" nType="-99"/>
        </Node>
      </Node>
    </BinaryTree>
    <BinaryTree type="DecisionTree" boostWeight="1.0000000000000000e+00" itree="29">
      <Node pos="s" depth="0" NCoef="0" IVar="1" Cut="3.6428821086883545e-01" cType="0" res="1.8639100017026067e-03" rms="1.3243220746517181e-01" purity="1.0000000000000000e+00" nType="0">
        <Node pos="l" depth="1" NCoef="0" IVar="-1" Cut="0.0000000000000000e+00" cType="1" res="1.7384662060067058e-03" rms="1.3732303678989410e-01" purity="1.0000000000000000e+00" nType="-99"/>
        <Node pos="r" depth="1" NCoef="0" IVar="3" Cut="1.2179104804992676e+01" cType="0" res="-2.3714879062026739e-03" rms="1.2908117473125458e-01" purity="1.0000000000000000e+00" nType="0">
          <Node pos="l" depth="2" NCoef="0" IVar="-1" Cut="0.0000000000000000e+00" cType="1" res="-1.1960699921473861e-03" rms="1.2893946468830109e-01" purity="1.0000000000000000e+00" nType="-99"/>
          <Node pos="r" depth="2" NCoef="0" IVar="-1" Cut="0.0000000000000000e+00" cType="1" res="4.1559495031833649e-02" rms="1.2801983952522278e-01" purity="1.0000000000000000e+00" nType="-99"/>
        </Node>
      </Node>
    </BinaryTree>
    <BinaryTree type="DecisionTree" boostWeight="1.0000000000000000e+00" itree="30">
      <Node pos="s" depth="0" NCoef="0" IVar="4" Cut="1.0587614774703979e+00" cType="0" res="1.8575064605101943e-03" rms="1.3227662444114685e-01" purity="1.0000000000000000e+00" nType="0">
        <Node pos="l" depth="1" NCoef="0" IVar="-1" Cut="0.0000000000000000e+00" cType="1" res="3.3988142386078835e-03" rms="1.2931092083454132e-01" purity="1.0000000000000000e+00" nType="-99"/>
        <Node pos="r" depth="1" NCoef="0" IVar="4" Cut="6.2212683260440826e-02" cType="0" res="-4.2001978727057576e-04" rms="1.3272933661937714e-01" purity="1.0000000000000000e+00" nType="0">
          <Node pos="l" depth="2" NCoef="0" IVar="-1" Cut="0.0000000000000000e+00" cType="1" res="-2.1511325612664223e-03" rms="1.2882837653160095e-01" purity="1.0000000000000000e+00" nType="-99"/>
          <Node pos="r" depth="2" NCoef="0" IVar="-1" Cut="0.0000000000000000e+00" cType="1" res="1.3540339423343539e-03" rms="1.3666340708732605e-01" purity="1.0000000000000000e+00" nType="-99"/>
        </Node>
      </Node>
    </BinaryTree>
    <BinaryTree type="DecisionTree" boostWeight="1.0000000000000000e+00" itree="31">
      <Node pos="s" depth="0" NCoef="0" IVar="1" Cut="9.6436090767383575e-02" cType="0" res="1.8628815887495875e-03" rms="1.3269108533859253e-01" purity="1.0000000000000000e+00" nType="0">
        <Node pos="l" depth="1" NCoef="0" IVar="-1" Cut="0.0000000000000000e+00" cType="1" res="3.0513759702444077e-04" rms="1.3287496566772461e-01" purity="1.0000000000000000e+00" nType="-99"/>
        <Node pos="r" depth="1" NCoef="0" IVar="2" Cut="2.7914363861083984e+01" cType="0" res="-2.1548938006162643e-02" rms="1.2650598585605621e-01" purity="1.0000000000000000e+00" nType="0">
          <Node pos="l" depth="2" NCoef="0" IVar="-1" Cut="0.0000000000000000e+00" cType="1" res="-2.3453386500477791e-02" rms="8.0693341791629791e-02" purity="1.0000000000000000e+00" nType="-99"/>
          <Node pos="r" depth="2" NCoef="0" IVar="-1" Cut="0.0000000000000000e+00" cType="1" res="-4.5557762496173382e-03" rms="1.2722982466220856e-01" purity="1.0000000000000000e+00" nType="-99"/>
        </Node>
      </Node>
    </BinaryTree>
    <BinaryTree type="DecisionTree" boostWeight="1.0000000000000000e+00" itree="32">
      <Node pos="s" depth="0" NCoef="0" IVar="5" Cut="2.3085911273956299e+00" cType="0" res="1.8306652782484889e-03" rms="1.3255612552165985e-01" purity="1.0000000000000000e+00" nType="0">
        <Node pos="l" depth="1" NCoef="0" IVar="-1" Cut="0.0000000000000000e+00" cType="1" res="1.1128349433420226e-04" rms="1.3246162235736847e-01" purity="1.0000000000000000e+00" nType="-99"/>
        <Node pos="r" depth="1" NCoef="0" IVar="6" Cut="1.4577029943466187e+00" cType="0" res="-5.9201378375291824e-02" rms="1.3207459449768066e-01" purity="1.0000000000000000e+00" nType="0">
          <Node pos="l" depth="2" NCoef="0" IVar="-1" Cut="0.0000000000000000e+00" cType="1" res="7.0495284162461758e-03" rms="1.3619673252105713e-01" purity="1.0000000000000000e+00" nType="-99"/>
          <Node pos="r" depth="2" NCoef="0" IVar="-1" Cut="0.0000000000000000e+00" cType="1" res="-3.2487656921148300e-02" rms="8.1159688532352448e-02" purity="1.0000000000000000e+00" nType="-99"/>
        </Node>
      </Node>
    </BinaryTree>
    <BinaryTree type="DecisionTree" boostWeight="1.0000000000000000e+00" itree="33">
      <Node pos="s" depth="0" NCoef="0" IVar="6" Cut="1.5784548521041870e+00" cType="0" res="1.8131912220269442e-03" rms="1.3252295553684235e-01" purity="1.0000000000000000e+00" nType="0">
        <Node pos="l" depth="1" NCoef="0" IVar="-1" Cut="0.0000000000000000e+00" cType="1" res="-1.5819615218788385e-03" rms="1.2044250965118408e-01" purity="1.0000000000000000e+00" nType="-99"/>
        <Node pos="r" depth="1" NCoef="0" IVar="5" Cut="1.4036954879760742e+01" cType="0" res="5.2588018588721752e-03" rms="1.3761712610721588e-01" purity="1.0000000000000000e+00" nType="0">
          <Node pos="l" depth="2" NCoef="0" IVar="-1" Cut="0.0000000000000000e+00" cType="1" res="1.9692815840244293e-03" rms="1.3962480425834656e-01" purity="1.0000000000000000e+00" nType="-99"/>
          <Node pos="r" depth="2" NCoef="0" IVar="-1" Cut="0.0000000000000000e+00" cType="1" res="-4.3853139504790306e-03" rms="1.2331681698560715e-01" purity="1.0000000000000000e+00" nType="-99"/>
        </Node>
      </Node>
    </BinaryTree>
    <BinaryTree type="DecisionTree" boostWeight="1.0000000000000000e+00" itree="34">
      <Node pos="s" depth="0" NCoef="0" IVar="1" Cut="6.5523105859756470e-01" cType="0" res="1.8166603986173868e-03" rms="1.3247531652450562e-01" purity="1.0000000000000000e+00" nType="0">
        <Node pos="l" depth="1" NCoef="0" IVar="-1" Cut="0.0000000000000000e+00" cType="1" res="1.0979607701301575e-02" rms="1.4874973893165588e-01" purity="1.0000000000000000e+00" nType="-99"/>
        <Node pos="r" depth="1" NCoef="0" IVar="3" Cut="2.6109453201293945e+01" cType="0" res="9.1400457313284278e-04" rms="1.3179163634777069e-01" purity="1.0000000000000000e+00" nType="0">
          <Node pos="l" depth="2" NCoef="0" IVar="-1" Cut="0.0000000000000000e+00" cType="1" res="-1.0633362689986825e-03" rms="1.2905581295490265e-01" purity="1.0000000000000000e+00" nType="-99"/>
          <Node pos="r" depth="2" NCoef="0" IVar="-1" Cut="0.0000000000000000e+00" cType="1" res="1.6987819690257311e-03" rms="1.3769529759883881e-01" purity="1.0000000000000000e+00" nType="-99"/>
        </Node>
      </Node>
    </BinaryTree>
    <BinaryTree type="DecisionTree" boostWeight="1.0000000000000000e+00" itree="35">
      <Node pos="s" depth="0" NCoef="0" IVar="3" Cut="5.2228855133056641e+01" cType="0" res="1.8715196056291461e-03" rms="1.3280336558818817e-01" purity="1.0000000000000000e+00" nType="0">
        <Node pos="l" depth="1" NCoef="0" IVar="-1" Cut="0.0000000000000000e+00" cType="1" res="-7.1723321452736855e-03" rms="1.2678460776805878e-01" purity="1.0000000000000000e+00" nType="-99"/>
        <Node pos="r" depth="1" NCoef="0" IVar="6" Cut="2.7036058902740479e+00" cType="0" res="2.6232146192342043e-03" rms="1.3288411498069763e-01" purity="1.0000000000000000e+00" nType="0">
          <Node pos="l" depth="2" NCoef="0" IVar="-1" Cut="0.0000000000000000e+00" cType="1" res="-3.3811116591095924e-03" rms="1.1522196978330612e-01" purity="1.0000000000000000e+00" nType="-99"/>
          <Node pos="r" depth="2" NCoef="0" IVar="-1" Cut="0.0000000000000000e+00" cType="1" res="5.9882237110286951e-04" rms="1.3421301543712616e-01" purity="1.0000000000000000e+00" nType="-99"/>
        </Node>
      </Node>
    </BinaryTree>
    <BinaryTree type="DecisionTree" boostWeight="1.0000000000000000e+00" itree="36">
      <Node pos="s" depth="0" NCoef="0" IVar="1" Cut="1.5647190809249878e-01" cType="0" res="1.8482848536223173e-03" rms="1.3276302814483643e-01" purity="1.0000000000000000e+00" nType="0">
        <Node pos="l" depth="1" NCoef="0" IVar="-1" Cut="0.0000000000000000e+00" cType="1" res="5.3247890900820494e-04" rms="1.3375999033451080e-01" purity="1.0000000000000000e+00" nType="-99"/>
        <Node pos="r" depth="1" NCoef="0" IVar="4" Cut="2.6726124286651611e+00" cType="0" res="-9.9615231156349182e-03" rms="1.2524420022964478e-01" purity="1.0000000000000000e+00" nType="0">
          <Node pos="l" depth="2" NCoef="0" IVar="-1" Cut="0.0000000000000000e+00" cType="1" res="1.4193776994943619e-02" rms="1.1468091607093811e-01" purity="1.0000000000000000e+00" nType="-99"/>
          <Node pos="r" depth="2" NCoef="0" IVar="-1" Cut="0.0000000000000000e+00" cType="1" res="-3.5592289641499519e-03" rms="1.2497200816869736e-01" purity="1.0000000000000000e+00" nType="-99"/>
        </Node>
      </Node>
    </BinaryTree>
    <BinaryTree type="DecisionTree" boostWeight="1.0000000000000000e+00" itree="37">
      <Node pos="s" depth="0" NCoef="0" IVar="2" Cut="5.5964765548706055e+00" cType="0" res="1.8007835606113076e-03" rms="1.3271272182464600e-01" purity="1.0000000000000000e+00" nType="0">
        <Node pos="l" depth="1" NCoef="0" IVar="-1" Cut="0.0000000000000000e+00" cType="1" res="4.8921574489213526e-05" rms="1.3264124095439911e-01" purity="1.0000000000000000e+00" nType="-99"/>
        <Node pos="r" depth="1" NCoef="0" IVar="1" Cut="4.6345409750938416e-01" cType="0" res="-7.3407739400863647e-02" rms="1.3207395374774933e-01" purity="1.0000000000000000e+00" nType="0">
          <Node pos="l" depth="2" NCoef="0" IVar="-1" Cut="0.0000000000000000e+00" cType="1" res="-2.2946191951632500e-02" rms="9.1018036007881165e-02" purity="1.0000000000000000e+00" nType="-99"/>
          <Node pos="r" depth="2" NCoef="0" IVar="-1" Cut="0.0000000000000000e+00" cType="1" res="-1.6564218327403069e-02" rms="1.5743650496006012e-01" purity="1.0000000000000000e+00" nType="-99"/>
        </Node>
      </Node>
    </BinaryTree>
    <BinaryTree type="DecisionTree" boostWeight="1.0000000000000000e+00" itree="38">
      <Node pos="s" depth="0" NCoef="0" IVar="5" Cut="4.9222045898437500e+01" cType="0" res="1.8191986018791795e-03" rms="1.3270245492458344e-01" purity="1.0000000000000000e+00" nType="0">
        <Node pos="l" depth="1" NCoef="0" IVar="-1" Cut="0.0000000000000000e+00" cType="1" res="2.8003242332488298e-03" rms="1.4687891304492950e-01" purity="1.0000000000000000e+00" nType="-99"/>
        <Node pos="r" depth="1" NCoef="0" IVar="1" Cut="7.5683009624481201e-01" cType="0" res="-2.9915163759142160e-04" rms="1.2908460199832916e-01" purity="1.0000000000000000e+00" nType="0">
          <Node pos="l" depth="2" NCoef="0" IVar="-1" Cut="0.0000000000000000e+00" cType="1" res="-2.2769728675484657e-02" rms="1.3576722145080566e-01" purity="1.0000000000000000e+00" nType="-99"/>
          <Node pos="r" depth="2" NCoef="0" IVar="-1" Cut="0.0000000000000000e+00" cType="1" res="-3.9398999069817364e-04" rms="1.2893345952033997e-01" purity="1.0000000000000000e+00" nType="-99"/>
        </Node>
      </Node>
    </BinaryTree>
    <BinaryTree type="DecisionTree" boostWeight="1.0000000000000000e+00" itree="39">
      <Node pos="s" depth="0" NCoef="0" IVar="6" Cut="9.3880318105220795e-02" cType="0" res="1.8068564822897315e-03" rms="1.3267594575881958e-01" purity="1.0000000000000000e+00" nType="0">
        <Node pos="l" depth="1" NCoef="0" IVar="-1" Cut="0.0000000000000000e+00" cType="1" res="-2.8204132104292512e-04" rms="1.3130228221416473e-01" purity="1.0000000000000000e+00" nType="-99"/>
        <Node pos="r" depth="1" NCoef="0" IVar="5" Cut="4.5656074523925781e+01" cType="0" res="1.8399799242615700e-02" rms="1.5143632888793945e-01" purity="1.0000000000000000e+00" nType="0">
          <Node pos="l" depth="2" NCoef="0" IVar="-1" Cut="0.0000000000000000e+00" cType="1" res="3.8210924714803696e-02" rms="1.5414658188819885e-01" purity="1.0000000000000000e+00" nType="-99"/>
          <Node pos="r" depth="2" NCoef="0" IVar="-1" Cut="0.0000000000000000e+00" cType="1" res="-3.7620451766997576e-03" rms="1.4239306747913361e-01" purity="1.0000000000000000e+00" nType="-99"/>
        </Node>
      </Node>
    </BinaryTree>
    <BinaryTree type="DecisionTree" boostWeight="1.0000000000000000e+00" itree="40">
      <Node pos="s" depth="0" NCoef="0" IVar="5" Cut="1.4304896545410156e+02" cType="0" res="1.7759841866791248e-03" rms="1.3272875547409058e-01" purity="1.0000000000000000e+00" nType="0">
        <Node pos="l" depth="1" NCoef="0" IVar="-1" Cut="0.0000000000000000e+00" cType="1" res="-1.3046259991824627e-02" rms="1.4988087117671967e-01" purity="1.0000000000000000e+00" nType="-99"/>
        <Node pos="r" depth="1" NCoef="0" IVar="3" Cut="1.2179104804992676e+01" cType="0" res="2.2437949664890766e-03" rms="1.3243776559829712e-01" purity="1.0000000000000000e+00" nType="0">
          <Node pos="l" depth="2" NCoef="0" IVar="-1" Cut="0.0000000000000000e+00" cType="1" res="2.3753455025143921e-05" rms="1.3226011395454407e-01" purity="1.0000000000000000e+00" nType="-99"/>
          <Node pos="r" depth="2" NCoef="0" IVar="-1" Cut="0.0000000000000000e+00" cType="1" res="3.5364441573619843e-02" rms="1.4738596975803375e-01" purity="1.0000000000000000e+00" nType="-99"/>
        </Node>
      </Node>
    </BinaryTree>
    <BinaryTree type="DecisionTree" boostWeight="1.0000000000000000e+00" itree="41">
      <Node pos="s" depth="0" NCoef="0" IVar="5" Cut="2.3085911273956299e+00" cType="0" res="1.7489079618826509e-03" rms="1.3267795741558075e-01" purity="1.0000000000000000e+00" nType="0">
        <Node pos="l" depth="1" NCoef="0" IVar="-1" Cut="0.0000000000000000e+00" cType="1" res="6.7796623625326902e-05" rms="1.3263414800167084e-01" purity="1.0000000000000000e+00" nType="-99"/>
        <Node pos="r" depth="1" NCoef="0" IVar="6" Cut="1.4274258613586426e+00" cType="0" res="-4.8287887126207352e-02" rms="1.2947505712509155e-01" purity="1.0000000000000000e+00" nType="0">
          <Node pos="l" depth="2" NCoef="0" IVar="-1" Cut="0.0000000000000000e+00" cType="1" res="4.6529653482139111e-03" rms="1.3347280025482178e-01" purity="1.0000000000000000e+00" nType="-99"/>
          <Node pos="r" depth="2" NCoef="0" IVar="-1" Cut="0.0000000000000000e+00" cType="1" res="-2.6025848463177681e-02" rms="9.3035563826560974e-02" purity="1.0000000000000000e+00" nType="-99"/>
        </Node>
      </Node>
    </BinaryTree>
    <BinaryTree type="DecisionTree" boostWeight="1.0000000000000000e+00" itree="42">
      <Node pos="s" depth="0" NCoef="0" IVar="0" Cut="-1.1568293571472168e+00" cType="0" res="1.7386582912877202e-03" rms="1.3251188397407532e-01" purity="1.0000000000000000e+00" nType="0">
        <Node pos="l" depth="1" NCoef="0" IVar="-1" Cut="0.0000000000000000e+00" cType="1" res="-5.5976840667426586e-04" rms="1.3288828730583191e-01" purity="1.0000000000000000e+00" nType="-99"/>
        <Node pos="r" depth="1" NCoef="0" IVar="0" Cut="-1.6309388875961304e+00" cType="0" res="1.0884833522140980e-02" rms="1.3025552034378052e-01" purity="1.0000000000000000e+00" nType="0">
          <Node pos="l" depth="2" NCoef="0" IVar="-1" Cut="0.0000000000000000e+00" cType="1" res="6.0950699262320995e-03" rms="1.3138227164745331e-01" purity="1.0000000000000000e+00" nType="-99"/>
          <Node pos="r" depth="2" NCoef="0" IVar="-1" Cut="0.0000000000000000e+00" cType="1" res="-9.7230263054370880e-04" rms="1.2780420482158661e-01" purity="1.0000000000000000e+00" nType="-99"/>
        </Node>
      </Node>
    </BinaryTree>
    <BinaryTree type="DecisionTree" boostWeight="1.0000000000000000e+00" itree="43">
      <Node pos="s" depth="0" NCoef="0" IVar="3" Cut="3.6208953857421875e+01" cType="0" res="1.7442515818402171e-03" rms="1.3254512846469879e-01" purity="1.0000000000000000e+00" nType="0">
        <Node pos="l" depth="1" NCoef="0" IVar="-1" Cut="0.0000000000000000e+00" cType="1" res="-1.7514715436846018e-03" rms="1.2577527761459351e-01" purity="1.0000000000000000e+00" nType="-99"/>
        <Node pos="r" depth="1" NCoef="0" IVar="5" Cut="2.9907629013061523e+01" cType="0" res="4.3408526107668877e-03" rms="1.3493467867374420e-01" purity="1.0000000000000000e+00" nType="0">
          <Node pos="l" depth="2" NCoef="0" IVar="-1" Cut="0.0000000000000000e+00" cType="1" res="2.8083361685276031e-03" rms="1.4516794681549072e-01" purity="1.0000000000000000e+00" nType="-99"/>
          <Node pos="r" depth="2" NCoef="0" IVar="-1" Cut="0.0000000000000000e+00" cType="1" res="-4.1889355634339154e-04" rms="1.2588801980018616e-01" purity="1.0000000000000000e+00" nType="-99"/>
        </Node>
      </Node>
    </BinaryTree>
    <BinaryTree type="DecisionTree" boostWeight="1.0000000000000000e+00" itree="44">
      <Node pos="s" depth="0" NCoef="0" IVar="1" Cut="9.6436090767383575e-02" cType="0" res="1.6989867435768247e-03" rms="1.3253214955329895e-01" purity="1.0000000000000000e+00" nType="0">
        <Node pos="l" depth="1" NCoef="0" IVar="-1" Cut="0.0000000000000000e+00" cType="1" res="2.3482443066313863e-04" rms="1.3275504112243652e-01" purity="1.0000000000000000e+00" nType="-99"/>
        <Node pos="r" depth="1" NCoef="0" IVar="6" Cut="2.6102237701416016e+00" cType="0" res="-1.6872346401214600e-02" rms="1.2632313370704651e-01" purity="1.0000000000000000e+00" nType="0">
          <Node pos="l" depth="2" NCoef="0" IVar="-1" Cut="0.0000000000000000e+00" cType="1" res="8.8370284065604210e-03" rms="1.2793281674385071e-01" purity="1.0000000000000000e+00" nType="-99"/>
          <Node pos="r" depth="2" NCoef="0" IVar="-1" Cut="0.0000000000000000e+00" cType="1" res="-6.6541163250803947e-03" rms="1.2436085939407349e-01" purity="1.0000000000000000e+00" nType="-99"/>
        </Node>
      </Node>
    </BinaryTree>
    <BinaryTree type="DecisionTree" boostWeight="1.0000000000000000e+00" itree="45">
      <Node pos="s" depth="0" NCoef="0" IVar="3" Cut="6.2328357696533203e+01" cType="0" res="1.6628176672384143e-03" rms="1.3225208222866058e-01" purity="1.0000000000000000e+00" nType="0">
        <Node pos="l" depth="1" NCoef="0" IVar="-1" Cut="0.0000000000000000e+00" cType="1" res="-1.7686197534203529e-02" rms="1.1014731973409653e-01" purity="1.0000000000000000e+00" nType="-99"/>
        <Node pos="r" depth="1" NCoef="0" IVar="1" Cut="6.5523105859756470e-01" cType="0" res="1.8837307579815388e-03" rms="1.3225512206554413e-01" purity="1.0000000000000000e+00" nType="0">
          <Node pos="l" depth="2" NCoef="0" IVar="-1" Cut="0.0000000000000000e+00" cType="1" res="8.7467925623059273e-03" rms="1.4813314378261566e-01" purity="1.0000000000000000e+00" nType="-99"/>
          <Node pos="r" depth="2" NCoef="0" IVar="-1" Cut="0.0000000000000000e+00" cType="1" res="-1.6563631652388722e-04" rms="1.3162174820899963e-01" purity="1.0000000000000000e+00" nType="-99"/>
        </Node>
      </Node>
    </BinaryTree>
    <BinaryTree type="DecisionTree" boostWeight="1.0000000000000000e+00" itree="46">
      <Node pos="s" depth="0" NCoef="0" IVar="4" Cut="1.0587614774703979e+00" cType="0" res="1.6524109523743391e-03" rms="1.3221554458141327e-01" purity="1.0000000000000000e+00" nType="0">
        <Node pos="l" depth="1" NCoef="0" IVar="-1" Cut="0.0000000000000000e+00" cType="1" res="2.5851004756987095e-03" rms="1.2933094799518585e-01" purity="1.0000000000000000e+00" nType="-99"/>
        <Node pos="r" depth="1" NCoef="0" IVar="3" Cut="6.3024875640869141e+01" cType="0" res="-5.0538881623651832e-05" rms="1.3270543515682220e-01" purity="1.0000000000000000e+00" nType="0">
          <Node pos="l" depth="2" NCoef="0" IVar="-1" Cut="0.0000000000000000e+00" cType="1" res="-2.6702627539634705e-02" rms="7.1098566055297852e-02" purity="1.0000000000000000e+00" nType="-99"/>
          <Node pos="r" depth="2" NCoef="0" IVar="-1" Cut="0.0000000000000000e+00" cType="1" res="-4.1229437920264900e-04" rms="1.3270208239555359e-01" purity="1.0000000000000000e+00" nType="-99"/>
        </Node>
      </Node>
    </BinaryTree>
    <BinaryTree type="DecisionTree" boostWeight="1.0000000000000000e+00" itree="47">
      <Node pos="s" depth="0" NCoef="0" IVar="3" Cut="2.1233831405639648e+01" cType="0" res="1.6407294897362590e-03" rms="1.3234287500381470e-01" purity="1.0000000000000000e+00" nType="0">
        <Node pos="l" depth="1" NCoef="0" IVar="-1" Cut="0.0000000000000000e+00" cType="1" res="-3.5167107125744224e-04" rms="1.3098342716693878e-01" purity="1.0000000000000000e+00" nType="-99"/>
        <Node pos="r" depth="1" NCoef="0" IVar="2" Cut="1.3841234207153320e+01" cType="0" res="1.0753314010798931e-02" rms="1.4005851745605469e-01" purity="1.0000000000000000e+00" nType="0">
          <Node pos="l" depth="2" NCoef="0" IVar="-1" Cut="0.0000000000000000e+00" cType="1" res="1.2821981683373451e-02" rms="1.2859758734703064e-01" purity="1.0000000000000000e+00" nType="-99"/>
          <Node pos="r" depth="2" NCoef="0" IVar="-1" Cut="0.0000000000000000e+00" cType="1" res="3.2872275914996862e-04" rms="1.4139340817928314e-01" purity="1.0000000000000000e+00" nType="-99"/>
        </Node>
      </Node>
    </BinaryTree>
    <BinaryTree type="DecisionTree" boostWeight="1.0000000000000000e+00" itree="48">
      <Node pos="s" depth="0" NCoef="0" IVar="2" Cut="6.1010098457336426e+00" cType="0" res="1.6167847206816077e-03" rms="1.3221192359924316e-01" purity="1.0000000000000000e+00" nType="0">
        <Node pos="l" depth="1" NCoef="0" IVar="-1" Cut="0.0000000000000000e+00" cType="1" res="5.7527027820469812e-05" rms="1.3214632868766785e-01" purity="1.0000000000000000e+00" nType="-99"/>
        <Node pos="r" depth="1" NCoef="0" IVar="3" Cut="1.4044775962829590e+01" cType="0" res="-5.3550019860267639e-02" rms="1.3582186400890350e-01" purity="1.0000000000000000e+00" nType="0">
          <Node pos="l" depth="2" NCoef="0" IVar="-1" Cut="0.0000000000000000e+00" cType="1" res="-2.8596643358469009e-02" rms="5.4462011903524399e-02" purity="1.0000000000000000e+00" nType="-99"/>
          <Node pos="r" depth="2" NCoef="0" IVar="-1" Cut="0.0000000000000000e+00" cType="1" res="1.2307221069931984e-02" rms="1.5119647979736328e-01" purity="1.0000000000000000e+00" nType="-99"/>
        </Node>
      </Node>
    </BinaryTree>
    <BinaryTree type="DecisionTree" boostWeight="1.0000000000000000e+00" itree="49">
      <Node pos="s" depth="0" NCoef="0" IVar="3" Cut="1.6009950637817383e+01" cType="0" res="1.6093336744233966e-03" rms="1.3220998644828796e-01" purity="1.0000000000000000e+00" nType="0">
        <Node pos="l" depth="1" NCoef="0" IVar="-1" Cut="0.0000000000000000e+00" cType="1" res="-1.9014716963283718e-04" rms="1.3182200491428375e-01" purity="1.0000000000000000e+00" nType="-99"/>
        <Node pos="r" depth="1" NCoef="0" IVar="0" Cut="-2.3701860010623932e-01" cType="0" res="2.0891468971967697e-02" rms="1.4144568145275116e-01" purity="1.0000000000000000e+00" nType="0">
          <Node pos="l" depth="2" NCoef="0" IVar="-1" Cut="0.0000000000000000e+00" cType="1" res="1.6703126952052116e-02" rms="1.3927568495273590e-01" purity="1.0000000000000000e+00" nType="-99"/>
          <Node pos="r" depth="2" NCoef="0" IVar="-1" Cut="0.0000000000000000e+00" cType="1" res="-3.9839139208197594e-03" rms="1.3710615038871765e-01" purity="1.0000000000000000e+00" nType="-99"/>
        </Node>
      </Node>
    </BinaryTree>
    <BinaryTree type="DecisionTree" boostWeight="1.0000000000000000e+00" itree="50">
      <Node pos="s" depth="0" NCoef="0" IVar="1" Cut="1.5647190809249878e-01" cType="0" res="1.5846568858250976e-03" rms="1.3220848143100739e-01" purity="1.0000000000000000e+00" nType="0">
        <Node pos="l" depth="1" NCoef="0" IVar="-1" Cut="0.0000000000000000e+00" cType="1" res="3.9227525121532381e-04" rms="1.3325013220310211e-01" purity="1.0000000000000000e+00" nType="-99"/>
        <Node pos="r" depth="1" NCoef="0" IVar="1" Cut="1.4890307188034058e-01" cType="0" res="-7.9387268051505089e-03" rms="1.2459079176187515e-01" purity="1.0000000000000000e+00" nType="0">
          <Node pos="l" depth="2" NCoef="0" IVar="-1" Cut="0.0000000000000000e+00" cType="1" res="-1.0101349093019962e-02" rms="1.2009059637784958e-01" purity="1.0000000000000000e+00" nType="-99"/>
          <Node pos="r" depth="2" NCoef="0" IVar="-1" Cut="0.0000000000000000e+00" cType="1" res="-1.4179600402712822e-03" rms="1.2456471472978592e-01" purity="1.0000000000000000e+00" nType="-99"/>
        </Node>
      </Node>
    </BinaryTree>
    <BinaryTree type="DecisionTree" boostWeight="1.0000000000000000e+00" itree="51">
      <Node pos="s" depth="0" NCoef="0" IVar="5" Cut="1.4304896545410156e+02" cType="0" res="1.5654012095183134e-03" rms="1.3214349746704102e-01" purity="1.0000000000000000e+00" nType="0">
        <Node pos="l" depth="1" NCoef="0" IVar="-1" Cut="0.0000000000000000e+00" cType="1" res="-1.0430785827338696e-02" rms="1.4871370792388916e-01" purity="1.0000000000000000e+00" nType="-99"/>
        <Node pos="r" depth="1" NCoef="0" IVar="1" Cut="1.2414492666721344e-01" cType="0" res="1.9577571656554937e-03" rms="1.3188064098358154e-01" purity="1.0000000000000000e+00" nType="0">
          <Node pos="l" depth="2" NCoef="0" IVar="-1" Cut="0.0000000000000000e+00" cType="1" res="3.8546658470295370e-04" rms="1.3266904652118683e-01" purity="1.0000000000000000e+00" nType="-99"/>
          <Node pos="r" depth="2" NCoef="0" IVar="-1" Cut="0.0000000000000000e+00" cType="1" res="-2.6287098880857229e-03" rms="1.2203378975391388e-01" purity="1.0000000000000000e+00" nType="-99"/>
        </Node>
      </Node>
    </BinaryTree>
    <BinaryTree type="DecisionTree" boostWeight="1.0000000000000000e+00" itree="52">
      <Node pos="s" depth="0" NCoef="0" IVar="6" Cut="3.0786564350128174e+00" cType="0" res="1.5305157285183668e-03" rms="1.3196161389350891e-01" purity="1.0000000000000000e+00" nType="0">
        <Node pos="l" depth="1" NCoef="0" IVar="-1" Cut="0.0000000000000000e+00" cType="1" res="-6.0378154739737511e-03" rms="9.9438413977622986e-02" purity="1.0000000000000000e+00" nType="-99"/>
        <Node pos="r" depth="1" NCoef="0" IVar="3" Cut="4.8049751281738281e+01" cType="0" res="1.9622747786343098e-03" rms="1.3234037160873413e-01" purity="1.0000000000000000e+00" nType="0">
          <Node pos="l" depth="2" NCoef="0" IVar="-1" Cut="0.0000000000000000e+00" cType="1" res="-3.9752237498760223e-03" rms="1.2665994465351105e-01" purity="1.0000000000000000e+00" nType="-99"/>
          <Node pos="r" depth="2" NCoef="0" IVar="-1" Cut="0.0000000000000000e+00" cType="1" res="3.4070562105625868e-04" rms="1.3258722424507141e-01" purity="1.0000000000000000e+00" nType="-99"/>
        </Node>
      </Node>
    </BinaryTree>
    <BinaryTree type="DecisionTree" boostWeight="1.0000000000000000e+00" itree="53">
      <Node pos="s" depth="0" NCoef="0" IVar="2" Cut="6.1010098457336426e+00" cType="0" res="1.5334786148741841e-03" rms="1.3190577924251556e-01" purity="1.0000000000000000e+00" nType="0">
        <Node pos="l" depth="1" NCoef="0" IVar="-1" Cut="0.0000000000000000e+00" cType="1" res="4.7712412197142839e-05" rms="1.3186429440975189e-01" purity="1.0000000000000000e+00" nType="-99"/>
        <Node pos="r" depth="1" NCoef="0" IVar="6" Cut="6.8860447406768799e-01" cType="0" res="-5.1396444439888000e-02" rms="1.3086165487766266e-01" purity="1.0000000000000000e+00" nType="0">
          <Node pos="l" depth="2" NCoef="0" IVar="-1" Cut="0.0000000000000000e+00" cType="1" res="4.9489235971122980e-04" rms="1.2979869544506073e-01" purity="1.0000000000000000e+00" nType="-99"/>
          <Node pos="r" depth="2" NCoef="0" IVar="-1" Cut="0.0000000000000000e+00" cType="1" res="-3.1032154336571693e-02" rms="1.0411380976438522e-01" purity="1.0000000000000000e+00" nType="-99"/>
        </Node>
      </Node>
    </BinaryTree>
    <BinaryTree type="DecisionTree" boostWeight="1.0000000000000000e+00" itree="54">
      <Node pos="s" depth="0" NCoef="0" IVar="5" Cut="2.3085911273956299e+00" cType="0" res="1.5288656577467918e-03" rms="1.3186523318290710e-01" purity="1.0000000000000000e+00" nType="0">
        <Node pos="l" depth="1" NCoef="0" IVar="-1" Cut="0.0000000000000000e+00" cType="1" res="6.7033754021394998e-05" rms="1.3185144960880280e-01" purity="1.0000000000000000e+00" nType="-99"/>
        <Node pos="r" depth="1" NCoef="0" IVar="5" Cut="1.7568764686584473e+00" cType="0" res="-4.0070563554763794e-02" rms="1.2716880440711975e-01" purity="1.0000000000000000e+00" nType="0">
          <Node pos="l" depth="2" NCoef="0" IVar="-1" Cut="0.0000000000000000e+00" cType="1" res="-2.3538867011666298e-02" rms="1.1016141623258591e-01" purity="1.0000000000000000e+00" nType="-99"/>
          <Node pos="r" depth="2" NCoef="0" IVar="-1" Cut="0.0000000000000000e+00" cType="1" res="3.5439175553619862e-03" rms="1.2072778493165970e-01" purity="1.0000000000000000e+00" nType="-99"/>
        </Node>
      </Node>
    </BinaryTree>
    <BinaryTree type="DecisionTree" boostWeight="1.0000000000000000e+00" itree="55">
      <Node pos="s" depth="0" NCoef="0" IVar="6" Cut="1.3596754074096680e+00" cType="0" res="1.5238227788358927e-03" rms="1.3180860877037048e-01" purity="1.0000000000000000e+00" nType="0">
        <Node pos="l" depth="1" NCoef="0" IVar="-1" Cut="0.0000000000000000e+00" cType="1" res="-8.6069485405460000e-04" rms="1.1998403817415237e-01" purity="1.0000000000000000e+00" nType="-99"/>
        <Node pos="r" depth="1" NCoef="0" IVar="5" Cut="1.4036954879760742e+01" cType="0" res="4.1415332816541195e-03" rms="1.3831473886966705e-01" purity="1.0000000000000000e+00" nType="0">
          <Node pos="l" depth="2" NCoef="0" IVar="-1" Cut="0.0000000000000000e+00" cType="1" res="1.6239942051470280e-03" rms="1.4027372002601624e-01" purity="1.0000000000000000e+00" nType="-99"/>
          <Node pos="r" depth="2" NCoef="0" IVar="-1" Cut="0.0000000000000000e+00" cType="1" res="-4.4299820438027382e-03" rms="1.2381252646446228e-01" purity="1.0000000000000000e+00" nType="-99"/>
        </Node>
      </Node>
    </BinaryTree>
    <BinaryTree type="DecisionTree" boostWeight="1.0000000000000000e+00" itree="56">
      <Node pos="s" depth="0" NCoef="0" IVar="0" Cut="-1.1568293571472168e+00" cType="0" res="1.4995050150901079e-03" rms="1.3159103691577911e-01" purity="1.0000000000000000e+00" nType="0">
        <Node pos="l" depth="1" NCoef="0" IVar="-1" Cut="0.0000000000000000e+00" cType="1" res="-4.4523301767185330e-04" rms="1.3195645809173584e-01" purity="1.0000000000000000e+00" nType="-99"/>
        <Node pos="r" depth="1" NCoef="0" IVar="0" Cut="-1.9179821014404297e+00" cType="0" res="8.8593047112226486e-03" rms="1.2952403724193573e-01" purity="1.0000000000000000e+00" nType="0">
          <Node pos="l" depth="2" NCoef="0" IVar="-1" Cut="0.0000000000000000e+00" cType="1" res="3.8330047391355038e-03" rms="1.3071908056735992e-01" purity="1.0000000000000000e+00" nType="-99"/>
          <Node pos="r" depth="2" NCoef="0" IVar="-1" Cut="0.0000000000000000e+00" cType="1" res="-2.6391679421067238e-03" rms="1.2392411381006241e-01" purity="1.0000000000000000e+00" nType="-99"/>
        </Node>
      </Node>
    </BinaryTree>
    <BinaryTree type="DecisionTree" boostWeight="1.0000000000000000e+00" itree="57">
      <Node pos="s" depth="0" NCoef="0" IVar="5" Cut="1.9973605346679688e+02" cType="0" res="1.5073898248374462e-03" rms="1.3162587583065033e-01" purity="1.0000000000000000e+00" nType="0">
        <Node pos="l" depth="1" NCoef="0" IVar="-1" Cut="0.0000000000000000e+00" cType="1" res="-1.8177757039666176e-02" rms="1.5054741501808167e-01" purity="1.0000000000000000e+00" nType="-99"/>
        <Node pos="r" depth="1" NCoef="0" IVar="6" Cut="2.0327001810073853e-01" cType="0" res="1.6898850444704294e-03" rms="1.3152202963829041e-01" purity="1.0000000000000000e+00" nType="0">
          <Node pos="l" depth="2" NCoef="0" IVar="-1" Cut="0.0000000000000000e+00" cType="1" res="-2.6696358690969646e-04" rms="1.2867906689643860e-01" purity="1.0000000000000000e+00" nType="-99"/>
          <Node pos="r" depth="2" NCoef="0" IVar="-1" Cut="0.0000000000000000e+00" cType="1" res="3.3716501202434301e-03" rms="1.4958181977272034e-01" purity="1.0000000000000000e+00" nType="-99"/>
        </Node>
      </Node>
    </BinaryTree>
    <BinaryTree type="DecisionTree" boostWeight="1.0000000000000000e+00" itree="58">
      <Node pos="s" depth="0" NCoef="0" IVar="3" Cut="3.0288557052612305e+01" cType="0" res="1.4850188745185733e-03" rms="1.3160987198352814e-01" purity="1.0000000000000000e+00" nType="0">
        <Node pos="l" depth="1" NCoef="0" IVar="-1" Cut="0.0000000000000000e+00" cType="1" res="-7.3217484168708324e-04" rms="1.2700285017490387e-01" purity="1.0000000000000000e+00" nType="-99"/>
        <Node pos="r" depth="1" NCoef="0" IVar="6" Cut="6.2613800168037415e-02" cType="0" res="4.8237955197691917e-03" rms="1.3631068170070648e-01" purity="1.0000000000000000e+00" nType="0">
          <Node pos="l" depth="2" NCoef="0" IVar="-1" Cut="0.0000000000000000e+00" cType="1" res="4.8309686826542020e-04" rms="1.3553512096405029e-01" purity="1.0000000000000000e+00" nType="-99"/>
          <Node pos="r" depth="2" NCoef="0" IVar="-1" Cut="0.0000000000000000e+00" cType="1" res="1.5720279887318611e-02" rms="1.4912767708301544e-01" purity="1.0000000000000000e+00" nType="-99"/>
        </Node>
      </Node>
    </BinaryTree>
    <BinaryTree type="DecisionTree" boostWeight="1.0000000000000000e+00" itree="59">
      <Node pos="s" depth="0" NCoef="0" IVar="1" Cut="9.6436090767383575e-02" cType="0" res="1.4472297625616193e-03" rms="1.3155329227447510e-01" purity="1.0000000000000000e+00" nType="0">
        <Node pos="l" depth="1" NCoef="0" IVar="-1" Cut="0.0000000000000000e+00" cType="1" res="1.5283047105185688e-04" rms="1.3181896507740021e-01" purity="1.0000000000000000e+00" nType="-99"/>
        <Node pos="r" depth="1" NCoef="0" IVar="6" Cut="2.2842113971710205e+00" cType="0" res="-1.2727218680083752e-02" rms="1.2498560547828674e-01" purity="1.0000000000000000e+00" nType="0">
          <Node pos="l" depth="2" NCoef="0" IVar="-1" Cut="0.0000000000000000e+00" cType="1" res="6.0263974592089653e-03" rms="1.2766283750534058e-01" purity="1.0000000000000000e+00" nType="-99"/>
          <Node pos="r" depth="2" NCoef="0" IVar="-1" Cut="0.0000000000000000e+00" cType="1" res="-5.7704495266079903e-03" rms="1.2281965464353561e-01" purity="1.0000000000000000e+00" nType="-99"/>
        </Node>
      </Node>
    </BinaryTree>
    <BinaryTree type="DecisionTree" boostWeight="1.0000000000000000e+00" itree="60">
      <Node pos="s" depth="0" NCoef="0" IVar="2" Cut="6.1010098457336426e+00" cType="0" res="1.4471414033323526e-03" rms="1.3146707415580750e-01" purity="1.0000000000000000e+00" nType="0">
        <Node pos="l" depth="1" NCoef="0" IVar="-1" Cut="0.0000000000000000e+00" cType="1" res="5.9222809795755893e-05" rms="1.3145008683204651e-01" purity="1.0000000000000000e+00" nType="-99"/>
        <Node pos="r" depth="1" NCoef="0" IVar="1" Cut="3.7557294964790344e-01" cType="0" res="-4.3826878070831299e-02" rms="1.2752354145050049e-01" purity="1.0000000000000000e+00" nType="0">
          <Node pos="l" depth="2" NCoef="0" IVar="-1" Cut="0.0000000000000000e+00" cType="1" res="-1.8622010946273804e-02" rms="9.4823591411113739e-02" purity="1.0000000000000000e+00" nType="-99"/>
          <Node pos="r" depth="2" NCoef="0" IVar="-1" Cut="0.0000000000000000e+00" cType="1" res="1.4168874919414520e-01" rms="1.4580292999744415e-01" purity="1.0000000000000000e+00" nType="-99"/>
        </Node>
      </Node>
    </BinaryTree>
    <BinaryTree type="DecisionTree" boostWeight="1.0000000000000000e+00" itree="61">
      <Node pos="s" depth="0" NCoef="0" IVar="2" Cut="6.1010098457336426e+00" cType="0" res="1.3709703925997019e-03" rms="1.3171589374542236e-01" purity="1.0000000000000000e+00" nType="0">
        <Node pos="l" depth="1" NCoef="0" IVar="-1" Cut="0.0000000000000000e+00" cType="1" res="5.2440478611970320e-05" rms="1.3161657750606537e-01" purity="1.0000000000000000e+00" nType="-99"/>
        <Node pos="r" depth="1" NCoef="0" IVar="2" Cut="5.2672061920166016e+00" cType="0" res="-5.7010967284440994e-02" rms="1.4140610396862030e-01" purity="1.0000000000000000e+00" nType="0">
          <Node pos="l" depth="2" NCoef="0" IVar="-1" Cut="0.0000000000000000e+00" cType="1" res="-3.5452630370855331e-02" rms="1.1915400624275208e-01" purity="1.0000000000000000e+00" nType="-99"/>
          <Node pos="r" depth="2" NCoef="0" IVar="-1" Cut="0.0000000000000000e+00" cType="1" res="7.1456572040915489e-03" rms="1.2482966482639313e-01" purity="1.0000000000000000e+00" nType="-99"/>
        </Node>
      </Node>
    </BinaryTree>
    <BinaryTree type="DecisionTree" boostWeight="1.0000000000000000e+00" itree="62">
      <Node pos="s" depth="0" NCoef="0" IVar="2" Cut="6.1010098457336426e+00" cType="0" res="1.3455813750624657e-03" rms="1.3151401281356812e-01" purity="1.0000000000000000e+00" nType="0">
        <Node pos="l" depth="1" NCoef="0" IVar="-1" Cut="0.0000000000000000e+00" cType="1" res="3.6435125366551802e-05" rms="1.3144439458847046e-01" purity="1.0000000000000000e+00" nType="-99"/>
        <Node pos="r" depth="1" NCoef="0" IVar="2" Cut="5.2672061920166016e+00" cType="0" res="-4.8897068947553635e-02" rms="1.3787376880645752e-01" purity="1.0000000000000000e+00" nType="0">
          <Node pos="l" depth="2" NCoef="0" IVar="-1" Cut="0.0000000000000000e+00" cType="1" res="-2.8367981314659119e-02" rms="1.2149957567453384e-01" purity="1.0000000000000000e+00" nType="-99"/>
          <Node pos="r" depth="2" NCoef="0" IVar="-1" Cut="0.0000000000000000e+00" cType="1" res="5.6940792128443718e-03" rms="1.2726330757141113e-01" purity="1.0000000000000000e+00" nType="-99"/>
        </Node>
      </Node>
    </BinaryTree>
    <BinaryTree type="DecisionTree" boostWeight="1.0000000000000000e+00" itree="63">
      <Node pos="s" depth="0" NCoef="0" IVar="1" Cut="2.7192541956901550e-01" cType="0" res="1.3548353454098105e-03" rms="1.3146682083606720e-01" purity="1.0000000000000000e+00" nType="0">
        <Node pos="l" depth="1" NCoef="0" IVar="-1" Cut="0.0000000000000000e+00" cType="1" res="5.6394212879240513e-04" rms="1.3467848300933838e-01" purity="1.0000000000000000e+00" nType="-99"/>
        <Node pos="r" depth="1" NCoef="0" IVar="1" Cut="2.6657688617706299e-01" cType="0" res="-2.3233271203935146e-03" rms="1.2633541226387024e-01" purity="1.0000000000000000e+00" nType="0">
          <Node pos="l" depth="2" NCoef="0" IVar="-1" Cut="0.0000000000000000e+00" cType="1" res="-7.6838494278490543e-03" rms="1.1169263720512390e-01" purity="1.0000000000000000e+00" nType="-99"/>
          <Node pos="r" depth="2" NCoef="0" IVar="-1" Cut="0.0000000000000000e+00" cType="1" res="-5.1635538693517447e-04" rms="1.2665769457817078e-01" purity="1.0000000000000000e+00" nType="-99"/>
        </Node>
      </Node>
    </BinaryTree>
    <BinaryTree type="DecisionTree" boostWeight="1.0000000000000000e+00" itree="64">
      <Node pos="s" depth="0" NCoef="0" IVar="3" Cut="4.5263683319091797e+01" cType="0" res="1.3627203879877925e-03" rms="1.3151805102825165e-01" purity="1.0000000000000000e+00" nType="0">
        <Node pos="l" depth="1" NCoef="0" IVar="-1" Cut="0.0000000000000000e+00" cType="1" res="-2.3559385444968939e-03" rms="1.2332479655742645e-01" purity="1.0000000000000000e+00" nType="-99"/>
        <Node pos="r" depth="1" NCoef="0" IVar="6" Cut="2.7036058902740479e+00" cType="0" res="2.2333262022584677e-03" rms="1.3220234215259552e-01" purity="1.0000000000000000e+00" nType="0">
          <Node pos="l" depth="2" NCoef="0" IVar="-1" Cut="0.0000000000000000e+00" cType="1" res="-2.3664420004934072e-03" rms="1.1504238098859787e-01" purity="1.0000000000000000e+00" nType="-99"/>
          <Node pos="r" depth="2" NCoef="0" IVar="-1" Cut="0.0000000000000000e+00" cType="1" res="4.4750864617526531e-04" rms="1.3353134691715240e-01" purity="1.0000000000000000e+00" nType="-99"/>
        </Node>
      </Node>
    </BinaryTree>
    <BinaryTree type="DecisionTree" boostWeight="1.0000000000000000e+00" itree="65">
      <Node pos="s" depth="0" NCoef="0" IVar="2" Cut="5.5964765548706055e+00" cType="0" res="1.3922766083851457e-03" rms="1.3149809837341309e-01" purity="1.0000000000000000e+00" nType="0">
        <Node pos="l" depth="1" NCoef="0" IVar="-1" Cut="0.0000000000000000e+00" cType="1" res="3.7607824197039008e-05" rms="1.3147212564945221e-01" purity="1.0000000000000000e+00" nType="-99"/>
        <Node pos="r" depth="1" NCoef="0" IVar="6" Cut="8.4661173820495605e-01" cType="0" res="-4.7559153288602829e-02" rms="1.2988892197608948e-01" purity="1.0000000000000000e+00" nType="0">
          <Node pos="l" depth="2" NCoef="0" IVar="-1" Cut="0.0000000000000000e+00" cType="1" res="-3.8154285866767168e-03" rms="1.1926370114088058e-01" purity="1.0000000000000000e+00" nType="-99"/>
          <Node pos="r" depth="2" NCoef="0" IVar="-1" Cut="0.0000000000000000e+00" cType="1" res="-2.0538292825222015e-02" rms="1.3592417538166046e-01" purity="1.0000000000000000e+00" nType="-99"/>
        </Node>
      </Node>
    </BinaryTree>
    <BinaryTree type="DecisionTree" boostWeight="1.0000000000000000e+00" itree="66">
      <Node pos="s" depth="0" NCoef="0" IVar="3" Cut="1.6009950637817383e+01" cType="0" res="1.3942025834694505e-03" rms="1.3149555027484894e-01" purity="1.0000000000000000e+00" nType="0">
        <Node pos="l" depth="1" NCoef="0" IVar="-1" Cut="0.0000000000000000e+00" cType="1" res="-1.5126587823033333e-04" rms="1.3111591339111328e-01" purity="1.0000000000000000e+00" nType="-99"/>
        <Node pos="r" depth="1" NCoef="0" IVar="6" Cut="9.0603977441787720e-01" cType="0" res="1.6993502154946327e-02" rms="1.4097338914871216e-01" purity="1.0000000000000000e+00" nType="0">
          <Node pos="l" depth="2" NCoef="0" IVar="-1" Cut="0.0000000000000000e+00" cType="1" res="-3.7602586671710014e-03" rms="1.2804402410984039e-01" purity="1.0000000000000000e+00" nType="-99"/>
          <Node pos="r" depth="2" NCoef="0" IVar="-1" Cut="0.0000000000000000e+00" cType="1" res="1.7339590936899185e-02" rms="1.4572860300540924e-01" purity="1.0000000000000000e+00" nType="-99"/>
        </Node>
      </Node>
    </BinaryTree>
    <BinaryTree type="DecisionTree" boostWeight="1.0000000000000000e+00" itree="67">
      <Node pos="s" depth="0" NCoef="0" IVar="5" Cut="1.4304896545410156e+02" cType="0" res="1.3862336054444313e-03" rms="1.3158299028873444e-01" purity="1.0000000000000000e+00" nType="0">
        <Node pos="l" depth="1" NCoef="0" IVar="-1" Cut="0.0000000000000000e+00" cType="1" res="-7.7274166978895664e-03" rms="1.4642839133739471e-01" purity="1.0000000000000000e+00" nType="-99"/>
        <Node pos="r" depth="1" NCoef="0" IVar="5" Cut="4.9850799560546875e+01" cType="0" res="1.6945314127951860e-03" rms="1.3136205077171326e-01" purity="1.0000000000000000e+00" nType="0">
          <Node pos="l" depth="2" NCoef="0" IVar="-1" Cut="0.0000000000000000e+00" cType="1" res="1.9863541238009930e-03" rms="1.4627334475517273e-01" purity="1.0000000000000000e+00" nType="-99"/>
          <Node pos="r" depth="2" NCoef="0" IVar="-1" Cut="0.0000000000000000e+00" cType="1" res="-2.4826338631100953e-04" rms="1.2793035805225372e-01" purity="1.0000000000000000e+00" nType="-99"/>
        </Node>
      </Node>
    </BinaryTree>
    <BinaryTree type="DecisionTree" boostWeight="1.0000000000000000e+00" itree="68">
      <Node pos="s" depth="0" NCoef="0" IVar="4" Cut="1.0587614774703979e+00" cType="0" res="1.4033640036359429e-03" rms="1.3167107105255127e-01" purity="1.0000000000000000e+00" nType="0">
        <Node pos="l" depth="1" NCoef="0" IVar="-1" Cut="0.0000000000000000e+00" cType="1" res="1.7805087845772505e-03" rms="1.2900920212268829e-01" purity="1.0000000000000000e+00" nType="-99"/>
        <Node pos="r" depth="1" NCoef="0" IVar="3" Cut="5.5014926910400391e+01" cType="0" res="1.8559717864263803e-04" rms="1.3215096294879913e-01" purity="1.0000000000000000e+00" nType="0">
          <Node pos="l" depth="2" NCoef="0" IVar="-1" Cut="0.0000000000000000e+00" cType="1" res="-8.4838327020406723e-03" rms="1.2677837908267975e-01" purity="1.0000000000000000e+00" nType="-99"/>
          <Node pos="r" depth="2" NCoef="0" IVar="-1" Cut="0.0000000000000000e+00" cType="1" res="-2.2160736261866987e-04" rms="1.3215851783752441e-01" purity="1.0000000000000000e+00" nType="-99"/>
        </Node>
      </Node>
    </BinaryTree>
    <BinaryTree type="DecisionTree" boostWeight="1.0000000000000000e+00" itree="69">
      <Node pos="s" depth="0" NCoef="0" IVar="4" Cut="-9.8462051391601562e+01" cType="0" res="1.3918415643274784e-03" rms="1.3169747591018677e-01" purity="1.0000000000000000e+00" nType="0">
        <Node pos="l" depth="1" NCoef="0" IVar="-1" Cut="0.0000000000000000e+00" cType="1" res="-5.5583176435902715e-04" rms="1.2871812283992767e-01" purity="1.0000000000000000e+00" nType="-99"/>
        <Node pos="r" depth="1" NCoef="0" IVar="6" Cut="1.3749214410781860e+00" cType="0" res="4.8193028196692467e-03" rms="1.3608101010322571e-01" purity="1.0000000000000000e+00" nType="0">
          <Node pos="l" depth="2" NCoef="0" IVar="-1" Cut="0.0000000000000000e+00" cType="1" res="-2.2675381042063236e-03" rms="1.2588422000408173e-01" purity="1.0000000000000000e+00" nType="-99"/>
          <Node pos="r" depth="2" NCoef="0" IVar="-1" Cut="0.0000000000000000e+00" cType="1" res="3.0409162864089012e-03" rms="1.4084146916866302e-01" purity="1.0000000000000000e+00" nType="-99"/>
        </Node>
      </Node>
    </BinaryTree>
    <BinaryTree type="DecisionTree" boostWeight="1.0000000000000000e+00" itree="70">
      <Node pos="s" depth="0" NCoef="0" IVar="5" Cut="2.3085911273956299e+00" cType="0" res="1.3737230328842998e-03" rms="1.3145148754119873e-01" purity="1.0000000000000000e+00" nType="0">
        <Node pos="l" depth="1" NCoef="0" IVar="-1" Cut="0.0000000000000000e+00" cType="1" res="3.6666286177933216e-05" rms="1.3146732747554779e-01" purity="1.0000000000000000e+00" nType="-99"/>
        <Node pos="r" depth="1" NCoef="0" IVar="6" Cut="7.0077449083328247e-01" cType="0" res="-3.1586345285177231e-02" rms="1.2483235448598862e-01" purity="1.0000000000000000e+00" nType="0">
          <Node pos="l" depth="2" NCoef="0" IVar="-1" Cut="0.0000000000000000e+00" cType="1" res="1.8581110052764416e-03" rms="1.2402300536632538e-01" purity="1.0000000000000000e+00" nType="-99"/>
          <Node pos="r" depth="2" NCoef="0" IVar="-1" Cut="0.0000000000000000e+00" cType="1" res="-2.3527456447482109e-02" rms="9.4042859971523285e-02" purity="1.0000000000000000e+00" nType="-99"/>
        </Node>
      </Node>
    </BinaryTree>
    <BinaryTree type="DecisionTree" boostWeight="1.0000000000000000e+00" itree="71">
      <Node pos="s" depth="0" NCoef="0" IVar="2" Cut="6.1010098457336426e+00" cType="0" res="1.3923046644777060e-03" rms="1.3149477541446686e-01" purity="1.0000000000000000e+00" nType="0">
        <Node pos="l" depth="1" NCoef="0" IVar="-1" Cut="0.0000000000000000e+00" cType="1" res="2.2423322661779821e-05" rms="1.3145141303539276e-01" purity="1.0000000000000000e+00" nType="-99"/>
        <Node pos="r" depth="1" NCoef="0" IVar="6" Cut="6.8860447406768799e-01" cType="0" res="-3.9480600506067276e-02" rms="1.3512720167636871e-01" purity="1.0000000000000000e+00" nType="0">
          <Node pos="l" depth="2" NCoef="0" IVar="-1" Cut="0.0000000000000000e+00" cType="1" res="4.6827998012304306e-03" rms="1.3355861604213715e-01" purity="1.0000000000000000e+00" nType="-99"/>
          <Node pos="r" depth="2" NCoef="0" IVar="-1" Cut="0.0000000000000000e+00" cType="1" res="-2.6739189401268959e-02" rms="1.0340917110443115e-01" purity="1.0000000000000000e+00" nType="-99"/>
        </Node>
      </Node>
    </BinaryTree>
    <BinaryTree type="DecisionTree" boostWeight="1.0000000000000000e+00" itree="72">
      <Node pos="s" depth="0" NCoef="0" IVar="1" Cut="6.5523105859756470e-01" cType="0" res="1.4040585374459624e-03" rms="1.3145717978477478e-01" purity="1.0000000000000000e+00" nType="0">
        <Node pos="l" depth="1" NCoef="0" IVar="-1" Cut="0.0000000000000000e+00" cType="1" res="6.1361328698694706e-03" rms="1.4707329869270325e-01" purity="1.0000000000000000e+00" nType="-99"/>
        <Node pos="r" depth="1" NCoef="0" IVar="0" Cut="-1.3059309720993042e+00" cType="0" res="9.1570452786982059e-04" rms="1.3086463510990143e-01" purity="1.0000000000000000e+00" nType="0">
          <Node pos="l" depth="2" NCoef="0" IVar="-1" Cut="0.0000000000000000e+00" cType="1" res="-4.8677378799766302e-04" rms="1.3120572268962860e-01" purity="1.0000000000000000e+00" nType="-99"/>
          <Node pos="r" depth="2" NCoef="0" IVar="-1" Cut="0.0000000000000000e+00" cType="1" res="1.8444730667397380e-03" rms="1.2850099802017212e-01" purity="1.0000000000000000e+00" nType="-99"/>
        </Node>
      </Node>
    </BinaryTree>
    <BinaryTree type="DecisionTree" boostWeight="1.0000000000000000e+00" itree="73">
      <Node pos="s" depth="0" NCoef="0" IVar="1" Cut="9.6436090767383575e-02" cType="0" res="1.4196827542036772e-03" rms="1.3159687817096710e-01" purity="1.0000000000000000e+00" nType="0">
        <Node pos="l" depth="1" NCoef="0" IVar="-1" Cut="0.0000000000000000e+00" cType="1" res="1.2323675036896020e-04" rms="1.3188888132572174e-01" purity="1.0000000000000000e+00" nType="-99"/>
        <Node pos="r" depth="1" NCoef="0" IVar="6" Cut="3.4366279840469360e-01" cType="0" res="-1.0637006722390652e-02" rms="1.2467633187770844e-01" purity="1.0000000000000000e+00" nType="0">
          <Node pos="l" depth="2" NCoef="0" IVar="-1" Cut="0.0000000000000000e+00" cType="1" res="-6.7923701135441661e-04" rms="1.2414227426052094e-01" purity="1.0000000000000000e+00" nType="-99"/>
          <Node pos="r" depth="2" NCoef="0" IVar="-1" Cut="0.0000000000000000e+00" cType="1" res="-1.3828575611114502e-02" rms="1.2015343457460403e-01" purity="1.0000000000000000e+00" nType="-99"/>
        </Node>
      </Node>
    </BinaryTree>
    <BinaryTree type="DecisionTree" boostWeight="1.0000000000000000e+00" itree="74">
      <Node pos="s" depth="0" NCoef="0" IVar="3" Cut="1.2179104804992676e+01" cType="0" res="1.4352968428283930e-03" rms="1.3161376118659973e-01" purity="1.0000000000000000e+00" nType="0">
        <Node pos="l" depth="1" NCoef="0" IVar="-1" Cut="0.0000000000000000e+00" cType="1" res="-4.7242414439097047e-05" rms="1.3143117725849152e-01" purity="1.0000000000000000e+00" nType="-99"/>
        <Node pos="r" depth="1" NCoef="0" IVar="6" Cut="2.7691847085952759e-01" cType="0" res="3.4136790782213211e-02" rms="1.5414854884147644e-01" purity="1.0000000000000000e+00" nType="0">
          <Node pos="l" depth="2" NCoef="0" IVar="-1" Cut="0.0000000000000000e+00" cType="1" res="4.4036980718374252e-02" rms="1.3450829684734344e-01" purity="1.0000000000000000e+00" nType="-99"/>
          <Node pos="r" depth="2" NCoef="0" IVar="-1" Cut="0.0000000000000000e+00" cType="1" res="-2.2438827902078629e-02" rms="1.4482963085174561e-01" purity="1.0000000000000000e+00" nType="-99"/>
        </Node>
      </Node>
    </BinaryTree>
    <BinaryTree type="DecisionTree" boostWeight="1.0000000000000000e+00" itree="75">
      <Node pos="s" depth="0" NCoef="0" IVar="2" Cut="5.5964765548706055e+00" cType="0" res="1.4023935655131936e-03" rms="1.3151642680168152e-01" purity="1.0000000000000000e+00" nType="0">
        <Node pos="l" depth="1" NCoef="0" IVar="-1" Cut="0.0000000000000000e+00" cType="1" res="2.5891655241139233e-05" rms="1.3149993121623993e-01" purity="1.0000000000000000e+00" nType="-99"/>
        <Node pos="r" depth="1" NCoef="0" IVar="1" Cut="4.6345409750938416e-01" cType="0" res="-4.2071219533681870e-02" rms="1.2907463312149048e-01" purity="1.0000000000000000e+00" nType="0">
          <Node pos="l" depth="2" NCoef="0" IVar="-1" Cut="0.0000000000000000e+00" cType="1" res="-5.1668076775968075e-03" rms="7.7542364597320557e-02" purity="1.0000000000000000e+00" nType="-99"/>
          <Node pos="r" depth="2" NCoef="0" IVar="-1" Cut="0.0000000000000000e+00" cType="1" res="-2.0583285018801689e-02" rms="1.6364721953868866e-01" purity="1.0000000000000000e+00" nType="-99"/>
        </Node>
      </Node>
    </BinaryTree>
    <BinaryTree type="DecisionTree" boostWeight="1.0000000000000000e+00" itree="76">
      <Node pos="s" depth="0" NCoef="0" IVar="5" Cut="1.9973605346679688e+02" cType="0" res="1.4086565934121609e-03" rms="1.3147813081741333e-01" purity="1.0000000000000000e+00" nType="0">
        <Node pos="l" depth="1" NCoef="0" IVar="-1" Cut="0.0000000000000000e+00" cType="1" res="-1.3994996435940266e-02" rms="1.4695863425731659e-01" purity="1.0000000000000000e+00" nType="-99"/>
        <Node pos="r" depth="1" NCoef="0" IVar="2" Cut="1.1903142929077148e+01" cType="0" res="1.5505410265177488e-03" rms="1.3140253722667694e-01" purity="1.0000000000000000e+00" nType="0">
          <Node pos="l" depth="2" NCoef="0" IVar="-1" Cut="0.0000000000000000e+00" cType="1" res="3.7117459578439593e-04" rms="1.3015429675579071e-01" purity="1.0000000000000000e+00" nType="-99"/>
          <Node pos="r" depth="2" NCoef="0" IVar="-1" Cut="0.0000000000000000e+00" cType="1" res="-2.1360006649047136e-03" rms="1.3882201910018921e-01" purity="1.0000000000000000e+00" nType="-99"/>
        </Node>
      </Node>
    </BinaryTree>
    <BinaryTree type="DecisionTree" boostWeight="1.0000000000000000e+00" itree="77">
      <Node pos="s" depth="0" NCoef="0" IVar="3" Cut="2.2278606414794922e+01" cType="0" res="1.3737498084083200e-03" rms="1.3129957020282745e-01" purity="1.0000000000000000e+00" nType="0">
        <Node pos="l" depth="1" NCoef="0" IVar="-1" Cut="0.0000000000000000e+00" cType="1" res="-2.7313391910865903e-04" rms="1.2954922020435333e-01" purity="1.0000000000000000e+00" nType="-99"/>
        <Node pos="r" depth="1" NCoef="0" IVar="2" Cut="1.3841234207153320e+01" cType="0" res="7.0562930777668953e-03" rms="1.3944575190544128e-01" purity="1.0000000000000000e+00" nType="0">
          <Node pos="l" depth="2" NCoef="0" IVar="-1" Cut="0.0000000000000000e+00" cType="1" res="7.9732900485396385e-03" rms="1.3501815497875214e-01" purity="1.0000000000000000e+00" nType="-99"/>
          <Node pos="r" depth="2" NCoef="0" IVar="-1" Cut="0.0000000000000000e+00" cType="1" res="-2.5315134553238750e-04" rms="1.4010387659072876e-01" purity="1.0000000000000000e+00" nType="-99"/>
        </Node>
      </Node>
    </BinaryTree>
    <BinaryTree type="DecisionTree" boostWeight="1.0000000000000000e+00" itree="78">
      <Node pos="s" depth="0" NCoef="0" IVar="1" Cut="1.9341702759265900e-01" cType="0" res="1.3887161621823907e-03" rms="1.3138455152511597e-01" purity="1.0000000000000000e+00" nType="0">
        <Node pos="l" depth="1" NCoef="0" IVar="-1" Cut="0.0000000000000000e+00" cType="1" res="3.0546009656973183e-04" rms="1.3282237946987152e-01" purity="1.0000000000000000e+00" nType="-99"/>
        <Node pos="r" depth="1" NCoef="0" IVar="5" Cut="1.9071640014648438e+01" cType="0" res="-3.4629555884748697e-03" rms="1.2555645406246185e-01" purity="1.0000000000000000e+00" nType="0">
          <Node pos="l" depth="2" NCoef="0" IVar="-1" Cut="0.0000000000000000e+00" cType="1" res="-3.2639394048601389e-03" rms="1.2941825389862061e-01" purity="1.0000000000000000e+00" nType="-99"/>
          <Node pos="r" depth="2" NCoef="0" IVar="-1" Cut="0.0000000000000000e+00" cType="1" res="2.2391101811081171e-03" rms="1.1662624776363373e-01" purity="1.0000000000000000e+00" nType="-99"/>
        </Node>
      </Node>
    </BinaryTree>
    <BinaryTree type="DecisionTree" boostWeight="1.0000000000000000e+00" itree="79">
      <Node pos="s" depth="0" NCoef="0" IVar="3" Cut="1.6009950637817383e+01" cType="0" res="1.3977340422570705e-03" rms="1.3125561177730560e-01" purity="1.0000000000000000e+00" nType="0">
        <Node pos="l" depth="1" NCoef="0" IVar="-1" Cut="0.0000000000000000e+00" cType="1" res="-1.2515994603745639e-04" rms="1.3091889023780823e-01" purity="1.0000000000000000e+00" nType="-99"/>
        <Node pos="r" depth="1" NCoef="0" IVar="5" Cut="2.5871654510498047e+01" cType="0" res="1.4234251342713833e-02" rms="1.3988259434700012e-01" purity="1.0000000000000000e+00" nType="0">
          <Node pos="l" depth="2" NCoef="0" IVar="-1" Cut="0.0000000000000000e+00" cType="1" res="1.6546174883842468e-02" rms="1.5074071288108826e-01" purity="1.0000000000000000e+00" nType="-99"/>
          <Node pos="r" depth="2" NCoef="0" IVar="-1" Cut="0.0000000000000000e+00" cType="1" res="-4.1154166683554649e-03" rms="1.1915979534387589e-01" purity="1.0000000000000000e+00" nType="-99"/>
        </Node>
      </Node>
    </BinaryTree>
    <BinaryTree type="DecisionTree" boostWeight="1.0000000000000000e+00" itree="80">
      <Node pos="s" depth="0" NCoef="0" IVar="2" Cut="2.0480209350585938e+01" cType="0" res="1.3816531281918287e-03" rms="1.3125331699848175e-01" purity="1.0000000000000000e+00" nType="0">
        <Node pos="l" depth="1" NCoef="0" IVar="-1" Cut="0.0000000000000000e+00" cType="1" res="8.6616782937198877e-04" rms="1.2479801476001740e-01" purity="1.0000000000000000e+00" nType="-99"/>
        <Node pos="r" depth="1" NCoef="0" IVar="3" Cut="3.8164180755615234e+01" cType="0" res="-4.2214113636873662e-04" rms="1.3474430143833160e-01" purity="1.0000000000000000e+00" nType="0">
          <Node pos="l" depth="2" NCoef="0" IVar="-1" Cut="0.0000000000000000e+00" cType="1" res="-5.9306668117642403e-03" rms="1.2185002118349075e-01" purity="1.0000000000000000e+00" nType="-99"/>
          <Node pos="r" depth="2" NCoef="0" IVar="-1" Cut="0.0000000000000000e+00" cType="1" res="-2.5920913321897388e-04" rms="1.3523158431053162e-01" purity="1.0000000000000000e+00" nType="-99"/>
        </Node>
      </Node>
    </BinaryTree>
    <BinaryTree type="DecisionTree" boostWeight="1.0000000000000000e+00" itree="81">
      <Node pos="s" depth="0" NCoef="0" IVar="6" Cut="3.0786564350128174e+00" cType="0" res="1.3728301273658872e-03" rms="1.3119512796401978e-01" purity="1.0000000000000000e+00" nType="0">
        <Node pos="l" depth="1" NCoef="0" IVar="-1" Cut="0.0000000000000000e+00" cType="1" res="-3.9412854239344597e-03" rms="9.8456278443336487e-02" purity="1.0000000000000000e+00" nType="-99"/>
        <Node pos="r" depth="1" NCoef="0" IVar="5" Cut="2.3085911273956299e+00" cType="0" res="1.6626204596832395e-03" rms="1.3160204887390137e-01" purity="1.0000000000000000e+00" nType="0">
          <Node pos="l" depth="2" NCoef="0" IVar="-1" Cut="0.0000000000000000e+00" cType="1" res="1.1653741967165843e-04" rms="1.3163135945796967e-01" purity="1.0000000000000000e+00" nType="-99"/>
          <Node pos="r" depth="2" NCoef="0" IVar="-1" Cut="0.0000000000000000e+00" cType="1" res="-7.2531145997345448e-03" rms="1.2333621084690094e-01" purity="1.0000000000000000e+00" nType="-99"/>
        </Node>
      </Node>
    </BinaryTree>
    <BinaryTree type="DecisionTree" boostWeight="1.0000000000000000e+00" itree="82">
      <Node pos="s" depth="0" NCoef="0" IVar="0" Cut="-2.4490435123443604e+00" cType="0" res="1.3802013127133250e-03" rms="1.3118396699428558e-01" purity="1.0000000000000000e+00" nType="0">
        <Node pos="l" depth="1" NCoef="0" IVar="3" Cut="3.3074626922607422e+01" cType="0" res="1.4776750467717648e-03" rms="1.3123916089534760e-01" purity="1.0000000000000000e+00" nType="0">
          <Node pos="l" depth="2" NCoef="0" IVar="-1" Cut="0.0000000000000000e+00" cType="1" res="-6.9254316622391343e-04" rms="1.2577913701534271e-01" purity="1.0000000000000000e+00" nType="-99"/>
          <Node pos="r" depth="2" NCoef="0" IVar="-1" Cut="0.0000000000000000e+00" cType="1" res="5.0156941870227456e-04" rms="1.3454076647758484e-01" purity="1.0000000000000000e+00" nType="-99"/>
        </Node>
        <Node pos="r" depth="1" NCoef="0" IVar="-1" Cut="0.0000000000000000e+00" cType="1" res="-1.1059761978685856e-02" rms="7.4587538838386536e-02" purity="1.0000000000000000e+00" nType="-99"/>
      </Node>
    </BinaryTree>
    <BinaryTree type="DecisionTree" boostWeight="1.0000000000000000e+00" itree="83">
      <Node pos="s" depth="0" NCoef="0" IVar="0" Cut="1.9494545459747314e+00" cType="0" res="1.4031056780368090e-03" rms="1.3126273453235626e-01" purity="1.0000000000000000e+00" nType="0">
        <Node pos="l" depth="1" NCoef="0" IVar="-1" Cut="0.0000000000000000e+00" cType="1" res="-3.3004444558173418e-03" rms="1.2691858410835266e-01" purity="1.0000000000000000e+00" nType="-99"/>
        <Node pos="r" depth="1" NCoef="0" IVar="0" Cut="1.6355345249176025e+00" cType="0" res="1.8733531469479203e-03" rms="1.3141241669654846e-01" purity="1.0000000000000000e+00" nType="0">
          <Node pos="l" depth="2" NCoef="0" IVar="-1" Cut="0.0000000000000000e+00" cType="1" res="7.6799374073743820e-03" rms="1.3431060314178467e-01" purity="1.0000000000000000e+00" nType="-99"/>
          <Node pos="r" depth="2" NCoef="0" IVar="-1" Cut="0.0000000000000000e+00" cType="1" res="-1.2420625716913491e-04" rms="1.3121601939201355e-01" purity="1.0000000000000000e+00" nType="-99"/>
        </Node>
      </Node>
    </BinaryTree>
    <BinaryTree type="DecisionTree" boostWeight="1.0000000000000000e+00" itree="84">
      <Node pos="s" depth="0" NCoef="0" IVar="1" Cut="9.6436090767383575e-02" cType="0" res="1.4029941521584988e-03" rms="1.3124702870845795e-01" purity="1.0000000000000000e+00" nType="0">
        <Node pos="l" depth="1" NCoef="0" IVar="-1" Cut="0.0000000000000000e+00" cType="1" res="1.0658423707354814e-04" rms="1.3158138096332550e-01" purity="1.0000000000000000e+00" nType="-99"/>
        <Node pos="r" depth="1" NCoef="0" IVar="0" Cut="-2.0406227111816406e+00" cType="0" res="-9.3758860602974892e-03" rms="1.2350054085254669e-01" purity="1.0000000000000000e+00" nType="0">
          <Node pos="l" depth="2" NCoef="0" IVar="-1" Cut="0.0000000000000000e+00" cType="1" res="-3.1111701391637325e-03" rms="1.2276004999876022e-01" purity="1.0000000000000000e+00" nType="-99"/>
          <Node pos="r" depth="2" NCoef="0" IVar="-1" Cut="0.0000000000000000e+00" cType="1" res="3.0109932646155357e-02" rms="1.1667714267969131e-01" purity="1.0000000000000000e+00" nType="-99"/>
        </Node>
      </Node>
    </BinaryTree>
    <BinaryTree type="DecisionTree" boostWeight="1.0000000000000000e+00" itree="85">
      <Node pos="s" depth="0" NCoef="0" IVar="0" Cut="-1.9023375511169434e+00" cType="0" res="1.3946949038654566e-03" rms="1.3120722770690918e-01" purity="1.0000000000000000e+00" nType="0">
        <Node pos="l" depth="1" NCoef="0" IVar="-1" Cut="0.0000000000000000e+00" cType="1" res="1.2988057278562337e-04" rms="1.3147878646850586e-01" purity="1.0000000000000000e+00" nType="-99"/>
        <Node pos="r" depth="1" NCoef="0" IVar="6" Cut="8.8732099533081055e-01" cType="0" res="-9.6240388229489326e-03" rms="1.2423871457576752e-01" purity="1.0000000000000000e+00" nType="0">
          <Node pos="l" depth="2" NCoef="0" IVar="-1" Cut="0.0000000000000000e+00" cType="1" res="2.7388574089854956e-03" rms="1.1575717478990555e-01" purity="1.0000000000000000e+00" nType="-99"/>
          <Node pos="r" depth="2" NCoef="0" IVar="-1" Cut="0.0000000000000000e+00" cType="1" res="-1.2164412997663021e-02" rms="1.2865070998668671e-01" purity="1.0000000000000000e+00" nType="-99"/>
        </Node>
      </Node>
    </BinaryTree>
    <BinaryTree type="DecisionTree" boostWeight="1.0000000000000000e+00" itree="86">
      <Node pos="s" depth="0" NCoef="0" IVar="4" Cut="-9.8462051391601562e+01" cType="0" res="1.3886995147913694e-03" rms="1.3111834228038788e-01" purity="1.0000000000000000e+00" nType="0">
